4088 50
</s> 0.008005 0.008839 -0.007661 -0.006556 0.002733 0.006042 0.001882 0.000423 -0.007207 0.004437 -0.008713 0.002499 -0.001503 -0.001914 -0.006631 -0.003764 0.005159 0.006051 0.005938 0.003195 0.003090 -0.007605 -0.008192 0.009939 0.007603 0.006180 -0.001208 0.008031 -0.000990 0.001469 -0.000298 -0.005966 0.002625 -0.002675 -0.007651 0.009508 0.008759 -0.002190 -0.000452 0.001018 -0.007275 -0.008014 0.009109 0.000126 -0.005165 -0.006084 -0.006153 0.003394 0.000403 0.002662 
， -0.372162 -0.366562 -0.177908 0.137734 0.025826 0.097060 -0.081124 -0.075721 -0.259144 -0.211774 0.245159 0.139924 -0.131421 -0.016645 -0.292027 0.329039 0.221563 -0.261832 0.268821 0.345583 0.197623 0.549448 0.183369 0.085382 -0.117402 -0.110894 0.314270 -0.106008 0.181207 0.043446 -0.082145 -0.111954 -0.063811 0.014657 0.139518 0.099389 -0.108802 -0.107996 0.253104 -0.426103 -0.208442 0.455727 -0.319219 0.440658 0.241058 0.378171 0.373078 0.239749 0.146152 0.212832 
的 -0.401451 0.105398 0.134356 -0.018329 -0.191222 0.152090 -0.017432 0.061159 0.078549 0.265945 0.452192 -0.030027 -0.210991 -0.105656 -0.272958 0.378200 -0.158469 -0.260218 0.318665 0.564191 -0.368604 0.162541 -0.087074 -0.000028 -0.069494 0.045955 0.175240 0.258061 0.083195 0.222337 -0.040617 0.097713 -0.226810 -0.045341 0.418108 0.121802 -0.056011 -0.530092 0.197377 -0.164709 -0.334018 0.297663 -0.118213 -0.168376 0.488702 0.493959 0.261070 0.288579 0.034366 -0.224508 
。 -0.239382 -0.368819 -0.265324 0.174517 -0.049912 0.276203 -0.042478 0.022637 -0.108798 -0.144450 0.295118 0.043868 -0.192774 -0.179150 -0.356218 0.429600 -0.151521 -0.158609 0.265385 0.450171 0.234871 0.529670 0.004371 -0.000079 0.041314 0.090350 0.488319 0.300760 0.259664 0.189263 -0.062245 0.036019 -0.300151 -0.048578 0.067419 0.372481 0.052600 -0.101081 0.294689 -0.290193 -0.422347 0.520430 -0.113488 0.513651 0.522505 0.591272 0.438450 0.154798 0.167247 0.200689 
、 0.150102 -0.485787 0.751508 0.116788 -0.048880 0.306927 -0.113682 0.055951 -0.200114 0.045446 0.553413 -0.212810 0.030882 -0.243923 -0.008217 0.256552 -0.297772 -0.226042 0.423541 0.756199 -0.121146 0.420481 0.064544 0.009349 -0.278667 -0.061509 0.234402 -0.138694 -0.140263 0.308304 0.202977 -0.368142 -0.375749 -0.195788 0.489570 -0.249054 -0.468907 -0.383756 0.278426 -0.251202 -0.042083 0.112470 0.179918 0.058011 0.363174 0.322567 0.316513 -0.008393 0.158385 -0.329150 
一 -0.083438 0.027642 0.052804 -0.093609 -0.014418 0.061926 0.141007 -0.096999 -0.353678 0.066526 0.194883 0.305327 -0.443640 0.215775 -0.001286 0.336771 0.439812 -0.246554 -0.081960 0.134957 -0.380871 -0.147005 -0.177150 -0.348389 0.473762 -0.106343 -0.665495 -0.149220 0.430318 -0.073873 0.091356 0.134116 -0.181355 -0.176476 0.272847 -0.007295 0.049987 -0.380105 0.221330 0.309125 0.365090 0.105006 0.013649 0.430383 0.449397 0.327713 0.145795 0.159068 0.146470 -0.253856 
国 -0.032715 0.011141 0.242034 0.140717 -0.091186 0.083823 0.678397 0.089297 -0.126269 0.188039 -0.051032 0.147574 -0.270857 -0.188093 0.098912 0.385807 0.240369 0.050717 0.854749 -0.108186 -0.406277 0.146656 -0.314961 -0.506448 -0.353885 -0.508701 -0.031555 0.087993 0.250883 -0.228742 -0.584240 0.091623 -0.459423 0.119184 0.173617 0.449326 -0.237481 -0.037519 -0.104908 -0.030493 0.209788 0.542653 -0.339267 -0.245800 0.144753 -0.181082 -0.074530 -0.216714 0.788419 -0.184886 
在 -0.022035 -0.203254 0.168217 0.060295 0.128990 0.330896 0.040266 -0.003504 0.125635 0.285985 0.307569 0.302554 0.108273 -0.041618 -0.384391 0.352338 0.226325 -0.246807 0.296364 0.042311 -0.614286 0.483888 0.500653 -0.090187 -0.448918 -0.098657 -0.241073 -0.115265 0.229919 -0.176464 -0.272304 -0.444934 -0.145014 0.166950 0.233936 -0.049584 -0.052857 -0.181242 -0.004459 -0.272758 -0.092743 -0.053856 -0.056878 0.095014 0.180219 0.084601 0.222519 0.535986 0.290832 -0.455360 
中 0.085177 -0.059817 0.139696 0.151226 -0.074123 -0.065915 0.428120 -0.079007 -0.246881 -0.239242 -0.134696 0.474119 -0.239716 0.079816 -0.444938 0.215149 0.347087 -0.095052 0.567487 0.072866 -0.028373 0.415303 -0.100614 -0.145658 -0.065639 -0.210052 0.345476 0.083468 0.055786 -0.236634 -0.200503 -0.144554 -0.287251 -0.430140 0.028850 0.010749 -0.084225 -0.046778 0.297796 0.035713 0.288258 0.385174 -0.507493 0.002411 0.206715 0.127681 0.132119 0.197110 0.388428 -0.344619 
了 0.343065 -0.360008 0.086823 0.029958 0.137056 0.264863 -0.343119 0.533421 0.005257 0.220665 0.068603 0.353449 -0.728297 -0.263322 -0.604631 0.184050 0.186616 -0.240562 0.264442 0.225700 -0.068866 0.539674 -0.027166 -0.178834 -0.041790 -0.307755 -0.550795 -0.005132 0.505768 0.272812 0.382793 0.493165 -0.295771 0.113711 0.039378 0.281103 -0.327380 0.063694 -0.156459 -0.299847 -0.306707 0.605708 -0.107635 0.053183 0.445878 0.589901 0.145415 0.131757 0.021789 -0.343164 
是 -0.429570 -0.409907 0.113275 0.036869 -0.044719 0.488225 0.248235 0.070509 -0.059777 0.312010 0.374726 0.161463 0.103346 -0.243926 -0.168044 0.338121 0.445381 -0.192628 0.323465 0.168593 -0.271998 0.332773 0.332535 0.335699 0.030071 -0.027155 -0.297995 -0.025781 0.255484 -0.366915 -0.188397 -0.466515 -0.072026 0.013349 -0.104732 0.134052 0.114940 -0.107983 -0.026675 -0.226612 0.192639 0.104144 -0.190994 0.384815 0.273503 0.103137 -0.102357 0.332885 -0.008805 0.023193 
人 -0.154631 -0.373633 0.048373 -0.051955 -0.095345 -0.229758 0.025443 -0.067008 -0.101994 0.115335 -0.168983 0.073493 0.121874 0.556009 -0.081030 0.641434 0.121442 -0.260064 0.739938 0.190185 -0.244333 0.282472 -0.307788 -0.134654 0.034578 -0.190325 -0.224845 0.255996 -0.090354 0.352048 -0.085337 0.250534 -0.283652 0.208891 -0.544646 -0.118175 0.043305 -0.429946 0.192417 0.144743 0.230626 0.412864 -0.152331 -0.164730 0.128229 0.008941 0.369801 0.110594 0.311759 0.307448 
和 -0.062085 -0.137804 0.357218 0.147803 -0.235561 0.463814 -0.075257 -0.168983 -0.153625 0.167973 0.398939 -0.212833 -0.107229 -0.202442 -0.432830 0.244941 -0.472550 0.045306 0.489020 0.460549 -0.268721 0.579741 0.206546 -0.032254 -0.203364 -0.120800 0.257261 0.007955 -0.005509 -0.016530 -0.038286 -0.308070 -0.432439 -0.126423 0.256162 0.133033 -0.376242 -0.547104 0.227279 -0.318766 -0.109523 0.332489 0.000328 -0.164956 0.442648 0.336159 0.495583 0.151935 0.237564 -0.461318 
有 -0.311153 -0.180504 -0.010406 -0.418415 0.057926 0.077731 0.171395 -0.214934 -0.156942 0.393011 0.400745 0.092662 -0.102781 -0.253921 -0.477787 0.277986 0.497087 -0.141106 0.190183 0.229673 -0.676686 0.220944 -0.277555 0.319474 -0.134741 -0.279491 -0.239958 -0.037440 0.136616 -0.246083 0.310383 -0.290456 -0.231484 -0.126154 0.073686 0.101198 -0.064438 -0.361183 -0.188342 0.073282 0.173414 0.457203 -0.162570 -0.179283 -0.081757 0.274056 -0.580789 0.029618 -0.183613 -0.338253 
大 -0.217758 0.026639 0.017156 -0.044446 -0.152590 0.015592 0.147519 -0.017706 0.227287 -0.259613 0.344712 0.084927 -0.279612 0.155199 -0.009484 0.223360 0.295461 -0.220230 0.511122 0.097065 -0.496102 0.191745 -0.292274 -0.245633 -0.086675 -0.055057 -0.137611 -0.114306 -0.560940 -0.153612 -0.172503 -0.361712 -0.349935 0.580962 0.030792 0.100635 -0.331311 -0.264357 0.171931 0.212869 0.370375 0.201213 0.487838 0.007024 0.504083 0.576236 -0.053619 -0.076415 -0.051927 -0.327490 
不 -0.293591 -0.342124 0.100532 -0.354024 0.033445 0.439698 0.451821 -0.424225 0.007176 -0.053242 0.149760 -0.107482 -0.361790 0.206395 -0.180424 -0.046964 0.161329 -0.139016 0.050534 0.500131 0.079464 0.209964 0.408143 0.483921 0.088880 -0.251280 -0.273809 -0.234488 0.164260 0.040902 0.340475 -0.043676 -0.135900 0.193687 -0.203919 0.383982 0.136554 -0.500285 0.133639 0.255915 0.280503 0.671408 0.123486 0.211067 -0.206585 0.511839 -0.162463 0.260833 -0.000142 0.332194 
１ 0.373547 -0.162742 0.076842 0.717973 0.725160 0.023235 -0.609450 -0.030704 -0.304994 0.064648 -0.009317 0.195301 0.232987 0.086125 0.040200 0.825931 0.091643 -0.508614 -0.304460 -0.302002 -0.444264 0.767646 -0.087131 0.009468 0.315225 -0.691958 -0.341087 0.230528 0.286321 -0.053478 0.414525 -0.674253 0.103021 0.052887 0.640612 0.410519 0.680637 -0.098952 0.168954 0.056250 0.308720 0.358121 -0.452422 -0.538116 -0.244873 0.985219 -0.233173 0.396223 0.577930 -0.392703 
年 0.067981 0.160923 -0.134550 0.187393 -0.222757 0.038320 0.077720 0.419665 -0.217934 -0.055026 0.335178 0.897814 -0.617777 -0.405666 0.522753 0.655732 0.120592 -0.303382 0.494402 0.078435 0.026747 0.406531 0.339605 -0.158377 0.071918 -0.960165 -0.415402 0.206195 -0.781603 0.262264 -0.060932 -0.160732 0.260372 0.203736 0.015279 0.384280 -0.152512 -0.341663 0.012705 -0.611737 0.327847 -0.058827 -0.467136 0.017874 -0.405061 -0.220062 -0.145673 0.464005 0.318551 0.265348 
为 -0.012874 -0.861063 0.098243 -0.046158 0.038265 0.055484 -0.019855 0.305137 -0.093376 0.275490 0.216386 0.161280 -0.305849 -0.369474 -0.265991 0.568533 0.071874 -0.155082 0.124144 0.200635 -0.307985 0.334835 0.224844 0.248002 -0.064819 -0.125578 -0.051137 0.084626 0.156424 -0.406931 -0.200062 -0.154154 -0.347555 0.034313 -0.213162 0.002613 -0.331607 -0.002666 0.001209 -0.020317 0.060943 0.076717 -0.126197 -0.020553 0.020758 0.386343 0.310106 0.304170 0.026139 -0.092610 
０ 0.784794 0.253671 -0.336161 0.324666 0.091401 0.231154 -0.044646 0.142059 -0.757476 -0.029762 0.252411 0.197601 0.143292 0.280819 0.463111 0.851361 -0.400217 -0.414039 -0.086971 -0.457524 -0.104134 0.565555 -0.365912 -0.162940 0.285917 -0.683186 -0.645430 0.449182 -0.498913 0.052200 0.768075 -0.533404 -0.538366 0.022520 0.301779 0.549853 0.330714 0.019488 -0.181887 -0.400338 0.466464 0.469268 -0.202995 0.360786 -0.402596 0.933749 -0.390376 0.157871 0.204093 -0.270088 
会 -0.131477 -0.786625 -0.320077 -0.120090 -0.037680 0.472257 0.658537 -0.000385 0.649656 -0.163787 0.031511 -0.109285 0.163259 -0.260929 -0.034229 0.162614 0.286587 0.144519 0.113814 0.463019 -0.319483 0.759303 0.107409 -0.991416 -0.461876 -0.372434 -0.380683 0.309309 0.121394 0.054245 -0.368628 0.132381 -0.358404 0.516412 -0.223602 0.202909 0.134359 -0.174830 0.368442 -0.111754 0.124052 -0.254705 0.201647 -0.045473 0.023202 0.481170 -0.245681 0.168907 0.425457 -0.363182 
” -0.515207 -0.358341 -0.054579 -0.028549 -0.322551 0.241890 0.074362 0.122646 -0.084291 0.118420 0.535104 -0.042629 -0.240259 -0.080859 0.327778 0.431957 -0.077699 -0.160107 0.026211 0.432757 0.133387 0.284470 0.064816 -0.551810 0.031391 0.038035 0.405026 0.318252 -0.019237 0.020624 -0.015206 0.110089 -0.195293 -0.452882 0.231217 0.027254 0.175776 -0.497640 0.354895 0.023508 -0.387224 0.353069 0.431833 0.569806 0.250187 0.393782 0.589690 0.360875 0.143055 0.178091 
“ -0.428832 -0.334650 0.340045 0.237204 0.386360 0.404536 0.300984 0.614270 -0.124571 0.372741 0.501770 0.283676 -0.740500 0.068776 -0.318076 0.212386 -0.001161 -0.105920 0.380369 0.487112 -0.285510 0.106191 0.020463 0.352253 -0.124418 -0.124374 -0.330259 -0.072327 0.222215 -0.061410 0.070983 0.102176 -0.302783 -0.035511 0.136216 0.120626 -0.028267 0.438850 0.021935 0.153722 -0.000643 0.490279 0.285020 -0.015178 0.003500 0.350414 0.172010 0.413542 0.111894 -0.153104 
业 0.294303 -0.609150 0.226293 -0.318573 -0.159073 0.196806 0.659969 -0.122920 -0.302494 -0.301302 0.209596 -0.553917 -0.242079 -0.491260 0.086296 0.800148 0.062841 -0.620143 0.028986 -0.143714 0.239017 -0.229858 -0.180144 -0.003012 -0.625582 0.065699 -0.606242 0.897631 -0.214731 0.198056 -0.059477 -0.246804 0.094941 -0.133616 -0.520450 0.062816 0.001647 -0.417723 -0.278763 -0.536915 0.044520 0.146269 0.097244 -0.442990 0.233315 0.572732 -0.108843 0.151275 0.159003 0.205985 
上 -0.152727 -0.137774 0.158534 -0.399700 -0.012715 0.337561 0.285909 -0.216881 0.115361 -0.112172 0.306151 0.332704 -0.347350 0.543810 -0.424590 0.200049 0.024272 -0.280536 -0.074939 0.192326 0.208305 0.596868 -0.154643 -0.073060 0.056591 -0.465060 0.497061 -0.061852 -0.038830 -0.142481 0.447986 -0.233181 -0.281564 0.025169 0.000867 -0.164806 0.469211 -0.159629 -0.097648 -0.510363 0.119336 -0.020057 0.032868 0.418622 0.420412 0.031869 -0.067029 0.334410 0.416175 -0.334477 
这 -0.251353 -0.116113 0.079447 -0.095424 -0.067357 -0.038570 0.183592 0.042499 -0.329698 -0.080808 0.219003 0.204219 -0.425470 0.274422 -0.241444 0.156181 0.412540 -0.368599 -0.414832 -0.382177 -0.096503 0.269339 -0.005561 0.012413 0.316867 -0.137215 -0.707616 0.158785 0.835204 -0.173708 -0.387893 -0.056330 -0.413990 -0.014126 0.385159 0.097303 0.100815 -0.382489 0.296317 0.023485 -0.082790 0.577808 -0.099583 0.354002 0.411249 0.097769 0.138861 0.193131 0.146868 -0.208802 
发 0.236188 0.109979 0.128714 -0.144930 -0.333865 0.353582 -0.479681 -0.604107 -0.428347 0.183517 0.300177 0.260832 -0.275809 0.088050 -0.197601 0.178435 -0.269933 -0.559337 -0.473317 0.312765 0.212835 0.050155 -0.451052 -0.516634 -0.595577 -0.051343 -0.131982 0.187670 0.166078 -0.532032 -0.150169 0.463340 0.000507 0.423813 -0.109708 0.245930 -0.048278 -0.534572 0.355876 -0.073524 0.204940 0.151336 -0.308594 -0.015647 -0.231338 0.138657 0.231740 0.450932 -0.082583 -0.566786 
地 0.716853 -0.190765 -0.001544 -0.128806 -0.460887 0.353912 -0.181152 -0.237273 0.454583 -0.144600 0.178886 -0.526602 -0.500203 0.400116 0.198046 0.627693 0.386757 -0.248904 0.309463 0.273032 -0.246252 0.533637 0.109774 -0.081440 -0.295831 -0.231536 0.182823 0.111917 0.296787 -0.162584 -0.022697 0.197079 0.702894 0.112214 0.402575 0.229961 0.052536 -0.311173 0.437054 0.057335 0.285272 0.530887 -0.150850 0.318092 0.280631 -0.162234 -0.031671 -0.263388 -0.030143 -0.139738 
作 -0.421095 -0.595452 -0.127162 -0.667195 -0.209444 -0.187039 -0.002337 -0.563494 -0.639757 -0.230872 0.360892 0.255071 -0.265180 -0.530148 -0.102084 0.371666 0.393046 0.130643 -0.183555 0.019511 -0.016850 0.108465 -0.202998 -0.302094 -0.451647 -0.231555 0.087508 0.232301 -0.150095 0.134831 -0.236799 0.381611 -0.233393 0.001644 0.078433 0.333966 -0.005846 -0.249727 0.063564 0.294656 -0.116404 -0.094671 -0.438496 -0.256229 0.292574 0.595264 0.022003 -0.181890 0.219308 -0.107335 
个 -0.083171 0.376147 -0.191972 0.291855 -0.394320 -0.180976 0.238663 0.229597 -0.096385 0.245030 0.800733 0.343696 -0.309392 0.051098 -0.146812 0.519521 0.037145 -0.149405 0.513427 0.214101 -0.512603 -0.151931 -0.182493 0.012753 -0.142404 -0.030979 -1.037984 0.250135 -0.169097 -0.077731 0.141625 -0.066674 -0.119301 0.042949 0.402398 0.341732 0.164824 -0.033363 -0.200526 -0.141253 0.303495 0.111547 -0.225963 0.174192 0.321758 0.191452 0.023987 0.118624 0.142650 -0.071087 
出 -0.294470 -0.312415 0.087793 -0.379109 0.188202 0.166095 -0.616761 -0.036692 -0.359798 0.421616 0.241938 0.211578 -0.558993 -0.042091 -0.212047 0.217435 0.208718 -0.295498 0.054370 0.080425 -0.345623 0.172272 -0.375517 -0.359192 -0.237692 -0.468916 0.005576 -0.189307 0.144282 -0.192210 0.142044 0.275663 -0.590937 0.306667 -0.390639 0.121826 0.116446 -0.224770 -0.353673 -0.204618 -0.050442 -0.107787 -0.140666 0.049893 0.393466 0.255086 -0.195225 0.216703 0.183322 -0.513523 
行 0.353027 -0.052087 0.280817 -0.402509 0.490858 -0.338805 -0.156621 -0.239197 -0.001959 0.730419 0.453588 -0.021878 -0.599778 -0.128078 0.019881 0.739922 0.126038 -0.054848 0.478139 0.016549 0.048846 0.094655 0.031301 -0.560166 -0.363721 -0.214867 -0.213357 0.116521 0.377889 0.444909 -0.183707 -0.164321 0.172575 0.217235 -0.299275 -0.220519 0.122638 -0.033225 0.563142 -0.167764 -0.247099 0.129264 0.169026 0.263735 0.397842 0.138560 -0.584586 0.092860 0.225663 -0.220610 
要 -0.420490 -0.524666 0.046894 -0.427765 0.091367 0.453845 0.219047 -0.418488 0.073083 -0.315959 0.438028 0.242448 -0.155709 0.113513 0.125342 0.460931 0.160122 -0.298264 0.159270 0.405445 -0.575585 0.158695 0.327674 -0.039666 -0.335954 0.301835 -0.265072 -0.132476 -0.094636 -0.124690 -0.330923 -0.321276 0.125963 0.042493 -0.059269 0.629230 0.478045 0.021746 0.019045 0.106195 0.198232 -0.037323 -0.243996 0.242249 0.161150 0.471378 -0.178406 -0.367842 -0.143827 -0.042068 
家 -0.023858 -0.137969 0.144502 0.195644 -0.000071 -0.046621 0.497758 0.295525 -0.290778 0.052105 0.499639 0.084280 -0.179785 0.362626 -0.086374 0.324934 0.058299 -0.309872 0.561242 0.259429 -0.312489 -0.317486 -0.111133 -0.390018 -0.416091 -0.477025 -0.174642 0.319036 -0.109648 -0.057043 -0.325096 -0.061860 -0.353042 0.105230 -0.001657 -0.187864 0.097329 -0.482135 -0.336889 -0.042620 0.306049 0.589394 -0.097255 -0.395705 -0.097866 -0.192614 0.077586 -0.015022 0.237836 0.318020 
对 -0.130434 -0.056214 0.286183 0.020387 -0.152875 0.093619 0.111346 0.160408 -0.190735 0.513609 0.205768 0.166388 0.045041 -0.114392 -0.319381 0.623837 -0.027925 0.014427 0.179200 0.351588 -0.352885 0.351926 0.306845 0.020923 -0.385871 0.015099 -0.032160 -0.501657 0.094391 -0.499395 -0.532839 -0.213676 -0.540757 0.171033 -0.023183 0.036993 -0.148803 0.005246 0.177223 0.012366 0.165945 0.070362 -0.352975 0.080996 0.291693 0.249181 0.396429 0.161122 0.303664 -0.252335 
工 -0.329916 -0.346820 0.124045 -0.006525 -0.158763 -0.340223 0.216792 -0.316784 -0.295872 -0.229749 0.375667 0.142126 -0.238021 -0.435600 -0.400200 0.380926 -0.045985 -0.515136 -0.188543 0.211722 0.309502 0.714404 -0.572187 -0.319913 -0.337080 -0.158706 -0.275906 0.079170 -0.509744 0.362230 0.253402 0.048283 0.374410 -0.209880 -0.255522 0.623467 0.058403 -0.423855 -0.038964 -0.031947 -0.215159 0.265311 0.068612 -0.247638 0.500604 -0.030856 0.154215 0.190876 0.398509 0.062033 
以 -0.277017 -0.568765 0.063190 -0.487046 -0.025854 0.364545 -0.088465 -0.223945 -0.181450 0.177511 0.150748 0.443233 -0.341237 0.179364 -0.167702 0.498628 -0.032874 -0.043092 -0.037440 0.190135 -0.404358 0.358209 0.336107 0.233537 -0.199564 -0.102398 0.283618 0.135672 -0.140090 -0.056483 0.201235 -0.156769 -0.214697 0.570285 0.016308 -0.202012 -0.085248 0.103317 0.133025 -0.320137 0.225357 0.608615 -0.424139 0.005282 -0.304699 0.018772 0.160852 -0.018098 0.435937 -0.280270 
学 -0.186780 -0.446594 0.411132 -0.162978 0.120079 -0.178574 0.074061 -0.054453 -0.068466 -0.090949 0.461601 -0.094427 0.168288 0.150382 0.111423 0.347428 0.451252 -0.395704 0.391399 -0.058597 0.380675 0.604167 -0.017621 -0.239345 0.216534 0.319101 -0.252451 0.561669 -0.215012 -0.147407 -0.558016 0.638163 -0.081464 0.282038 0.447324 0.319497 0.118401 -0.431413 0.058353 0.198500 0.737335 0.072046 0.174245 -0.341815 -0.015609 -0.115630 0.173323 -0.042180 -0.253559 -0.583988 
到 0.243667 -0.177809 -0.010175 -0.544386 0.305517 -0.196035 -0.395234 0.285534 0.040198 0.036672 0.139423 0.278305 -0.185844 -0.096638 -0.464544 0.439014 0.278700 -0.327632 0.471038 0.069305 -0.121812 0.748149 0.246480 -0.207605 -0.262900 -0.249368 -0.347957 -0.041663 0.616834 -0.181612 0.472073 0.052370 -0.243210 0.269945 0.365744 0.152546 -0.032352 -0.084311 -0.464576 -0.104749 -0.284718 0.372315 0.249961 0.093914 0.232889 0.115519 0.046665 0.362783 -0.090198 -0.289682 
日 0.004261 -0.044031 0.714571 0.137701 -0.481899 -0.132916 -0.282509 -0.205864 -0.363453 -0.429939 -0.032574 0.636490 -0.135816 0.183699 0.144371 0.321011 0.169477 -0.250121 0.181039 -0.262956 -0.974399 0.210395 0.712805 -0.627844 -0.385804 -0.980958 0.005876 0.515102 -0.133869 0.387427 -0.818262 0.111735 -0.376500 0.381562 0.091654 -0.175188 -0.134161 0.392670 0.398659 -0.269971 0.427218 0.396318 -0.212113 0.328159 -0.349047 0.173870 0.045352 0.739032 0.309936 -0.024565 
经 -0.164788 0.269142 0.574956 0.152517 0.451538 -0.044611 0.333681 -0.483963 -0.414541 0.132732 0.309900 -0.271685 0.065081 -0.101895 -0.367941 0.215430 0.001751 -0.038390 0.452183 0.180106 0.304666 0.111243 -0.002510 0.065330 -0.166349 -0.181946 -0.218101 -0.255284 -0.089440 -0.375790 0.003902 -0.087727 0.176720 0.427109 -0.363230 0.578558 0.230335 -0.517889 0.482038 -0.326775 0.381369 0.218253 -0.050965 -0.617598 -0.019069 -0.002811 -0.461912 0.933427 0.204842 -0.109124 
生 0.392934 -0.150447 0.337687 -0.069009 -0.069729 -0.445224 0.105717 -0.126170 -0.298643 0.050468 0.230464 0.094572 -0.279035 0.017921 0.056599 0.367586 0.042519 -0.602316 0.046655 0.386558 -0.135616 0.434747 -0.000618 -0.134140 0.282561 0.181924 -0.081394 0.170393 -0.084088 -0.036879 -0.362457 0.396395 -0.283329 -0.187142 -0.200054 -0.207772 -0.028255 -0.594610 0.291612 0.005404 -0.164847 0.119935 0.156308 -0.171234 0.051660 -0.155768 -0.549727 0.946506 -0.337453 -0.054316 
来 -0.042226 -0.134592 -0.183545 -0.535478 0.268880 -0.197061 -0.030653 0.416439 -0.294549 0.172186 0.280349 0.353276 -0.321286 0.622792 0.141048 0.333575 0.410493 -0.153450 0.345659 -0.198358 0.179639 0.224346 0.121848 -0.354784 -0.511971 -0.262016 0.101154 -0.180920 -0.002319 -0.147544 0.012332 -0.046485 -0.002079 0.536356 0.334235 -0.052880 -0.259043 0.021312 0.267471 -0.437635 0.007035 0.368622 -0.551567 0.188585 0.070387 0.349366 -0.141192 0.372610 -0.253741 0.004800 
２ 0.429706 0.035710 -0.020613 0.533459 0.503943 0.158234 -0.559076 -0.245081 -0.344649 -0.119644 0.095395 0.127136 0.454820 0.155260 0.063161 0.666775 0.264680 -0.392380 -0.164301 -0.443408 -0.514474 0.912357 -0.287564 -0.107066 0.250128 -0.947552 -0.208535 0.625592 0.092320 -0.065712 0.574572 -0.825066 0.056873 -0.027221 0.772361 0.198017 0.648999 -0.074237 0.240893 -0.005346 0.366357 0.492750 -0.483818 -0.462628 -0.205120 1.331193 -0.303778 0.337332 0.665167 -0.569863 
成 -0.002674 -0.363963 -0.028636 -0.192730 -0.011940 -0.292866 0.280869 -0.315288 -0.267045 0.234951 0.597857 0.204698 0.000821 -0.383863 -0.399096 0.469435 0.316589 -0.259290 0.077276 -0.057907 0.108157 0.066508 -0.105027 -0.367869 0.268200 -0.566368 0.158294 0.260328 0.056405 -0.400443 0.334831 -0.084714 -0.437838 0.201767 -0.159839 -0.171618 -0.496143 0.255191 -0.143432 0.271657 -0.140801 0.405998 -0.064951 -0.003666 0.352194 0.220139 -0.350800 0.498625 -0.010766 -0.186243 
９ 0.575281 0.030070 0.205566 0.658972 0.454386 -0.012113 -0.224569 -0.099094 -0.546407 -0.476698 0.316078 0.119007 0.066595 -0.037803 0.703151 0.971468 -0.188019 -0.500717 -0.236721 -0.332230 -0.178562 0.753055 0.058425 0.193678 0.619010 -1.205242 -0.740618 0.345253 0.215679 -0.111929 0.100371 -0.596433 -0.153456 -0.167819 0.654153 0.449338 0.837478 0.127457 -0.101849 -0.068660 0.167514 -0.114722 -0.532940 -0.368494 -0.255698 0.486034 -0.427430 0.621500 0.745665 -0.112030 
部 0.358684 -0.376251 0.281380 0.000704 -0.480137 -0.254643 -0.233904 -0.273600 -0.656991 -0.208984 0.449522 -0.428627 -0.298418 0.255560 -0.028286 0.231354 0.384980 -0.636706 0.228496 0.468746 -0.216205 0.322187 0.219100 -0.708263 -0.366431 -0.388650 -0.202115 0.136760 0.035680 0.654598 -0.002365 -0.446015 -0.118962 -0.019309 -0.282939 0.399955 -0.290437 -0.110411 -0.260450 0.056685 0.908917 0.150281 0.136980 -0.121933 0.489303 -0.174628 -0.176931 -0.310591 0.017169 0.014307 
多 0.138788 0.085356 -0.373991 0.141313 -0.423733 -0.179788 -0.151718 -0.023362 -0.209563 -0.139339 0.553326 0.375007 0.020838 0.399220 -0.232537 0.801805 -0.029902 -0.378969 0.357562 -0.547596 -0.216350 0.269155 -0.135977 0.050621 0.382163 -0.329709 -0.230137 0.138901 -0.578523 -0.278907 0.062429 -0.559242 -0.196243 0.603953 0.124369 -0.176691 -0.077807 -0.786896 -0.214028 0.364482 0.434207 0.521805 0.061134 0.250473 0.406050 0.519402 0.047320 0.039334 -0.313052 0.023334 
们 -0.279502 -0.273352 -0.154464 -0.054776 -0.141136 0.155617 0.727739 -0.157403 -0.381204 0.164388 0.027406 -0.104773 -0.263143 0.493951 0.320717 -0.134141 0.378361 -0.553107 0.779680 -0.030416 -0.172245 0.466128 0.468949 -0.206423 -0.181584 -0.372125 -0.872564 -0.163927 0.042191 -0.204834 -0.023619 0.426523 -0.435844 0.087958 0.077396 0.169741 0.472427 -0.575371 -0.200727 -0.248757 -0.439861 -0.143939 -0.639709 0.125149 -0.055990 0.082651 0.131941 0.008090 0.194767 0.208131 
民 0.036270 -0.792812 0.130962 0.187233 -0.199749 -0.214814 0.301054 0.103434 0.040839 -0.109769 -0.664150 0.020123 -0.273663 0.470921 0.114832 0.827828 -0.548690 -0.077170 0.720523 0.110574 -0.550015 0.288370 0.122037 0.111051 -0.441872 -0.282644 -0.409721 0.189130 -0.279382 -0.113327 -0.125381 0.511817 -0.034301 -0.026885 -0.264335 0.144111 0.203858 -0.678447 0.681517 -0.153952 0.096954 0.007109 -0.013533 -0.489204 -0.010078 0.182527 -0.085189 0.091135 0.797218 -0.122613 
时 0.058635 0.272687 0.130912 -0.197479 -0.020239 -0.001120 -0.036887 -0.186354 0.026727 -0.062276 -0.012130 0.572865 -0.275724 0.109040 -0.095930 0.210793 0.475716 -0.122778 0.116440 0.550506 0.030024 0.617977 -0.010818 -0.181088 -0.000366 -0.426817 -0.052387 0.277973 -0.091447 0.370082 -0.460288 0.146289 0.272757 0.025547 -0.108556 -0.142185 0.396263 -0.103624 0.085676 -0.395738 0.328290 0.349212 -0.582754 0.468987 0.094670 0.414841 0.183287 0.106794 0.063536 0.096656 
我 -0.288512 -0.261178 0.078351 -0.042692 -0.236522 0.026037 0.381206 -0.015804 -0.407777 -0.300335 -0.085549 0.761800 -0.182341 0.635836 -0.196672 -0.010111 0.546384 -0.426448 0.364895 -0.026490 0.314613 0.472519 -0.118111 -0.024608 -0.148995 0.019952 -0.488073 -0.061004 0.591634 -0.364305 -0.105280 0.387183 -0.028996 -0.009302 0.209826 0.177436 0.194301 -0.089159 0.036717 -0.027196 0.012141 0.282386 -0.468481 0.193807 -0.013752 0.025175 0.153078 0.222777 0.237809 0.147102 
他 -0.133233 -0.372084 -0.058162 -0.025323 0.010167 -0.000865 0.229246 -0.197944 -0.253973 -0.041015 -0.088289 0.429983 -0.257278 0.772633 -0.291761 0.216088 0.460290 -0.491771 0.133369 -0.036503 0.144340 0.593719 0.021048 -0.069925 0.065262 -0.356359 -0.449357 0.071810 0.374258 -0.144343 -0.363362 0.149935 -0.046104 0.091481 -0.003300 0.001485 0.145680 -0.111051 -0.068693 0.176672 -0.259738 0.258383 -0.648118 0.108397 0.022913 0.282184 0.217990 -0.137907 0.399926 0.198979 
进 0.315508 -0.046602 0.288843 -0.598401 0.169968 0.302257 0.293795 -0.780337 -0.407438 0.290323 0.147980 -0.020687 -0.176883 -0.258460 -0.183231 0.570580 -0.228994 0.094096 0.226884 -0.146053 0.007523 0.138328 -0.210510 -0.104006 0.001790 -0.294181 -0.063250 -0.184934 0.055828 0.061680 -0.261420 0.038524 -0.066397 0.384292 -0.112954 -0.016711 0.167864 -0.403656 0.243341 -0.050984 0.112827 -0.336353 -0.148074 0.225490 0.646673 -0.193337 0.376861 0.551911 0.442220 -0.653373 
市 0.364895 -0.024298 0.281836 0.194428 0.246657 -0.111991 0.181999 0.199861 -0.257948 -0.272992 0.225419 -0.031878 -0.163019 -0.277972 0.231338 0.631614 0.450861 -0.556827 0.172399 0.249727 -0.127441 0.179421 -0.110260 -0.170852 -0.608396 -0.555260 0.096347 -0.105617 0.218627 -0.581591 0.352908 0.001630 -0.083078 0.257734 -0.132713 -0.632930 0.349070 -0.365686 0.349279 -0.614854 0.383732 0.679172 0.427254 -0.360583 0.509321 -0.302239 -0.043993 -0.283920 0.061535 -0.094249 
全 0.305583 -0.389438 0.063718 0.344518 -0.095332 -0.562280 0.351756 -0.404313 -0.145317 -0.257760 -0.050402 0.574195 -0.251547 -0.152241 -0.498785 0.655764 0.260879 -0.337129 0.350507 0.132825 -0.093788 0.142575 -0.210880 -0.098151 -0.090802 0.382343 -0.304564 -0.052874 0.269461 -0.400687 0.514564 -0.119609 0.047162 0.262574 -0.023359 0.236508 -0.327958 -0.049231 0.428651 -0.047782 0.545955 0.200368 0.104334 0.069460 -0.068283 0.056934 0.298384 -0.154761 0.639296 -0.553561 
政 -0.715023 0.001578 0.168275 0.241680 0.349244 -0.380805 0.247532 -0.306603 -0.430847 -0.111826 0.130405 -0.691996 -0.054580 0.236899 0.141054 1.289267 0.128627 0.087376 -0.027831 0.329747 -0.204176 0.355377 -0.259088 -0.435906 -0.228682 -0.312336 -0.385539 -0.117146 0.655526 -0.304839 -0.466849 0.064288 0.022647 0.242335 -0.173801 0.100891 -0.079606 -0.035360 0.846792 0.219627 0.382542 0.186471 0.229733 -0.360373 0.255645 0.061346 -0.064534 -0.238703 0.428875 -0.216015 
于 0.514381 -0.337558 0.448231 0.212948 0.381257 0.206067 -0.300006 0.196663 0.070962 -0.147127 0.258009 -0.006139 -0.194844 -0.005402 -0.325224 0.688706 0.600363 -0.066308 0.522039 -0.056972 -0.342055 0.322310 0.652856 0.418595 -0.033484 -0.045905 -0.153950 -0.145646 0.245488 -0.190743 -0.439098 -0.691922 -0.181750 0.199352 0.005365 0.686629 -0.054934 0.017416 -0.075740 -0.150330 -0.254737 -0.009774 0.081937 -0.255188 0.175449 0.155137 0.021995 0.162274 0.262903 0.002846 
理 -0.205845 -0.459519 0.409769 -0.439940 -0.184158 -0.550787 0.294092 -0.386150 0.216463 -0.439899 0.407676 -0.048808 -0.180039 0.487997 -0.566447 0.729560 -0.215558 0.292577 -0.273039 0.232590 0.500444 0.371371 0.559772 -0.106642 -0.335018 -0.123678 -0.307921 0.218861 -0.152386 0.125706 0.115540 -0.325156 -0.730402 -0.562054 0.218570 0.267162 -0.229794 -0.457162 -0.435567 -0.017543 0.277864 0.314258 0.181199 -0.302672 -0.230039 0.178053 -0.336020 0.412653 0.093180 -0.671633 
实 -0.145078 -0.120374 0.149954 -0.132832 0.110791 -0.019079 -0.044268 -0.653059 0.203826 -0.165148 0.390936 0.234367 0.068629 -0.189013 -0.021420 0.844686 0.264341 -0.449546 -0.063423 0.078908 0.067473 -0.002960 -0.032224 0.125747 -0.288407 0.130091 -0.496508 0.336120 0.247818 0.013439 -0.094855 0.130699 -0.030984 0.092346 -0.392886 0.550199 -0.237462 -0.387459 0.238697 -0.107772 -0.270529 0.527016 -0.334470 0.361664 0.080939 -0.639156 0.187067 0.189087 0.243470 -0.541784 
新 0.312615 0.034478 0.718626 0.206439 0.182349 -0.013750 0.149794 -0.086448 0.684624 -0.296340 0.481722 0.469987 -0.632892 0.245829 0.032694 0.326059 -0.155029 -0.415263 0.041653 -0.049647 -0.495050 -0.164264 -0.299280 0.052587 -0.147539 -0.128081 -0.019340 0.509714 0.113104 -0.207134 -0.688877 0.099162 -0.012148 0.076247 0.113894 0.087076 0.083016 -0.187422 -0.120772 -0.159027 0.064382 0.032497 -0.066505 -0.354389 0.560678 0.748036 0.224403 0.399323 0.158251 -0.620205 
方 0.301841 0.240779 0.124805 0.504002 -0.178404 0.003537 0.209195 -0.641194 -0.303914 0.154910 0.138150 -0.198295 -0.247376 0.475722 -0.177893 0.764803 0.117818 0.103068 0.118209 0.100279 -0.084323 0.083694 0.337751 0.034571 -0.185819 -0.178279 0.292325 -0.183059 -0.231563 -0.129646 -0.103662 0.559456 -0.221948 0.075411 -0.174738 0.293950 0.300793 -0.417720 -0.215800 -0.172928 0.700555 0.460813 -0.146398 0.320891 0.449452 0.323769 0.162399 -0.365079 0.775837 -0.073280 
公 -0.075793 -0.411646 0.388750 0.531470 0.286373 -0.361501 -0.070930 -0.277394 0.244670 0.044710 0.218703 -0.584827 0.368260 0.214883 0.158700 0.558773 0.170535 -0.195580 0.171621 -0.394186 0.347954 -0.002434 -0.545326 -0.451328 -0.598614 -0.773986 -0.332461 -0.415019 -0.024178 -0.013084 0.022773 -0.135097 -0.462333 0.252559 -0.029949 0.392720 -0.000309 -0.250614 0.593245 -0.369297 0.471846 0.878513 0.421921 0.214703 -0.376435 0.055555 0.528585 0.401046 0.084642 0.078251 
下 -0.100639 0.065206 0.164324 -0.443755 -0.276885 0.373485 0.031080 0.047114 -0.085793 -0.428460 0.391551 0.118670 -0.330286 0.582706 -0.511322 0.870531 0.074789 -0.712535 -0.391098 0.111951 0.134383 0.327180 -0.094701 0.176551 -0.094965 -0.568480 0.219538 -0.026165 0.076638 0.053125 0.278792 -0.016350 0.048954 0.042019 0.045119 0.176304 -0.147719 0.320592 -0.119104 -0.056906 -0.122320 -0.135699 -0.159946 0.002236 0.558652 0.057059 0.262651 0.472444 0.436600 -0.219527 
主 -0.098113 -0.478588 0.342069 0.020970 -0.098730 0.439907 -0.133256 -0.294574 0.203374 0.179491 0.383866 -0.113042 -0.144333 0.740265 0.379460 0.236986 -0.125850 -0.220754 -0.354639 0.084580 -0.239900 0.492957 -0.542032 -0.280615 -0.209804 -0.445194 -0.524617 0.092661 -0.222334 -0.236141 -0.551759 -0.751366 -0.540773 -0.518357 -0.201797 0.601812 0.024472 -0.228906 1.027341 -0.290147 0.180076 -0.264015 -0.033867 -0.050860 0.654279 -0.115039 -0.324053 0.234430 -0.019717 -0.122398 
开 0.143930 -0.300653 0.165331 -0.230900 0.261474 0.281263 -0.116249 -0.612839 -0.080538 0.108387 0.696616 0.060729 -0.440863 0.038298 -0.339709 -0.133347 -0.221940 -0.610150 -0.002691 -0.270944 -0.051119 0.238270 -0.078939 -0.384744 -0.550509 -0.653493 -0.059976 0.290462 -0.457088 -0.396319 0.239981 0.082644 -0.021060 0.350009 -0.020688 -0.147123 0.139796 -0.197325 0.354822 -0.085371 -0.128243 0.342626 0.029211 0.202922 -0.021606 -0.111379 0.208579 0.393693 0.115586 -0.691169 
本 0.347087 -0.284718 0.762141 0.116406 -0.293151 -0.214076 0.104768 -0.295833 0.593342 -0.198140 0.084111 0.007496 -0.492789 0.187319 0.291313 0.746915 0.157618 -0.354910 -0.323215 -0.000759 -0.469278 0.090520 0.487274 -0.415699 -0.053553 0.142574 -0.194962 0.631262 0.277306 -0.548231 -0.041904 -0.228725 -0.346844 0.090524 0.431389 0.185696 -0.339982 -0.089880 -0.292407 -0.060605 -0.023843 -0.168633 -0.285819 0.179617 0.110228 0.100048 0.165339 0.438026 0.862247 0.203571 
法 -0.218958 -0.118227 0.326736 -0.477479 0.196639 -0.222520 0.104846 -0.521992 0.157452 0.107157 0.609126 0.209586 -0.389402 0.382918 0.043904 0.723224 0.111527 0.592924 0.456287 -0.018552 0.256839 0.390580 0.038320 -0.282138 -0.017684 0.084844 -0.101132 0.176242 0.199312 -0.097627 -0.192847 -0.407137 -0.706001 -0.165494 0.207666 0.084512 -0.048654 0.150394 0.054670 0.367266 0.102663 0.443852 0.519402 -0.181547 0.018623 -0.026266 -0.110012 -0.039529 1.074036 0.296301 
长 -0.041526 -0.514488 -0.060057 -0.184823 0.056111 0.102645 -0.322489 -0.244411 -0.463864 -0.176103 -0.066364 0.569028 -0.185975 0.489892 -0.590421 0.501033 -0.003323 0.223902 -0.084055 0.971560 0.269265 0.230378 -0.443283 -0.322010 -0.249170 -0.629864 -0.463145 0.373787 -0.006705 0.348098 -0.291270 -0.528425 -0.126648 0.229770 0.135315 -0.058610 -0.317936 -0.462243 -0.200124 -0.046391 0.538677 -0.368086 0.495549 -0.393387 -0.349694 0.132844 0.053726 0.590396 -0.368560 -0.101693 
展 0.248627 0.057118 -0.389289 -0.058466 0.058931 -0.038468 0.081308 -0.242774 -0.732146 0.016159 0.042527 0.402789 -0.625178 -0.580544 -0.108548 0.735722 -0.153641 0.088441 0.492054 0.160488 0.506950 -0.151422 -0.152624 -0.462832 -0.530538 0.171568 -0.235316 0.423248 0.141936 -0.346700 -0.169371 0.523425 -0.139049 0.119379 0.041861 0.129199 -0.045747 -0.710208 0.243907 -0.359492 0.084713 -0.083793 0.035798 -0.030152 0.148142 0.438291 0.053850 0.463196 -0.697389 -0.466837 
５ 0.544134 0.090685 -0.065349 0.328484 0.355531 0.066145 -0.430157 -0.093446 -0.393585 -0.229900 -0.025146 0.351198 0.301348 0.049071 0.456194 0.723367 -0.062680 -0.667426 -0.280896 -0.377837 -0.544201 0.697376 -0.164607 -0.308026 0.416026 -0.652668 -0.372371 0.295612 -0.241504 -0.142212 0.430270 -0.668097 -0.492302 0.049766 0.580481 0.119908 0.416467 -0.331518 -0.060790 -0.152627 0.471126 0.485115 -0.448866 -0.000563 -0.250638 0.746629 -0.122048 0.220984 0.499665 -0.415873 
动 0.189314 -0.433485 -0.015685 -0.221021 -0.056939 0.144376 -0.066308 -0.309875 -0.462620 -0.008069 -0.012877 0.144245 -0.430620 -0.259136 -0.145244 0.860190 0.531621 0.068421 0.233933 -0.063023 0.105683 0.525631 -0.182554 -0.319216 -0.490622 0.630346 -0.287146 0.191172 -0.005406 -0.011996 0.091522 -0.172513 -0.118028 -0.265979 -0.565460 -0.145523 -0.100181 0.054503 0.476858 0.231041 -0.391997 -0.165824 0.019860 0.156971 -0.209852 0.450176 -0.020323 0.238579 0.148085 -0.315283 
产 0.135970 -0.489534 0.304260 0.118031 -0.388658 -0.205532 0.130888 -0.397699 -0.013338 0.384763 0.010467 -0.559191 -0.080598 -0.524853 -0.203390 0.719234 0.329030 -0.532856 -0.196291 0.169060 0.065555 -0.007511 -0.695637 -0.354599 -0.212130 0.304338 -0.418215 0.013318 -0.689856 -0.612721 -0.039513 0.100499 -0.098788 -0.010347 0.092012 0.036948 0.028451 -0.283780 0.257736 -0.455301 -0.061915 -0.078235 -0.497316 -0.193839 0.224299 0.036840 -0.496526 0.668171 0.208442 -0.096862 
同 -0.197022 -0.048996 0.222082 -0.420010 -0.215834 -0.011630 -0.021635 -0.288230 -0.089640 0.024149 -0.041105 0.276426 0.031696 0.049075 -0.488612 0.595362 0.201510 0.304056 -0.043461 -0.057554 -0.252373 0.312613 0.254830 0.192643 -0.126662 -0.728387 -0.132154 -0.046266 -0.535970 -0.259613 -0.618884 -0.316347 -0.466225 -0.115102 0.231574 0.119436 0.074093 -0.738807 0.286853 0.234668 0.117550 -0.237717 -0.442750 -0.043640 0.307182 0.230289 0.202941 0.159886 0.139684 -0.096721 
就 -0.391978 -0.445926 -0.218544 0.166518 0.159937 -0.005408 0.364056 -0.497572 0.123490 0.336184 0.435718 0.003984 -0.252610 0.142611 -0.205135 0.159680 0.281343 -0.495648 0.131777 0.035228 -0.008630 0.425699 0.150186 -0.182840 -0.078510 0.104589 -0.146323 -0.107490 0.156214 -0.284670 0.102590 -0.100850 0.310961 0.293446 -0.064918 0.076262 0.113900 -0.400625 -0.048693 -0.038453 -0.074585 0.159437 -0.197123 0.519800 0.213868 0.403137 0.027560 0.358960 0.150308 0.243982 
现 0.450036 -0.178230 0.186387 -0.179333 0.348281 -0.212720 -0.009946 0.134612 -0.263418 0.136747 -0.018233 0.663352 -0.297821 -0.126637 0.158893 0.450441 0.531600 -0.569849 0.017512 0.125660 0.095366 -0.102175 0.243570 0.054980 -0.121331 0.235238 -0.251188 -0.281307 0.162795 -0.187399 -0.163102 0.052518 -0.296887 0.046756 -0.557484 0.053527 0.105777 -0.368530 -0.100829 -0.483698 0.046133 0.611978 -0.098097 -0.157255 0.464964 -0.075665 -0.362661 0.291998 0.027291 -0.550132 
３ 0.510778 -0.079398 -0.269265 0.262017 0.285702 0.055952 -0.404826 -0.119177 -0.323216 -0.262881 -0.096158 0.188511 0.409554 0.209383 0.140075 0.584042 0.128895 -0.652979 -0.059212 -0.274677 -0.511259 0.787011 -0.313402 -0.281177 0.438340 -0.909665 -0.369516 0.365377 -0.160436 -0.087912 0.530326 -0.793278 -0.334375 -0.235574 0.759138 0.315208 0.455617 -0.106198 0.033950 -0.113503 0.455791 0.623993 -0.426714 -0.028636 -0.258195 0.962951 -0.030991 0.183303 0.448563 -0.470491 
重 0.165586 -0.223463 -0.074040 -0.275848 -0.030810 -0.118904 -0.173939 -0.385272 -0.031626 -0.309279 0.712158 0.457735 -0.604173 0.262109 0.069623 -0.028304 -0.200639 0.020764 0.226196 0.411212 -0.512882 0.075089 -0.545894 -0.450950 0.341358 -0.110886 -0.192145 0.187981 -0.096370 -0.417109 -0.318605 -0.552504 -0.177340 0.321026 -0.293839 0.775193 0.283796 -0.223255 0.339073 0.318149 -0.233601 0.390998 0.022305 -0.134092 0.587366 0.240004 0.070974 -0.017028 -0.384932 0.021104 
力 0.180118 -0.124223 0.477781 -0.134391 0.038210 0.380527 0.250331 -0.610157 -0.327004 -0.253808 -0.318377 -0.397149 -0.310969 -0.347642 0.265175 0.540721 0.729471 -0.354398 0.374509 0.202059 -0.065965 0.234062 0.413958 -0.687039 -0.264492 0.515147 0.010332 0.034280 -0.557914 -0.082270 0.074008 -0.146771 -0.358130 0.011785 -0.417766 0.537282 -0.387680 0.007188 -0.219229 0.291454 -0.331397 0.364389 -0.219686 0.144498 0.366734 0.425297 0.066416 -0.276480 -0.086985 -0.274506 
高 0.099339 -0.472686 0.288870 -0.350861 -0.000919 -0.067851 0.276028 -0.128772 0.056798 -0.240026 0.048287 0.448463 -0.172102 0.215901 0.163920 0.941643 -0.039998 -0.232819 0.314667 0.536549 -0.301164 0.343081 -0.637095 0.126344 0.394361 -0.018794 0.233940 -0.304968 -0.166345 -0.192338 -0.113852 0.102826 -0.337567 0.586880 0.076134 0.178271 0.047625 -0.067909 -0.501590 -0.187734 0.194889 0.004777 0.246027 -0.346355 0.127516 0.016042 0.057010 -0.079009 -0.592568 -0.493710 
关 -0.032913 0.100786 0.378712 -0.205910 -0.256691 -0.293293 0.414745 -0.507296 -0.525163 0.100787 0.163922 -0.099259 0.405019 -0.332092 -0.215947 0.401947 0.102706 0.541926 0.290250 0.498131 -0.723914 0.289977 -0.354842 -0.864140 -0.297484 -0.252831 -0.127394 0.007147 0.472912 -0.395969 -0.497655 0.250480 -0.136996 -0.128135 -0.138474 0.436576 0.401753 -0.248735 -0.078723 0.472085 0.333581 0.098451 -0.337608 0.158350 0.369583 0.438352 0.388105 -0.028986 0.435357 -0.015170 
分 0.061327 -0.227960 -0.039801 -0.478098 -0.495220 -0.256061 -0.262509 -0.316470 0.039766 0.178765 0.548151 -0.147210 -0.320788 0.185804 -0.266953 0.503216 0.049294 -0.422427 -0.162314 0.608612 0.029174 -0.174006 0.183453 -0.172063 -0.030421 -0.189357 -0.401582 0.402008 -0.171211 0.013428 0.313051 -0.475615 0.036948 0.549735 0.165599 0.077164 0.095496 -0.136596 0.338323 0.044971 0.464834 0.352084 -0.221901 0.041487 -0.096867 -0.096261 0.389709 0.043147 -0.126413 0.017197 
自 0.063578 -0.443021 0.405785 0.279897 0.326591 -0.141595 -0.291948 -0.104867 0.087984 0.131226 0.042568 0.162622 -0.391922 0.068052 0.073946 0.677374 0.182977 -0.252735 0.371461 0.054403 -0.167141 0.602468 0.038699 0.555872 -0.065212 -0.255926 -0.434881 -0.349676 0.364696 -0.178316 -0.097797 0.156224 -0.067103 -0.146501 -0.092555 0.431082 -0.022821 -0.226280 0.454978 0.172843 0.101158 0.288681 0.159587 -0.272563 0.167960 -0.174329 -0.080366 0.299661 -0.209247 0.477054 
后 0.157054 0.128032 -0.052365 -0.191132 0.343488 -0.012794 0.255854 -0.128647 -0.163839 0.050616 0.175302 0.257818 -0.503640 0.304154 -0.058106 0.391453 0.495381 -0.475626 -0.027126 0.325905 0.108030 0.604804 0.177153 0.044052 0.186149 -0.325969 0.374125 0.111640 -0.027637 0.084184 -0.301444 -0.146799 0.050100 -0.259200 -0.258689 -0.089369 -0.209372 -0.058879 0.068682 -0.342805 0.146920 0.088879 -0.077774 0.387129 -0.094799 0.417050 0.236072 0.345188 0.504276 -0.163885 
建 -0.307351 -0.371556 0.398575 0.263409 0.251990 -0.406911 0.395215 -0.762046 -0.422301 0.008946 0.451136 0.305902 0.267591 -0.277569 0.201489 0.452859 -0.348568 -0.277759 -0.194482 0.068496 -0.268897 0.066143 -0.147410 -0.455842 -0.374299 -0.082215 0.264832 -0.050149 -0.071577 -0.814645 -0.074952 0.491935 0.488326 -0.238206 0.377433 0.327924 -0.093935 -0.026453 -0.003103 -0.059208 0.546193 0.220972 0.166116 0.267006 0.353337 0.486876 -0.287664 0.405277 0.167914 -0.959035 
加 0.378889 -0.513897 0.263467 -0.040437 0.064023 0.453317 0.379046 -0.497498 -0.316550 -0.040651 0.049317 0.404429 -0.467168 -0.243997 -0.297909 0.938621 -0.534556 -0.147187 0.112107 0.131353 -0.089963 0.329546 0.192475 0.090626 0.003273 -0.222151 -0.221745 -0.268151 -0.173359 0.178938 -0.081940 -0.374573 -0.270109 0.702891 -0.164931 -0.290290 0.016594 0.259165 0.094242 0.338979 0.004973 -0.053261 0.035603 0.178910 0.506966 -0.252335 -0.193371 0.188486 -0.174784 -0.293356 
与 0.132882 -0.063390 0.425748 0.139526 -0.274043 0.557146 0.195573 -0.028340 -0.173792 0.472212 0.194730 0.093283 0.106163 -0.328417 -0.668371 0.440858 -0.156101 0.081411 0.380882 0.220600 -0.139969 0.530688 0.407096 0.089640 -0.392122 -0.179228 0.164599 -0.052962 -0.003902 -0.019615 -0.440375 -0.226719 -0.377437 0.064267 0.156150 -0.024116 -0.281745 -0.295307 0.263855 -0.151467 0.111475 0.132174 -0.045828 -0.202606 0.503127 0.300908 0.300607 0.305523 0.010719 -0.298806 
用 0.336037 -0.680863 0.540133 -0.493587 0.238900 -0.141250 -0.083548 -0.098846 -0.596981 0.282333 0.010785 -0.046165 0.081894 -0.307578 -0.195027 0.626680 0.212624 -0.311338 0.218135 0.061001 -0.346868 -0.138522 -0.166288 0.315270 -0.288320 0.433485 -0.352688 0.115959 -0.296260 0.177573 -0.440366 0.080927 -0.397473 0.097587 -0.040155 -0.038167 0.227502 0.049489 -0.176986 -0.026462 -0.203371 0.371405 -0.017383 0.454077 -0.157412 0.376658 0.150907 0.130440 -0.289826 -0.214500 
能 -0.135143 -0.551278 0.271060 -0.486267 -0.063544 0.595644 0.529217 -0.833032 0.057933 0.153659 0.220420 -0.200604 -0.060140 -0.046014 0.071960 0.195382 0.562887 -0.407341 -0.010768 0.072595 -0.259492 0.591376 0.420834 0.052927 -0.095050 0.123241 -0.066002 -0.054299 -0.081684 -0.148607 0.273853 -0.003718 0.004836 0.404153 -0.265729 0.436448 -0.111707 -0.152284 -0.140017 0.022664 -0.010189 0.389751 -0.014915 0.121951 -0.358805 0.391125 -0.310678 -0.012528 -0.070143 0.162491 
前 0.165680 0.089866 0.020401 -0.191590 0.027922 -0.207044 0.217798 -0.122355 -0.159142 0.208144 0.275798 0.521623 -0.582932 0.324133 -0.036100 0.313060 0.428806 -0.042090 -0.213161 -0.032228 -0.409690 0.532463 0.154239 0.112190 -0.474865 -0.498922 0.401808 0.061326 0.066566 -0.277869 -0.291753 -0.206148 0.014669 -0.007873 0.185920 0.233374 -0.060399 0.044687 0.063103 -0.768951 0.088196 -0.006337 -0.268536 0.114087 -0.015042 0.093880 0.248033 0.431046 0.437520 -0.115302 
场 0.078480 0.267342 -0.423355 0.124687 -0.338190 0.408153 0.166521 -0.345311 0.203135 0.167555 0.195890 -0.320913 -0.691986 -0.103784 0.425183 0.618914 0.519096 -0.109564 0.067077 0.183578 -0.233495 0.073634 0.017892 -0.126687 -0.799535 0.034373 -0.735586 0.044005 -0.068326 0.123396 0.150513 0.202378 -0.502819 0.011358 0.143197 -0.351432 0.367628 -0.182482 0.395947 -1.029524 0.127337 0.012316 0.019717 -0.148002 -0.291224 0.692573 0.176926 0.286776 0.079733 -0.021481 
月 -0.014594 0.230181 0.512798 0.361669 0.594266 0.048763 -0.013085 0.220105 -0.484048 0.376010 0.289905 0.223080 -0.247852 -0.534526 1.123623 1.216448 0.758589 -0.096682 0.249515 0.002582 -0.768921 0.661366 0.658129 -0.348458 -0.184286 -1.644470 -0.155296 1.053170 -0.278410 0.229360 -0.077230 -0.299818 0.827378 0.752669 -0.515950 -0.661659 0.429273 0.205681 0.093686 -0.388966 0.131816 0.196475 -0.722407 0.216964 -0.821283 -0.083380 -0.154572 0.319327 0.216227 -0.303579 
合 0.056850 -0.179623 0.460856 0.196191 -0.538307 -0.071504 0.123990 -0.545453 -0.258745 0.210652 0.272558 0.464463 -0.308250 -0.689171 -0.753779 0.628839 0.028833 0.419000 0.189352 -0.148599 0.073750 0.141572 0.036718 -0.227939 -0.217799 -0.528447 -0.025128 0.177067 -0.272454 0.193852 -0.455541 0.042675 0.085333 -0.251615 0.099718 0.448856 -0.122560 -0.410974 0.519604 0.291751 0.309985 0.352224 0.148446 -0.057538 -0.059228 0.581143 -0.414257 -0.067372 -0.027471 -0.021635 
说 -0.637723 -0.149063 0.133573 0.231721 -0.025747 -0.083748 -0.048693 0.397369 -0.135348 0.646496 0.065129 0.196380 -0.222794 -0.119461 0.358990 0.389534 0.193072 -0.381687 -0.217033 0.144349 0.353959 0.621135 0.586508 -0.015688 -0.646976 -0.567085 0.016546 -0.324381 0.580315 -0.492104 -0.532049 -0.200679 -0.262540 0.081234 0.322642 0.072257 0.396128 -0.679598 -0.202382 0.088299 -0.069251 -0.017310 -0.525505 0.482656 0.187572 0.119469 0.111321 0.088422 -0.260199 -0.038481 
过 0.126428 -0.078717 0.554543 -0.618466 0.299154 0.002214 -0.003445 0.182089 -0.134803 0.382158 0.080528 0.511660 -0.166641 -0.291795 -0.249395 0.169891 0.253199 -0.016168 0.356923 0.078733 -0.000635 0.393426 0.123294 -0.224053 0.268168 -0.327251 -0.393306 -0.127122 -0.068264 0.164697 0.183655 -0.004434 -0.176953 0.250349 -0.196943 0.127202 0.416568 0.070130 -0.491896 -0.289097 -0.171494 0.309610 0.030707 0.053845 0.509357 0.296356 -0.306976 0.587602 0.217711 -0.217849 
队 -0.572755 -0.155396 -0.284398 -0.370976 -0.207333 -0.151458 0.138445 -0.799876 -0.548769 0.882469 -0.170976 -0.243955 -0.203838 -0.133635 0.719859 0.538393 0.639490 -0.545781 0.611514 0.245935 0.057038 0.485528 0.435279 -0.273329 -0.222443 -0.459746 0.017778 0.202014 -0.042006 0.487826 -0.025806 -0.192794 -0.046198 0.160855 0.415034 0.323596 0.352584 0.032455 -0.162769 -0.169253 0.049018 0.272231 0.387069 -0.895343 0.468781 -0.410979 0.490584 -0.087934 0.288497 0.030909 
者 0.352895 -0.111063 0.598430 -0.087825 0.266136 -0.081631 -0.393998 -0.364114 -0.335451 -0.200964 -0.203037 -0.423825 -0.329976 0.347619 -0.279223 -0.215122 0.126348 -0.716907 0.971736 0.286457 0.307808 0.442798 0.257357 -0.094371 -0.060860 -0.364166 -0.379786 1.141195 0.082730 0.667035 -0.152355 0.160296 -0.974017 -0.079058 -0.707044 -0.162037 0.456622 -0.333059 -0.249839 -0.163466 0.073506 0.182306 -0.423286 0.496815 0.311547 0.303753 0.208862 0.191032 0.477008 0.487462 
面 0.258324 -0.400476 -0.468299 0.090064 -0.022719 0.166019 0.327696 -0.502361 -0.046689 0.078285 0.427930 0.228819 -0.244158 0.291666 -0.036028 0.596441 0.364602 0.325185 0.170105 0.503608 -0.294230 -0.370636 0.286959 -0.471186 -0.363566 -0.114015 0.257593 -0.279032 0.077731 0.011087 0.484802 0.177078 -0.149962 0.241258 0.114348 0.169191 0.671776 -0.337915 -0.175186 -0.246399 -0.051231 0.269054 -0.441652 -0.359975 0.248627 0.002051 -0.181349 0.232229 0.176520 0.018244 
美 -0.031107 0.219105 0.522962 0.248778 -0.269454 -0.070831 0.362311 -0.052664 -0.252225 -0.038272 -0.208446 0.735693 -0.521259 0.273573 -0.297590 0.468809 0.144620 0.088375 0.466537 -0.321429 0.053993 0.097976 -0.207377 -0.015892 -0.080420 -0.343706 0.429009 0.069628 0.379631 -0.016819 -0.763686 0.070368 -0.574612 0.344083 0.365228 0.342632 -0.130426 0.199587 0.120786 0.051754 0.177854 0.833153 -0.225902 0.130345 -0.165479 0.415658 -0.080867 -0.214479 0.334091 -0.148371 
员 -0.003308 -0.980130 -0.313828 0.027427 -0.027022 -0.294082 0.180581 -0.179025 -0.289431 0.260516 -0.008391 -0.012623 -0.436240 0.245671 -0.422320 0.454542 -0.020753 -0.321164 0.147411 0.573372 0.360733 0.513865 0.284725 -0.867517 -0.093859 -0.321176 -0.525191 0.123932 -0.497712 0.632075 0.166172 -0.311947 -0.830279 -0.364235 -0.523633 -0.032208 0.007230 -0.073500 0.084529 -0.201624 0.367324 -0.127746 -0.147103 -0.467468 -0.158752 0.377109 0.226600 -0.015081 0.332361 0.065045 
定 0.028389 -0.321127 0.008658 -0.266499 -0.094629 -0.021368 -0.257046 -0.242951 0.072773 -0.001540 0.380315 0.304920 -0.901875 -0.201926 -0.273630 0.683743 0.206527 0.182875 0.116692 0.483874 0.014512 -0.043902 0.191551 -0.157973 -0.188620 -0.559782 -0.279469 -0.061185 -0.272800 -0.718976 -0.224676 -0.018595 -0.348929 -0.372416 -0.117232 0.852645 0.134778 -0.088677 -0.165650 -0.177228 0.296381 -0.200534 0.258728 0.193849 -0.233705 0.079506 -0.207784 -0.170920 0.080253 -0.022554 
等 0.322292 -0.265019 0.179798 -0.019894 -0.149746 -0.016615 0.044221 -0.018266 -0.398531 0.188864 0.491729 -0.267548 0.000005 -0.572615 0.121992 0.378004 -0.029956 -0.013484 0.007050 0.541748 -0.229456 0.430726 -0.113075 -0.257116 0.145227 -0.068103 0.426123 0.039386 -0.019456 0.202319 -0.032562 -0.285645 -0.487010 -0.273089 0.431641 -0.235392 0.050400 -0.978990 -0.077816 -0.017419 0.127083 -0.089782 0.107320 0.219323 0.782101 0.625048 0.317765 -0.117470 0.182988 -0.040509 
化 0.094512 -0.270659 0.313169 -0.041909 -0.391733 0.028812 0.311886 0.068614 -0.017423 -0.209950 0.470791 -0.205180 -0.478836 -0.274257 0.420914 0.535532 -0.107232 0.102346 0.472011 0.155940 0.994059 0.173721 -0.278845 -0.208099 0.050753 0.429248 0.016471 0.030902 -0.251386 -0.414826 0.147412 -0.457137 0.065056 -0.031307 -0.111406 -0.019327 -0.054799 -0.977480 0.217953 -0.457713 -0.330639 0.281345 0.132594 -0.309263 0.319978 0.494593 -0.075775 0.286112 -0.269379 -0.541684 
小 -0.161842 -0.282222 0.305000 -0.014669 0.056263 0.170978 -0.209818 0.041623 0.043348 -0.425076 0.538336 -0.096019 0.475553 0.463655 -0.505503 0.754376 0.615044 0.096505 0.610085 -0.182719 -0.061671 0.174843 -0.113271 0.212143 0.165934 -0.369947 -0.625316 0.184951 -0.982186 -0.283939 -0.181191 0.006914 0.118006 0.263778 0.538643 -0.237597 0.630932 -0.138500 0.268682 0.353614 0.425633 0.240018 0.376689 -0.304021 0.134521 0.261487 0.641706 0.088685 -0.116519 -0.461370 
得 0.039862 -0.403977 -0.268864 -0.545706 0.420469 0.102312 -0.056142 -0.375674 -0.057267 0.691526 -0.009322 0.122164 -0.110499 -0.235412 -0.021052 0.288667 0.493425 -0.094158 0.515972 0.134884 0.067514 0.157016 0.040182 0.179669 -0.114338 -0.233121 -0.292991 -0.018845 0.575167 0.195549 0.380464 0.455817 -0.621009 0.637130 0.025759 0.458889 -0.219486 -0.102189 -0.266409 0.088668 -0.001191 0.298712 0.194097 0.201086 0.021568 0.451182 -0.229602 0.247092 -0.213347 -0.146084 
济 0.095482 0.363528 0.447139 -0.530973 -0.268716 -0.077562 0.394561 -0.544589 -0.526718 -0.268570 0.474495 -0.063613 -0.456581 0.107860 -0.119139 0.184446 -0.203731 0.122497 0.379866 0.060926 0.274441 -0.228433 0.255736 -0.431662 -0.545845 -0.133381 -0.366418 0.706549 -0.232533 -0.766400 -0.150134 -0.309445 -0.127071 0.344850 0.525589 0.281234 0.295881 -0.397828 0.203973 -0.806270 -0.360468 -0.088624 0.140290 -1.058837 0.404348 0.391692 -0.919882 0.482841 0.160511 -0.012463 
６ 0.524627 0.070130 0.057800 0.421665 0.353763 0.101225 -0.432407 -0.147067 -0.305899 -0.280050 -0.030396 0.460434 0.416336 -0.131322 0.629406 0.737216 0.059089 -0.727811 -0.191414 -0.409866 -0.581518 0.752621 -0.165107 -0.331419 0.389816 -0.857002 -0.470832 0.271280 -0.233040 -0.223792 0.421594 -0.839139 -0.423910 0.023948 0.623179 0.022140 0.524735 -0.467936 -0.030873 -0.103902 0.480276 0.375162 -0.411664 -0.064277 -0.161353 0.595056 -0.009048 0.128749 0.554629 -0.554818 
报 0.156242 -0.553083 1.130641 0.500900 -0.016887 -1.057651 -0.434414 0.088036 0.724832 0.205702 0.173103 0.066936 -0.211263 -0.080327 0.662624 0.328921 0.059107 0.154051 0.105563 -0.115448 0.148062 0.537786 0.307668 -1.074188 -0.387522 -0.631624 0.350219 -0.047263 0.336054 -0.267392 0.014933 -0.088661 -0.219872 0.520956 0.138222 0.082511 0.591270 -0.474069 -0.000430 0.345032 0.247366 -0.184597 -0.609143 0.299644 0.123073 0.457771 0.132843 0.579714 0.179043 0.247020 
天 -0.029263 0.322715 0.255379 0.424639 -0.334079 -0.011510 0.328242 -0.091000 0.176484 -0.150528 0.270136 0.468870 -0.444315 0.152750 0.225952 0.269118 0.765470 -0.240561 0.186409 0.152740 -0.425585 0.603013 0.231779 0.022242 -0.519424 -0.905266 -0.313293 0.005057 -0.312096 0.272983 -0.404799 -0.013031 -0.193522 0.052482 -0.249375 -0.274004 -0.076281 0.195266 -0.144068 -0.377652 0.435309 -0.143149 0.069771 0.264090 -0.420434 0.155715 -0.145988 0.555033 -0.068920 -0.164288 
事 -0.141830 -0.064559 0.131906 -0.241603 0.286195 -0.477831 0.154888 -0.185756 -0.092849 0.173953 0.390522 0.314065 0.040083 -0.005557 0.369993 0.401064 0.580394 0.171763 -0.035463 0.228539 0.056274 0.472755 0.009976 -0.188629 -0.553007 0.161299 -0.176282 0.435517 0.233039 0.597374 -0.369242 0.010705 0.170631 -0.260037 -0.415081 0.419838 -0.110011 -0.353416 0.217182 0.125632 0.104633 0.417728 0.176137 -0.181395 0.530570 0.421525 -0.330267 0.142093 0.458544 0.241722 
也 -0.508695 -0.483088 -0.403084 0.134294 0.017018 0.441204 0.406385 -0.666379 -0.289574 0.055063 0.250700 -0.051477 -0.083433 0.224543 -0.091244 -0.029364 0.477380 -0.418069 0.014953 0.248043 0.009552 0.407061 0.265902 0.015098 -0.033716 0.033350 0.107049 -0.058016 0.393697 -0.056453 0.079948 -0.153251 -0.166158 0.269395 -0.010584 0.033571 0.148334 -0.688014 0.193753 -0.264891 0.078390 0.240155 -0.244260 0.323248 0.164620 0.444368 -0.192500 0.193285 0.035428 0.482908 
机 0.366199 0.007600 0.165535 -0.180232 -0.090981 0.272454 -0.093898 -0.608612 -0.183251 0.157073 0.315027 0.002226 -0.237569 0.299727 -0.211810 0.466369 0.483712 -0.412659 0.000922 0.186025 0.016673 0.348200 -0.138572 -0.926185 -0.371381 -0.010596 0.034820 -0.006436 0.042288 0.112938 -0.091136 -0.181596 -0.190422 -0.822289 -0.456718 -0.303746 0.335905 0.205604 0.192124 -0.014446 0.249651 0.938247 0.265547 -0.385494 -0.274627 0.697693 0.153313 0.186919 0.159337 0.179549 
而 -0.078433 -0.384024 0.026164 -0.318188 -0.227587 0.338000 -0.016079 -0.136553 -0.201053 -0.069663 0.073246 0.070975 -0.183714 0.115793 0.070012 0.239886 0.250141 -0.305315 0.087527 0.240818 0.303480 0.304157 0.130787 0.252148 0.134329 0.030315 0.423240 0.046666 0.332774 -0.002374 -0.211928 -0.019078 -0.057947 0.186396 -0.070550 0.168359 -0.128368 -0.139561 0.303369 -0.201760 -0.110428 0.564319 -0.271827 0.239675 0.161192 0.569578 0.029758 0.502049 0.047925 0.328621 
制 0.131314 -0.345979 0.189551 -0.275938 0.190598 0.140105 0.444367 -0.400814 -0.024693 -0.184655 0.398617 -0.009481 -0.001289 -0.736634 0.565783 0.369002 -0.063332 0.038300 0.297401 0.365247 0.413826 -0.077124 -0.304323 -0.785936 0.038197 -0.061566 -0.308237 -0.631264 -0.263190 -0.064929 -0.278980 0.049970 -0.463926 -0.661667 -0.064402 0.051315 0.109728 -0.241732 -0.075120 0.193014 0.030678 0.552758 -0.330351 0.039068 -0.030255 0.478753 0.013746 0.470681 0.370742 -0.214480 
４ 0.528446 0.071388 0.055458 0.303400 0.222001 0.002594 -0.419649 -0.064844 -0.440454 -0.156252 -0.078783 0.330591 0.349664 0.047589 0.383847 0.798364 -0.136754 -0.607950 -0.195696 -0.326525 -0.514318 0.669398 -0.245386 -0.358035 0.470442 -0.701035 -0.375768 0.156724 -0.105857 -0.197208 0.478837 -0.676392 -0.406951 -0.074653 0.666803 0.185556 0.551346 -0.170049 -0.126965 -0.042392 0.452667 0.330826 -0.291009 -0.095738 -0.155038 0.698463 -0.018302 0.246855 0.507280 -0.446290 
之 -0.203020 0.004196 0.086438 -0.404095 -0.276712 0.141827 0.299246 -0.010080 -0.337581 0.171605 -0.233324 0.228730 -0.039015 -0.211089 0.193579 0.372258 0.274309 0.104963 -0.207042 0.288769 -0.094070 0.156730 -0.131809 -0.056594 0.015630 -0.483780 0.427885 0.527886 0.096710 0.239067 0.026932 -0.103623 -0.289963 0.016499 -0.093162 0.039191 0.002713 -0.656002 0.644987 -0.121899 -0.010214 0.574206 -0.263182 0.258840 0.376325 -0.052182 0.572903 0.455290 -0.006939 0.076150 
区 0.634267 0.031998 -0.588470 0.163411 -0.206065 -0.029761 0.008464 0.068878 -0.596179 -0.092906 0.257876 -0.592863 -0.506938 -0.248493 0.376498 0.515926 0.060413 -0.443041 0.609532 0.758026 -0.184676 0.346988 0.366199 -0.067090 -0.875467 -0.266472 0.435475 0.401940 0.115436 -0.323613 0.070215 -0.218063 0.280563 -0.354594 0.208013 0.015174 0.352385 -0.543690 0.228477 -0.408451 0.659164 0.291916 0.294448 -0.242078 0.408761 -0.137190 -0.179910 -0.070344 -0.011333 -0.453620 
文 -0.504800 -0.226920 0.880397 0.601712 0.049211 0.127651 -0.121372 -0.037977 -0.098298 -0.087199 0.612560 0.176630 -0.298549 0.142997 0.147364 0.140229 0.381064 0.383522 0.108240 0.214018 0.293171 0.530342 -0.738852 0.164737 -0.225122 -0.055995 0.069048 0.352240 -0.232313 -0.238922 0.235029 0.063388 -0.095289 0.255487 -0.102236 0.281161 0.035304 -0.804835 0.219109 0.332510 0.430003 0.124407 -0.160454 -0.225129 -0.183286 -0.226576 0.055558 -0.105224 0.121611 -0.340140 
７ 0.528381 0.061988 0.085150 0.376647 0.187825 0.084026 -0.505867 -0.154527 -0.319228 -0.333494 -0.027301 0.461748 0.425104 -0.181097 0.804526 0.814444 0.055647 -0.729883 -0.325991 -0.512664 -0.444115 0.824778 -0.145696 -0.320866 0.329868 -0.916144 -0.414115 0.340402 -0.290767 -0.292356 0.370781 -0.852561 -0.465915 0.006126 0.535491 -0.056849 0.440847 -0.449405 -0.005061 -0.024275 0.471581 0.347613 -0.452058 -0.055917 -0.187703 0.519447 0.013793 0.244452 0.768386 -0.512597 
利 0.179462 -0.218152 0.229770 -0.293184 0.074899 -0.032474 -0.076208 -0.666106 0.106253 0.446752 -0.716100 0.245502 0.224226 -0.409564 0.228419 0.722600 0.034194 -0.093874 0.257910 0.212727 -0.163176 0.183436 -0.150634 -0.530278 -0.204551 0.005636 0.010826 0.207954 -0.337806 -0.453184 -0.545201 -0.097107 -0.116527 0.391825 0.480616 0.202358 -0.010762 -0.411289 -0.221821 0.315627 0.300397 0.630600 0.153259 0.344656 0.218649 0.395790 -0.156788 0.024022 0.129043 0.240988 
体 0.312700 0.219741 0.264990 0.066666 -0.370338 0.288693 0.435982 -0.524574 0.420180 -0.021556 0.505569 0.142741 -0.003328 -0.341388 -0.091089 0.421077 0.412446 -0.395025 0.326687 0.386152 0.237179 0.206707 0.195202 -0.564632 -0.239928 0.376263 -0.453788 0.276837 -0.225007 0.127657 0.340307 -0.009418 -0.497749 -0.369020 -0.197101 0.071658 0.086012 -0.353255 0.201483 0.079147 0.227150 0.411817 -0.243211 -0.342935 0.002307 -0.095471 -0.345319 -0.033358 0.118201 -0.312063 
将 -0.236419 -0.516773 -0.223538 0.108168 0.358127 0.512455 0.167476 -0.480662 -0.195876 0.202818 0.032983 0.146013 -0.282464 -0.141302 -0.204613 0.220585 0.388540 -0.418659 0.278161 0.264284 -0.372034 0.293060 0.426012 -0.213786 -0.133466 -0.248622 0.298980 -0.381048 0.096675 -0.139738 -0.493503 -0.453369 -0.047347 0.290631 -0.070104 0.264226 0.161531 -0.263767 0.082099 -0.040970 0.094390 -0.238844 -0.167132 0.071379 -0.204101 0.422228 -0.033528 0.221278 0.449744 -0.058366 
好 -0.040104 0.279074 0.449000 -0.500194 -0.175281 -0.143617 0.757738 -0.025937 0.052459 0.015873 0.600815 0.190973 -0.335848 -0.275645 -0.296484 0.761205 0.280018 0.384342 0.381039 -0.109611 -0.137733 0.299950 0.181745 0.136187 -0.175410 -0.380543 -0.150570 0.362870 0.122740 -0.132143 0.100618 0.619903 0.007734 0.213497 0.285361 0.571779 -0.123049 -0.220189 -0.002507 0.373175 -0.325001 -0.018618 0.414761 0.083849 0.544992 0.515442 0.112626 -0.198898 -0.288853 -0.014445 
心 0.130134 -0.042303 0.360186 0.006284 -0.178927 -0.036834 0.341978 0.046070 -0.136234 -0.135086 0.167657 -0.042829 -0.195123 0.223694 0.090636 0.190779 0.657978 -0.325934 0.261997 0.271909 -0.476118 0.167389 0.360085 -0.421760 -0.430317 -0.195243 -0.267902 0.183437 -0.059114 0.274044 -0.214587 0.222371 -0.411676 -0.340429 0.102134 0.857186 0.076465 -0.494571 0.042458 0.313436 -0.631347 0.397495 -0.199043 -0.061592 -0.163239 -0.224659 0.356607 -0.018200 -0.577524 0.003171 
社 0.235037 -0.816647 0.615958 0.873872 -0.085644 -0.183212 -0.232847 0.064995 0.530423 -0.338026 0.007233 0.261885 -0.513189 0.010168 0.034691 0.422441 -0.213250 0.209677 0.194208 0.199283 -0.250242 0.850721 0.127429 -0.889666 -0.656769 0.329309 -0.164446 0.298874 0.492801 -0.485780 0.032267 0.509293 -0.085010 0.591798 -0.389077 0.292835 0.027826 -0.188133 0.091099 -0.070099 0.432941 0.471685 0.034444 -1.002391 0.204876 0.252032 -0.285299 0.456646 0.453617 0.336765 
从 -0.186408 -0.331695 0.194262 -0.091918 0.294390 0.137654 -0.159257 0.062776 -0.073002 -0.174732 0.341297 0.316117 0.229445 -0.325647 -0.117388 0.750692 0.354507 -0.317271 0.211674 0.038499 -0.163824 0.339608 0.464507 0.336220 -0.309352 0.225463 -0.326270 -0.365578 0.291458 -0.205166 -0.327219 -0.705244 -0.001839 0.107051 0.235909 0.183291 0.217683 -0.314141 -0.163521 -0.028686 -0.177193 -0.189419 -0.088148 -0.272579 0.140417 -0.098364 0.397294 0.662069 0.372583 -0.086876 
８ 0.572728 0.132733 -0.064800 0.333611 0.231574 0.061685 -0.387729 -0.038404 -0.428389 -0.301176 0.009285 0.272462 0.275013 0.082512 0.347647 0.809939 -0.093672 -0.628749 -0.204243 -0.320312 -0.312356 0.711816 -0.075880 -0.223256 0.581446 -0.841616 -0.553989 0.443590 -0.131017 -0.077259 0.414349 -0.689660 -0.414162 -0.133584 0.675103 0.291343 0.586254 -0.096656 0.012012 -0.090940 0.426700 0.329401 -0.378771 -0.166275 -0.148809 0.655978 -0.152721 0.315720 0.400753 -0.355817 
平 -0.064059 -0.542361 0.497192 0.045699 -0.771112 -0.318647 0.021317 -0.427842 0.118686 0.163971 -0.505104 0.076660 -0.324683 0.300375 -0.296133 0.434666 -0.305334 0.414898 0.398789 0.260342 0.035734 0.123786 -0.246947 -0.180127 0.126881 -0.535666 -0.246242 0.459457 -0.536531 -0.486076 -0.109942 0.563118 0.520148 0.343749 0.702866 0.947001 0.359172 -0.098290 0.283378 -0.833167 0.445731 0.448224 0.269440 0.024650 0.040098 0.526578 0.330923 0.043216 -0.381944 -0.365419 
可 -0.111255 -0.409451 0.024820 -0.216396 0.196608 0.574469 0.454931 -0.565508 0.114744 -0.006482 0.259265 -0.075652 -0.069128 -0.056196 0.104787 0.198667 0.401206 -0.183776 0.233848 0.427025 -0.123588 0.261401 -0.092244 0.247630 0.244720 0.109251 -0.221659 0.002460 0.060617 0.094216 -0.021423 -0.186122 -0.085525 0.571660 -0.135899 0.541663 0.248969 -0.379822 -0.012745 0.165344 0.267568 0.362075 -0.082078 0.482084 -0.562665 0.170800 0.042722 0.139923 -0.051867 0.531637 
科 0.001647 -0.471370 0.420295 0.487228 0.468269 -0.164599 0.090218 -0.450195 -0.121569 -0.108010 0.532451 0.164412 -0.460331 0.245782 -0.079743 0.123541 -0.135149 -0.100901 0.088269 -0.047020 0.011395 1.004070 -0.206541 0.028306 -0.058424 0.092711 -0.176601 0.177665 -0.245723 -0.070678 -0.779173 -0.100167 -0.200475 0.597314 0.286263 0.450455 0.272303 -0.399263 -0.384496 -0.206399 0.269571 0.464016 0.301744 -0.950401 0.052939 -0.317472 0.119529 -0.037328 0.053822 -0.712823 
务 0.020108 -0.351665 0.439516 -0.669602 0.496938 -0.568918 0.896054 -0.247592 -0.588742 -0.267900 0.295945 -0.130923 0.019737 0.131415 0.347390 0.926467 -0.052204 -0.190206 -0.134308 0.110005 -0.039800 0.183340 -0.062488 -0.433734 -0.675293 0.273768 -0.217695 0.781257 0.406756 0.295972 -0.093306 -0.634159 -0.239672 -0.318595 -0.362828 0.057957 -0.084966 -0.452457 0.208659 -0.192739 -0.082466 -0.031077 0.307908 -0.157939 -0.404776 0.514178 0.227462 -0.256353 0.134022 -0.043769 
问 0.054067 0.198818 -0.109242 0.019820 0.288961 -0.007320 -0.291937 0.023074 -0.155350 0.354330 0.087186 -0.019510 -0.146776 0.214598 -0.084541 0.381472 0.441335 0.555151 -0.747199 0.407601 0.073759 0.928091 0.295585 -0.289861 -0.592951 -0.250848 0.158521 0.209064 -0.171205 0.001916 -0.636470 0.098880 -0.215871 0.220172 -0.649707 0.685751 0.538000 -0.362113 0.064518 0.002704 0.638234 0.598769 -0.102281 0.354028 0.867999 0.215647 0.192732 0.167061 0.171924 -0.108582 
总 -0.115018 -0.529518 0.379574 0.474500 -0.283579 -0.617265 -0.015914 -0.409626 0.269583 0.168100 -0.384279 -0.052891 0.033136 0.404656 0.238121 0.687019 0.330709 -0.863505 -0.713747 0.094741 -0.408297 0.228194 -0.007535 -0.439893 -0.185908 -0.329478 0.069306 -0.265267 0.402119 0.738666 -0.694497 -0.543266 0.204908 0.429087 0.507743 0.989854 -0.380220 -0.935015 0.523051 -0.447983 0.279877 0.064118 0.044702 -0.203267 0.142453 0.189081 -0.521320 -0.055092 0.457880 -0.560019 
代 -0.455702 -0.124833 -0.069912 0.126631 -0.300160 0.261492 0.207930 0.142453 0.120266 0.633263 0.319208 0.472938 -0.151518 0.352225 0.337047 0.515361 0.157453 0.181004 0.153846 0.173947 0.099377 0.371989 -0.744980 -0.530123 -0.427158 -0.009303 -0.376075 0.184955 -0.444184 -0.055051 -0.276069 -0.033942 0.070157 0.279201 -0.221945 0.292350 -0.395081 -0.500290 0.575146 -0.466978 0.379825 -0.218993 -0.612343 -0.240442 -0.505594 0.079268 0.143873 0.374754 0.177324 -0.444121 
电 -0.364584 -0.046956 1.253816 0.480226 -0.454535 -0.553077 -0.525057 -0.148053 -0.356282 0.016031 0.570978 0.207338 -0.008501 0.356395 -0.259588 0.118392 0.160103 -0.448692 0.169675 -0.406274 -0.378359 0.618018 -0.958068 -0.916497 -0.820355 -0.084276 -0.023811 -0.116844 0.189870 0.214340 0.091016 -0.321910 -0.161027 0.583793 0.256291 0.144677 0.409960 0.327460 0.372048 -0.169095 -0.196932 0.560884 0.080044 0.249238 -0.371649 0.027787 0.023128 0.149443 0.101759 -0.124248 
外 0.215698 0.088870 0.300901 -0.106023 -0.066591 -0.009509 0.585773 0.110714 -0.424466 0.100118 0.169356 0.003948 -0.498255 0.380575 -0.170734 0.637720 0.118506 -0.127279 0.034957 -0.027666 -0.200519 0.547751 -0.357324 0.065493 -0.528819 0.006959 0.588857 -0.193800 0.264722 0.321385 -0.284344 -0.305455 -0.174147 0.322633 0.315285 -0.167939 -0.116681 -0.268748 0.052119 0.048737 0.376624 0.171591 -0.086462 0.081174 0.152326 -0.010913 -0.282648 0.030546 0.642757 0.189119 
度 -0.355990 -0.467900 -0.118293 -0.324712 0.015584 -0.080292 -0.020110 -0.330673 0.025768 -0.693015 0.101519 -0.181004 -0.731728 0.131327 0.623304 0.858068 -0.117861 0.310786 0.777122 0.412401 0.459906 -0.247267 0.151890 -0.623983 -0.172956 0.002201 -0.136333 -0.522238 -0.014593 -0.022698 0.120953 -0.233584 -0.524353 0.584793 0.419671 0.244516 -0.140073 0.206952 -0.229859 -0.455504 -0.199097 0.215579 -0.727815 -0.028560 -0.314026 0.245114 -0.010269 0.278888 0.044212 -0.062845 
： -0.532351 -0.650372 0.300402 0.764059 0.040466 0.344788 -0.042370 0.545572 -0.516091 0.144437 0.251705 0.443525 -0.205346 -0.317381 -0.002783 0.132967 0.290072 -0.405989 -0.084575 0.225271 0.384885 0.660559 0.530752 0.293140 -0.476575 -0.410715 -0.035403 -0.169398 0.467955 -0.360939 -0.123984 -0.233275 -0.179976 -0.448797 0.231293 0.410214 0.518905 0.179948 -0.179923 -0.238740 -0.120625 0.422484 -0.234389 0.453938 0.479481 0.210072 0.159303 -0.006332 -0.009271 0.177400 
资 0.222690 -0.343146 0.374567 -0.258203 0.455298 0.168192 -0.088119 -0.171573 -0.447629 -0.326252 -0.013779 -0.544930 -0.645780 -0.455167 -0.628487 0.808330 0.443753 -0.355540 -0.367636 0.010257 0.129701 0.149699 -0.450637 -0.493777 -0.238081 0.072467 0.036082 0.550967 -0.409707 -0.160333 0.036057 -0.239381 -0.328832 0.014609 0.454311 0.356793 -0.062407 -0.349658 -0.009331 0.088135 -0.071099 0.750740 -0.012343 -0.225024 -0.261512 -0.336446 -0.556203 0.252343 0.004620 0.348125 
种 0.379691 0.139012 -0.050180 0.236764 -0.453853 -0.052063 0.186320 0.010895 0.134923 0.294178 0.913212 -0.156217 -0.525300 0.045560 -0.193598 0.639871 0.096761 0.067130 0.309910 0.421257 -0.512881 -0.085712 -0.094073 0.573059 0.047331 0.218239 -0.820721 0.035146 -0.285647 0.131126 -0.159021 0.286871 -0.416906 0.133196 0.146727 -0.198228 0.131144 -0.203389 0.051368 -0.100337 -0.131369 0.180953 -0.446277 0.117956 0.192260 0.415395 -0.480518 0.365568 0.052617 0.159780 
子 -0.152990 -0.434869 0.337021 -0.007968 -0.567715 0.029474 0.392701 0.043277 -0.548632 0.371347 0.117295 0.010693 -0.251673 0.759507 0.009744 0.241059 0.339158 -0.475704 0.384407 0.239277 0.421065 0.313692 0.251938 -0.189903 -0.207208 0.325833 -0.299603 0.235060 -0.267678 -0.251961 0.354355 -0.072177 0.500261 -0.264235 0.282863 -0.124631 0.779094 -0.239701 0.088027 0.191320 -0.339765 -0.026200 0.266512 0.248386 0.067146 0.152957 -0.201229 0.190322 0.103793 0.165321 
两 -0.103108 0.318662 0.194813 0.103784 -0.207837 -0.006743 0.545240 -0.101495 -0.600811 0.157272 -0.337441 0.505651 -0.325226 0.091333 -0.353842 0.578107 0.191577 0.224162 0.228790 -0.276575 -0.241509 0.058585 -0.287672 -0.343940 0.324855 -0.257680 -0.402263 -0.256397 0.443205 -0.149675 -0.200168 0.049257 -0.095680 -0.152491 0.592597 0.269198 0.124898 -0.415268 0.149078 0.164856 0.491284 0.303301 -0.018712 0.200459 0.605544 0.336327 0.279186 0.045740 0.540884 -0.328943 
金 0.263011 0.047757 0.635724 0.052998 0.798520 0.349179 0.241018 0.048011 -0.015413 0.143178 0.530882 -0.819316 -0.886740 0.131594 0.023776 0.554798 0.182628 -0.121871 -0.118117 0.560810 0.076603 0.075393 -0.379989 -0.606691 -0.010370 -0.130020 0.187896 0.350560 -0.118614 -0.606558 0.018473 -0.419783 -0.196648 0.386529 0.199755 -0.073946 -0.015832 -0.371028 -0.053054 0.323932 -0.165048 0.367220 0.200624 -0.228087 -0.477159 -0.084957 0.081646 0.096208 0.674862 0.389421 
次 0.150258 0.046032 -0.178153 0.352445 -0.062633 -0.193436 0.502412 -0.022156 0.261239 0.452061 0.593927 0.320261 -0.646181 0.341529 -0.064436 0.553172 0.184363 -0.334868 0.626789 0.120985 -0.365199 0.082419 0.262059 -0.455163 0.083681 -0.044917 -0.332920 0.007074 -0.256094 0.345549 -0.503360 -0.332748 -0.006577 0.715229 -0.429677 -0.035648 0.160754 0.321607 0.184693 -0.112549 0.234664 -0.362271 -0.389011 0.457574 0.097091 0.516928 -0.341920 0.263083 0.334580 -0.165818 
表 -0.580186 0.019429 -0.330321 0.574627 -0.024835 -0.211716 -0.233927 -0.340345 -0.023679 0.326162 -0.072923 0.425167 -0.433835 0.379733 -0.345114 0.525226 0.102321 -0.339188 0.003865 0.329442 0.440354 0.467543 0.014305 -0.421677 -0.430984 -0.474140 0.066437 0.036585 0.486060 -0.092914 -0.106960 -0.188828 -0.697511 0.334290 -0.425316 -0.008554 0.135889 -0.650429 0.569731 0.445243 0.237934 -0.313906 -0.740041 0.284880 -0.072184 0.216970 -0.278830 -0.179170 -0.040544 -0.712709 
其 0.236267 -0.655352 -0.086504 -0.288066 -0.156435 -0.165317 0.067817 0.182751 -0.191725 0.148281 0.089164 0.229922 -0.016297 -0.019020 -0.480599 0.371869 0.192933 -0.265662 0.008388 0.196769 0.064592 0.049497 -0.316832 0.510720 -0.025872 -0.197834 -0.033798 0.295967 0.212567 0.023411 -0.658544 -0.486121 -0.280057 0.064271 0.064436 0.227599 0.042405 -0.085492 0.273619 -0.115078 -0.069118 0.606980 -0.336461 -0.123865 0.079412 0.324860 -0.060373 0.081422 -0.009668 0.034562 
元 -0.222850 0.235899 0.203811 0.264476 -0.199130 -0.114112 0.005550 0.074554 -0.476013 -0.075961 0.246280 0.132855 -0.128428 0.149072 0.123234 1.496854 -0.317118 -0.670113 0.955742 -0.080120 0.275949 -0.182123 -0.036360 -0.389655 -0.069916 -0.504855 0.673299 0.634172 -0.877214 -0.361274 0.043240 -0.100509 -0.015735 0.840674 0.310510 0.568588 0.061903 -0.356503 -0.103853 -0.593294 -0.368284 0.251040 0.221179 1.222241 -0.549191 0.100279 -0.442581 -0.112213 0.649437 0.595243 
企 0.024974 -0.235752 0.187882 0.225734 0.420222 -0.002250 0.335465 -0.234865 -0.292974 -0.128566 0.260223 -0.660834 0.059663 -0.066665 -0.143021 0.734948 0.373970 -0.796208 0.163462 -0.214520 0.528283 -0.120185 -0.633643 -0.226966 -0.319411 -0.118878 -0.218632 -0.165584 -0.150542 -0.519904 0.013761 0.004630 0.234589 -0.036472 -0.376112 0.340912 0.216588 -0.278979 0.114607 -0.156644 0.248044 0.732227 -0.368561 -0.491859 0.615356 0.247977 0.049698 0.125889 0.426772 0.595326 
里 -0.301865 0.009005 -0.358976 0.552618 -0.001433 0.064367 0.592055 -0.421744 -0.020291 0.085414 0.447135 0.148481 -0.072780 0.733298 0.048740 0.385900 -0.063779 -0.118764 0.242746 0.299107 -0.176279 0.555108 0.052220 0.092838 -0.527927 -0.409691 -0.178710 0.170799 -0.203014 0.128572 -0.188804 -0.305509 0.292706 0.193414 0.375006 -0.295058 0.510039 -0.719868 -0.420406 -0.416992 -0.131198 -0.046938 -0.032241 0.877701 -0.022751 -0.305330 -0.238400 0.540226 0.223552 -0.253438 
今 0.059667 -0.463537 -0.010333 0.266064 0.000419 0.047627 0.389472 0.199437 -0.131500 -0.466799 -0.190899 0.667666 -0.097819 -0.374407 0.278519 0.535015 0.628204 -0.080172 -0.847753 -0.094168 0.121147 0.689915 0.265727 -0.004715 -0.136938 -0.843995 -0.386054 -0.276025 0.582980 -0.411429 -0.218368 -0.374236 -0.175644 0.120583 0.105402 0.203320 0.098995 -0.450627 0.127226 -0.143225 0.145141 -0.328567 -0.212907 -0.277221 -0.110915 0.117236 0.370086 0.563255 0.555428 -0.075993 
内 -0.098195 0.076227 -0.243642 0.007705 0.128264 -0.030946 0.583624 -0.305543 -0.181468 -0.038785 0.135275 -0.114542 -0.159137 0.120634 -0.033141 0.635179 0.291087 0.191280 0.061525 0.265540 -0.426131 0.345035 -0.079334 -0.169347 -0.587601 0.096965 0.256613 -0.040266 0.039380 0.114225 -0.061728 -0.564822 -0.338346 0.262800 0.265884 -0.460210 -0.141258 -0.346090 0.087858 -0.261159 0.338461 0.631033 -0.384088 0.055255 0.062540 -0.312276 0.030172 0.268548 0.430602 -0.464250 
各 0.469374 -0.198368 -0.141673 -0.341196 -0.291353 -0.293724 0.384194 -0.149442 -0.428352 -0.043270 0.221952 0.019338 -0.241007 0.325037 -0.398400 0.620257 -0.238557 -0.099204 0.191815 0.061988 -0.342978 0.356390 -0.706959 0.048702 -0.058536 0.030117 -0.437872 -0.235243 0.590595 -0.299098 0.054249 -0.183745 -0.509291 -0.109857 0.254155 -0.074292 0.129616 -0.357129 0.564532 0.085694 0.652966 0.484208 -0.149474 -0.163882 0.691675 -0.079702 0.384028 -0.437179 0.300424 -0.331588 
当 0.293175 -0.301275 -0.042240 -0.219723 -0.177188 -0.207955 0.186566 0.033944 -0.022676 -0.029665 0.058137 0.821440 0.152323 -0.099314 0.033223 0.540177 0.337763 -0.306726 -0.207502 0.062138 -0.396044 0.211483 0.382552 0.296708 -0.341391 -0.335491 -0.478107 -0.111131 0.172632 -0.271011 -0.416819 -0.043395 -0.408264 0.118124 -0.053637 -0.166187 0.102366 -0.282191 0.208537 -0.079288 0.283990 0.234161 -0.110114 -0.060627 0.080285 0.224265 0.452603 0.052553 0.224909 0.179574 
保 0.445892 -0.039956 0.470081 -0.233964 0.179516 0.017662 0.473945 -0.374649 -0.352989 -0.079907 0.025845 -0.096026 0.014640 -0.572617 0.108191 0.561123 -0.382989 -0.260730 -0.356340 0.838682 -0.324990 0.456221 -0.439621 0.290596 -0.471230 -0.091692 -0.294354 -0.098342 0.167026 -0.307244 -0.233202 -0.049778 -0.559862 -0.293586 0.239439 0.967274 -0.210192 -0.018655 0.218130 0.168933 0.148340 0.207584 0.190209 0.382014 -0.203901 -0.488708 -0.130889 0.367655 0.133307 0.125982 
北 0.327677 -0.484739 0.174186 0.379913 0.036594 -0.290623 -0.079865 -0.229178 -0.219206 -0.502834 -0.335980 0.014571 -0.885007 -0.154596 0.001604 -0.280213 -0.002256 0.049573 0.442357 -0.112926 -0.287041 0.853962 -0.543782 0.097137 -0.592472 -0.442403 -0.518773 0.393972 0.200742 -0.230880 -0.037500 -0.710110 -0.051281 0.353976 0.858415 0.113223 -0.089126 -0.046663 0.192546 0.342318 0.987027 0.007685 -0.106069 0.372970 0.057332 -0.077845 -0.052384 0.735020 0.295800 -0.240087 
起 -0.105815 0.140973 -0.006519 -0.321793 -0.027567 0.042830 -0.496383 -0.232867 -0.276754 0.088670 0.569051 0.600906 -0.413497 0.383142 -0.264712 0.458020 0.458498 -0.181218 0.384678 -0.253877 -0.240233 0.396008 0.179487 -0.317798 -0.217029 -0.407653 0.028419 -0.231534 -0.175245 0.041125 0.497429 0.422130 -0.231803 0.059343 -0.051576 0.103772 -0.380565 0.098086 0.085521 -0.141883 -0.138238 0.230647 -0.146567 0.130428 0.397413 -0.085468 -0.140202 0.551091 0.076220 -0.162079 
党 -0.730599 -0.805915 0.377815 -0.192875 -0.091980 -0.420038 0.310445 0.065565 0.004509 -0.293923 -0.390194 0.010778 -0.255422 0.314603 0.063071 0.684799 -0.134753 -0.447282 0.322297 0.276856 -0.251016 0.173967 0.526970 -0.371365 -0.218109 -0.451885 -0.036389 0.495051 -0.113291 0.093797 -0.139983 0.244509 0.186286 -0.714980 0.114008 0.596030 0.456685 -0.080219 0.769565 -0.075149 0.347346 0.537316 -0.105620 -0.860833 0.741065 -0.093934 -0.011991 -0.288954 0.251364 -0.907999 
入 0.566528 -0.446701 0.025741 -0.570590 0.087597 0.281921 -0.566377 0.108060 -0.191225 0.351725 0.151696 -0.012980 -0.556211 -0.350097 -0.369558 0.567398 0.290847 -0.063791 0.468360 -0.024751 0.345835 0.365999 0.142808 -0.668287 -0.131043 0.219099 -0.473212 -0.036745 -0.184334 0.004321 0.452227 -0.427039 -0.226060 0.499458 0.464423 0.330093 0.111014 -0.035738 -0.062355 -0.123109 -0.329621 -0.082258 -0.001984 0.024601 0.270866 -0.381588 -0.208854 0.314580 0.058148 -0.676584 
提 0.020031 -0.743036 0.410392 -0.201529 0.071909 -0.036893 0.478389 -0.475472 -0.466336 0.107145 -0.056388 0.416503 -0.151858 -0.297142 0.297657 0.466186 -0.847078 -0.466443 -0.459132 0.464709 -0.281176 0.180642 -0.161096 -0.173255 -0.026449 -0.043160 0.307943 -0.522235 0.191740 -0.286357 -0.002408 0.443639 -0.645363 0.553569 -0.130615 0.354536 0.604946 -0.385670 -0.170960 -0.019298 0.556345 0.126362 -0.495310 0.105290 0.182234 -0.093325 0.026566 0.037292 0.136049 -0.133507 
还 -0.355326 -0.466519 -0.296887 0.000133 0.167799 0.392353 0.301669 -0.422955 -0.225452 0.077484 0.243741 -0.164314 -0.196752 0.319347 -0.136307 0.013569 0.442669 -0.437697 -0.017684 0.430720 -0.154512 0.325482 0.164393 -0.117682 -0.049507 -0.180954 0.143475 -0.256648 0.322245 -0.191171 -0.015367 -0.191183 -0.067929 0.276930 0.316541 0.098152 0.164950 -0.690057 0.142399 -0.282258 0.122339 0.110092 -0.291066 0.341002 -0.109639 0.256448 -0.133181 0.020262 0.144594 0.268384 
世 0.470213 0.311481 0.213959 0.362831 -0.201063 0.317500 0.377179 0.015311 -0.156860 0.445704 -0.165015 0.741383 0.046434 0.089024 0.548357 0.334741 0.140685 0.014597 0.072622 0.066390 0.301778 0.189008 -0.468016 -0.072470 0.000975 -0.033291 -0.445260 0.672536 0.750823 -0.286933 -0.074369 0.525306 -0.227453 1.002097 -0.103409 0.409593 0.404910 0.405081 0.455728 -0.518128 0.728530 0.361071 0.007321 -0.298848 0.213745 -0.151694 0.141466 0.749742 0.550251 -0.158154 
题 0.096843 -0.447822 -0.614582 -0.314345 -0.251245 0.256543 -0.040727 -0.092765 -0.740644 -0.103828 0.508389 0.384173 -0.208833 0.348478 0.124378 0.275995 0.349306 0.782116 -0.181113 0.336746 0.279182 0.398626 0.574869 -0.441597 -0.751600 0.618430 -0.086060 0.742619 -0.113799 -0.005155 -0.330914 -0.148186 -0.207792 0.244326 -0.356109 0.557456 0.844558 0.027208 -0.052815 -0.375736 0.249010 0.455887 -0.361126 0.417591 0.179080 0.572831 -0.280079 -0.376920 0.352946 -0.212984 
着 0.300755 -0.179925 0.376802 -0.341510 0.005142 0.761662 -0.130627 0.178514 -0.439188 0.331193 -0.142101 0.434783 -0.004165 0.311776 -0.533257 0.199500 0.712700 -0.128823 0.453894 0.150388 -0.253860 0.327561 -0.056389 -0.024295 -0.392204 -0.245381 -0.458989 -0.159738 0.490764 0.140735 0.385335 0.314898 -0.188638 -0.266853 0.106825 0.192016 -0.010051 0.077669 -0.229049 -0.220492 -0.572941 0.252885 0.029986 0.004995 0.624331 0.310402 -0.030233 0.323456 -0.113070 -0.452673 
明 -0.146551 -0.112339 0.472599 0.235374 0.194089 -0.420728 0.069874 0.055885 0.049922 -0.276347 0.338069 0.861031 -0.317074 -0.189062 0.196949 0.291665 0.503981 0.189265 0.315687 0.117482 0.531245 -0.135339 0.204928 0.134853 -0.093843 -0.724624 -0.015452 -0.191306 0.040778 -0.719125 0.155992 -0.328817 -0.294603 0.081862 -0.271886 0.308639 0.377357 -0.676174 -0.108769 0.065715 -0.237751 0.305075 0.156607 -0.112510 -0.000065 0.419363 0.191043 -0.513514 -0.087860 -0.518173 
设 -0.425999 -0.547792 -0.047045 0.049115 -0.087106 -0.414396 0.588863 -0.925653 -0.718837 -0.052418 0.592443 0.456329 -0.263971 -0.133721 -0.022560 0.667826 -0.050979 0.074333 -0.251091 0.085786 -0.161983 -0.193233 -0.318666 -0.521809 -0.565228 0.210251 -0.098301 0.217252 -0.115978 -0.187278 0.145308 0.132130 -0.062493 -0.613994 0.116421 0.390590 -0.186177 -0.099268 -0.445918 -0.442701 0.235600 0.130589 0.312616 0.182709 -0.200323 0.144834 -0.037007 0.508663 -0.215015 -0.880787 
都 -0.485271 -0.548303 -0.537062 0.243247 -0.122618 0.264528 0.246129 -0.566457 -0.127076 0.262966 0.302927 0.060385 -0.164306 0.290196 -0.158486 -0.062453 0.520142 -0.413486 0.279363 0.348336 -0.217975 0.350737 0.239550 -0.070282 -0.220477 -0.066084 -0.130297 -0.030095 0.023251 -0.002121 0.175381 -0.157846 0.053904 0.261566 0.256372 -0.012812 0.278819 -0.717206 0.204824 -0.139675 0.504421 0.186612 -0.031862 0.224960 -0.092763 0.217027 -0.159872 0.087840 -0.072273 0.395652 
所 0.200339 -0.210471 -0.112396 -0.280101 0.108674 0.169262 0.234121 -0.430687 -0.117350 0.121586 0.559437 0.026754 -0.056216 0.377893 -0.027661 0.013309 0.206635 -0.389513 0.405891 0.306686 -0.185329 0.154751 -0.163445 -0.186445 -0.002593 -0.207015 0.270492 -0.024394 0.183926 0.254487 -0.272588 -0.022257 -0.310425 -0.147691 0.037408 0.444368 -0.062686 -0.645216 -0.031822 -0.258499 0.528210 0.442209 -0.330798 0.173174 -0.170151 0.186252 0.000802 0.062919 -0.074627 0.350718 
万 0.427589 0.315149 -0.192299 0.678657 -0.156479 -0.194019 0.068180 0.322578 -0.909325 -0.137399 0.258361 0.150794 0.146596 0.357562 0.232375 1.256606 -0.382457 -0.632376 0.242915 -0.237533 0.088210 0.090033 -0.511856 -0.023073 0.173902 -0.539861 -0.213537 0.162843 -0.858223 0.047971 0.674414 -0.519624 -0.320032 0.406115 -0.245888 0.753337 -0.260031 -0.255576 -0.082907 -0.198408 0.254874 0.662820 0.086019 1.211573 -0.174590 0.338646 0.035361 0.015108 -0.034505 0.093064 
教 -0.302574 -0.309409 0.532522 -0.038093 0.209669 0.050465 0.199018 -0.228472 -0.262052 0.219256 0.620797 0.005906 -0.131265 0.515185 0.349771 0.384628 0.081227 -0.006726 -0.360084 0.246914 0.473208 1.160391 -0.091093 -0.242920 -0.050645 0.479024 -0.114828 0.407385 -0.022173 0.098974 -0.221270 0.094786 0.002503 0.158325 0.413337 0.155391 -0.211412 0.041340 0.478952 0.201700 0.655175 0.342856 -0.027896 -0.651324 0.032898 -0.265385 -0.143714 0.104309 -0.237023 -0.406583 
系 0.583698 -0.397475 0.137162 -0.062057 -0.285321 0.048588 0.122526 -0.302554 -0.875185 0.231345 0.460216 0.064293 -0.326006 0.057379 0.011502 0.683542 0.280856 0.665238 0.065363 0.006088 0.214345 -0.386229 0.469598 -0.685893 -0.200040 -0.186462 0.260588 0.056719 0.482991 0.403849 -0.477858 0.248670 -0.357497 -0.030790 0.052170 1.144744 0.352994 -0.486408 0.147688 -0.270179 0.199483 -0.093395 0.072272 -0.219046 0.410340 0.206227 0.093400 0.117356 -0.308728 0.250619 
十 -0.295575 -0.018860 0.206826 0.141647 0.459153 0.203663 0.761206 0.587017 -0.937079 0.004808 -0.009584 0.117869 -0.123662 0.021638 0.372966 0.284807 0.346926 0.114858 -0.432151 0.146064 -0.816945 -0.138702 0.128220 -0.241838 0.279333 -0.119568 -0.464657 0.583273 0.081535 0.307112 1.031694 -0.468024 -0.338465 0.416564 -0.113409 0.822404 0.016966 -0.158394 0.588654 -0.131225 0.761255 -0.021319 -0.124773 0.632545 0.253822 0.327614 -0.151948 0.349531 0.438560 -0.680862 
位 0.349951 -0.340727 -0.199711 0.165202 -0.164063 -0.343415 0.301995 0.091301 0.133341 0.568382 0.372762 0.183828 -0.122592 0.341061 -0.015526 0.594568 -0.045373 -0.198092 0.279056 0.776970 -0.036855 0.082393 -0.065435 -0.290412 -0.335456 -0.002601 -0.015742 0.369029 -0.160672 0.055146 0.178228 -0.159138 0.013138 -0.110403 0.142536 0.372581 0.438448 0.029950 -0.481299 -0.217663 0.762808 -0.199491 -0.603740 0.333700 0.049138 0.341434 0.200878 0.019048 -0.028054 0.258976 
名 0.000408 -0.163037 -0.053411 0.019318 -0.471418 -0.368182 0.235455 0.526046 -0.003533 0.714938 0.846370 0.239859 -0.206632 0.312440 0.280637 0.571148 -0.075078 -0.429421 0.478467 0.183935 -0.114743 0.301693 -0.530087 -0.007363 -0.034802 -0.559389 0.152494 0.299870 -0.611757 0.284096 0.122502 -0.318164 -0.428154 0.144806 -0.119429 0.350013 -0.191798 0.261994 -0.092164 0.039362 0.610873 -0.169703 -0.331166 0.130298 0.147547 0.186268 0.160819 0.021806 0.241986 0.098131 
最 -0.250964 -0.226793 -0.092449 -0.075313 -0.147301 -0.360083 0.578054 -0.310693 -0.223592 0.192922 0.137745 0.544587 -0.511442 -0.235365 0.182328 -0.252812 -0.163715 -0.366213 -0.255299 0.530461 -0.401379 0.065496 -0.290638 0.177406 0.146082 -0.373552 0.052634 0.317181 0.655258 0.025481 0.153791 -0.387077 -0.478569 0.757920 0.121981 0.152434 0.467123 -0.352155 0.155435 -0.191124 0.033744 0.310194 -0.188010 -0.360194 0.417627 0.206137 -0.022315 0.323413 -0.021862 0.045858 
特 -0.186565 -0.364315 -0.204088 0.280820 -0.015039 0.570348 -0.161361 -0.562002 -0.048154 -0.033515 0.376589 0.616077 -0.333205 0.263626 0.288448 0.589982 -0.036339 -0.188593 -0.231376 0.440504 -0.531066 0.300568 -0.179731 -0.339956 -0.261889 -0.211073 -0.004054 0.574138 0.184738 -0.209865 -0.587254 -0.249418 -0.483024 0.229080 0.011579 -0.474619 0.082959 -0.380084 -0.070549 0.433079 0.319550 0.679457 0.299435 -0.189298 0.283138 -0.236550 -0.099345 -0.418264 -0.002134 -0.056035 
； -0.209325 -0.319513 0.042172 -0.005472 0.155288 0.214106 -0.108015 0.090273 -0.290719 -0.288760 0.340777 -0.044025 0.010325 -0.330007 -0.202031 0.439804 0.023455 -0.209866 0.335092 0.649407 0.165016 0.574318 0.050762 0.161220 0.143118 -0.082549 0.458940 0.073275 0.097087 0.086590 0.098468 -0.212092 -0.201353 -0.132191 0.318325 0.211259 -0.078418 -0.135041 0.231709 -0.526144 -0.219995 0.560038 -0.051678 0.524073 0.365586 0.327204 0.351582 0.073078 0.161818 0.304489 
目 0.308393 -0.422782 -0.242594 0.171942 0.043053 -0.024607 0.465356 -0.073496 -0.195697 -0.407145 0.292128 0.403751 -0.284545 -0.332387 0.155524 0.516283 0.383886 -0.102295 -0.573546 0.211667 -0.063386 -0.214611 0.207233 -0.186801 -0.385958 -0.238148 0.373137 0.296406 0.082264 -0.255481 -0.130123 -0.053503 -0.577303 0.045202 0.155226 0.452493 0.527111 -0.074489 0.177215 -0.113576 0.021245 0.597980 -0.619039 -0.241338 -0.173144 -0.095542 0.427051 0.186821 0.041779 0.336740 
已 -0.058153 -0.528894 -0.482261 0.261623 0.229289 0.189286 0.170844 -0.601044 -0.075111 -0.047521 0.348051 -0.242533 -0.132873 -0.121707 -0.008118 0.091308 0.400053 -0.636203 0.203909 0.346004 -0.185243 0.054401 0.379791 -0.022659 0.076521 -0.221380 0.385467 -0.254043 0.358257 -0.185361 0.112570 -0.248845 0.084357 0.329858 0.050163 0.396738 0.154099 -0.804516 0.107589 -0.366051 0.161815 -0.090287 -0.312942 -0.087549 -0.402950 0.324314 -0.171116 0.597142 0.631910 -0.075015 
品 0.266964 -0.637294 0.431525 -0.005945 -0.469372 0.144387 0.296771 0.051361 -0.265573 -0.186371 0.248864 -0.564893 -0.631458 -0.414719 0.277157 0.470580 0.389995 -0.576000 -0.216798 0.121920 0.286262 -0.243567 -0.170166 0.525382 -0.068725 0.051296 -0.124992 0.372735 -0.466674 0.337289 -0.175648 0.276777 -0.955116 0.085258 -0.246362 -0.307748 0.485619 -0.189144 0.045636 -0.480467 -0.001179 0.240390 -0.067024 0.147322 0.179506 0.421507 -0.562908 -0.055224 0.245790 0.276205 
组 0.008327 -0.594121 0.173746 0.078343 0.016545 -0.393502 0.469850 -0.472219 -0.140531 0.422745 0.508760 0.161777 0.155557 -0.425530 -0.141747 0.130086 -0.009063 -0.479383 -0.012628 0.375938 0.283407 0.207226 0.118757 -1.011916 -0.170182 -0.325046 -0.021750 -0.056064 -0.312628 -0.017658 0.004656 -0.108335 0.233566 -0.222705 -0.134848 0.251332 0.405078 0.147871 0.510343 0.307482 0.621894 0.262508 -0.341440 -0.188733 0.159462 0.268669 -0.025523 0.100078 0.091741 -0.353638 
比 -0.361218 0.130594 -0.008212 0.130682 0.173284 -0.230192 0.087252 -0.615343 -0.258579 0.372118 -0.407057 0.095756 0.243800 -0.248050 -0.194881 0.718571 0.399223 -0.030022 -0.332605 0.350215 0.173462 0.266131 0.489250 0.225130 0.051379 -0.023844 -0.018964 0.211236 -0.110271 -0.123276 -0.386090 -0.308541 -0.664500 1.044152 0.429772 -0.148929 0.667718 0.069486 0.035704 -0.141263 0.474812 0.126332 0.324272 0.251402 0.469498 0.032603 -0.027884 0.633080 0.064150 0.178506 
立 0.352090 -0.377236 0.065408 0.167641 -0.004703 -0.311824 0.082240 -0.593406 -0.269913 0.562704 0.454078 0.616373 -0.508283 0.080444 -0.318515 0.995920 0.024291 0.067391 0.048513 -0.125031 -0.369879 -0.111793 0.200499 0.115942 -0.251894 -0.449236 -0.270229 0.452401 0.234803 -0.516805 0.117390 0.123111 -0.078988 -0.490469 -0.423639 -0.148430 -0.281341 0.060729 -0.005687 -0.159881 0.303065 0.131104 0.331097 0.145267 -0.120884 0.108421 0.069060 0.133424 0.088705 -0.486419 
强 -0.149012 -0.077735 0.373277 -0.232620 -0.461052 0.342095 0.200885 -0.379523 0.011081 0.210190 0.091751 0.421241 -0.700054 -0.076094 0.037164 0.764130 -0.226846 0.139663 0.525714 0.402464 0.004201 0.490588 -0.018096 -0.365291 0.289554 -0.242464 -0.609184 -0.510940 -0.192463 -0.469322 -0.054490 -0.327601 -0.116247 0.171379 -0.356918 0.036214 -0.149147 -0.003239 0.309401 0.292281 -0.177348 0.018905 -0.317432 -0.033396 0.276716 0.067116 0.481004 -0.267305 -0.429623 -0.419497 
正 0.109805 -0.296212 0.355681 -0.071648 0.281892 -0.038462 0.398234 -0.805505 0.237019 0.055782 0.347344 0.307391 0.099372 0.597620 -0.088561 -0.011848 0.174088 -0.146328 0.352300 0.023985 -0.173396 -0.171881 0.407120 -0.163144 0.054893 -0.280796 -0.103647 -0.131006 0.085736 -0.312467 -0.140268 0.039952 -0.175468 0.058016 -0.272705 0.313219 0.233294 -0.440804 0.628202 -0.325694 -0.036138 0.188548 0.170422 0.294086 0.067050 0.354427 0.043390 0.263409 0.299803 -0.329844 
基 0.255245 -0.573049 0.588094 0.565141 0.376886 -0.189986 0.131241 -0.555076 -0.318625 -0.251319 0.357438 0.064263 0.140055 -0.047856 -0.266005 0.790383 0.144961 0.218537 -1.053342 0.338656 -0.402509 0.369680 0.238294 -0.446534 0.082622 -0.275973 -0.519159 0.371317 -0.595463 -0.406230 -0.407022 -0.177407 -0.053710 0.093793 -0.022660 0.107193 -0.168111 -0.350029 0.111050 -0.077147 -0.192899 0.785455 0.126712 -0.064887 0.455230 -0.524280 0.649950 0.181684 0.049762 -0.245672 
意 0.028025 -0.156781 0.446654 -0.412403 0.012808 0.395234 0.301350 -0.289964 0.625190 0.138815 -0.088731 0.252958 -0.201999 0.235147 0.076484 0.334801 0.342491 0.146238 -0.011488 0.423350 -0.166369 0.312882 0.133911 -0.147105 -0.380476 -0.460373 0.118886 0.178465 -0.224897 0.280626 -0.115770 -0.057400 -0.601065 0.082994 -0.036371 0.522757 0.295331 -0.009515 0.135616 0.398327 -0.113195 0.632289 -0.624149 0.181638 0.701746 -0.105040 -0.443822 -0.146208 -0.172075 0.399025 
使 -0.109036 -0.244155 -0.031475 -0.133627 0.103279 0.500682 0.055581 -0.070561 -0.398390 0.118686 -0.005781 0.031823 0.213153 -0.298344 -0.231516 0.433577 0.218146 -0.203617 0.590535 0.039242 0.073648 0.736778 -0.405102 0.433244 -0.337833 0.251000 -0.019486 -0.280971 -0.077703 -0.088919 -0.625444 -0.212883 -0.262277 0.057126 -0.271674 0.188992 -0.366487 -0.129455 0.020930 0.001161 0.177503 0.365697 -0.075371 0.388981 0.105289 0.348547 0.193954 0.276533 0.164006 -0.192335 
委 0.135791 -1.100303 0.130289 -0.120434 -0.041020 -0.304257 0.293439 0.057672 -0.204430 -0.061998 0.403132 0.176372 0.221726 0.168461 -0.099371 0.392000 -0.010793 -0.474659 -0.115035 0.860286 0.228818 0.705421 -0.026185 -0.902782 -0.589916 -0.823442 -0.016438 0.698668 0.521889 -0.070320 0.094329 -0.111145 0.267166 -0.000609 -0.024640 0.029363 -0.042333 0.034551 1.249085 -0.257986 0.505987 -0.125748 0.371894 -0.541027 -0.018804 0.409105 -0.316303 -0.850553 0.361986 -0.347123 
些 0.070728 0.527331 0.117742 -0.086476 -0.482065 0.063090 0.490604 0.458974 -0.019112 0.041630 0.740151 -0.106266 -0.416433 0.184547 -0.186985 0.309338 0.364690 -0.212092 0.320778 0.355059 -0.353938 0.121574 0.049154 0.153655 -0.122923 0.094138 -0.937442 -0.137536 0.125937 -0.173963 -0.387731 -0.006571 -0.340069 0.101140 0.099965 0.212758 -0.104654 -0.176884 -0.434033 0.036836 0.156377 0.150218 -0.498792 0.204020 0.351537 0.538942 -0.055856 -0.011273 0.332848 0.084437 
通 -0.304727 -0.471941 1.062027 -0.311449 -0.112760 -0.229969 0.009752 -0.328641 -0.266423 0.218260 0.133458 0.078324 0.029538 -0.116017 -0.105229 0.276324 -0.314169 0.016258 0.128482 -0.309714 -0.072806 0.118992 -0.204797 -0.206196 -0.453294 -0.005888 -0.307401 -0.267780 0.299211 -0.091466 -0.027391 -0.232540 0.073057 0.683010 -0.091244 0.039103 0.589925 -0.167591 0.271399 0.001742 0.290180 0.171616 0.304841 0.280532 -0.313689 0.375594 0.351277 0.357520 0.119184 -0.422122 
农 0.556949 -0.597872 0.177006 0.282555 0.329784 -0.104244 0.282752 0.082707 -0.548164 -0.250897 0.198733 -0.118775 0.063945 0.023092 -0.172974 0.791953 0.021240 -0.530656 0.396711 -0.128480 0.119356 0.328425 -0.912308 0.031963 -0.188672 0.056177 -0.584570 -0.260132 -0.371900 -0.478032 0.045569 0.469683 0.382308 0.502207 -0.003614 0.144265 -0.126339 -0.198589 0.558503 -0.268830 0.069684 0.454312 -0.122080 -0.107763 0.622161 -0.431804 0.342402 0.115120 0.397891 0.204193 
第 -0.357102 -0.410046 0.184226 0.005599 0.691100 -0.172275 0.390362 0.172882 -0.605198 0.543004 0.140934 0.026350 -0.669377 -0.292042 0.124792 0.034377 0.147504 -0.400474 -0.444638 0.089442 -0.492887 0.205030 -0.590286 -0.187232 0.518900 -0.533359 -0.181583 0.447146 0.517456 -0.006144 0.055638 -0.450916 -0.071413 0.246269 0.225659 0.488477 0.215147 0.057791 0.603651 -0.314164 0.346496 -0.102885 0.201529 0.164345 0.333042 0.052959 0.194362 0.351558 0.663884 -0.779475 
水 0.471147 -0.101544 0.330562 -0.018710 -0.112576 -0.437158 -0.036612 -0.178556 -0.227079 -0.572014 0.025849 -0.926913 -0.248029 0.149166 -0.085847 0.475626 0.843828 -0.085098 0.120970 0.439433 0.063503 0.384634 -0.566593 0.278011 0.059861 -0.226170 0.343198 -0.221942 -0.476016 0.187096 0.266036 0.140428 0.061281 0.146219 0.553966 0.203278 -0.080953 -0.128980 0.057381 -0.351131 0.179584 0.358681 0.254519 0.137472 0.315867 0.153747 0.006791 0.653199 -0.500469 -0.415248 
界 0.258357 0.412802 -0.360977 0.260512 -0.438705 0.363111 0.746046 -0.100627 -0.182608 0.414734 -0.026428 -0.426897 -0.649209 -0.086739 0.223802 0.335258 0.052270 0.094735 0.695863 0.367202 0.053234 0.391104 -0.138470 0.060829 -0.385483 -0.265784 -0.109880 1.197118 0.417880 -0.070158 0.034303 0.313001 -1.009747 0.511696 -0.323560 0.194832 0.535261 -0.089955 -0.208913 -0.629724 0.604981 -0.051771 0.216364 -0.248639 -0.297100 -0.147908 -0.010329 0.227787 0.309842 -0.409604 
— 0.165620 -0.784363 0.366771 0.744832 -0.019973 0.759595 -0.096381 -0.019316 -0.562443 0.213409 0.319648 0.270858 0.190448 0.019605 0.405079 0.412397 -0.271793 -0.195503 0.306083 -0.036529 0.107858 0.799456 -0.299049 -0.180076 -0.108543 -0.196070 0.115995 0.684318 0.306227 -0.059689 0.142009 -0.737604 -0.103779 -0.321224 0.242953 0.083887 0.254911 0.433933 -0.030599 -0.361289 -0.239846 0.253550 -0.488529 0.321831 -0.001559 -0.127549 -0.167779 0.991686 -0.346320 0.412967 
术 0.158206 -0.307122 0.528706 -0.091809 -0.603216 0.109173 1.039255 -0.366605 -0.796412 -0.166198 0.677913 -0.504896 -0.394967 -0.241952 0.558086 0.361132 0.217846 -0.042536 0.345864 -0.414481 0.502153 0.419132 -0.226415 -0.151293 -0.025186 0.319067 -0.062167 0.671127 -0.099995 0.401797 -0.017730 0.015814 -0.499925 0.206453 0.290966 0.038568 -0.074095 -0.252321 -0.291753 -0.291076 -0.038317 -0.434958 -0.025865 -0.311952 -0.262460 0.588973 -0.235507 -0.044369 -0.146116 -0.457236 
西 0.203102 -0.216255 0.322212 0.089502 -0.410131 -0.129142 -0.204703 -0.358822 -0.532935 -0.098721 -0.322677 -0.266333 -0.566106 0.185521 0.376556 -0.002635 0.102603 0.042505 0.530369 0.039089 -0.043538 0.707059 -0.354518 0.053024 -0.373757 -0.512537 -0.354629 0.188854 0.009861 -0.550117 -0.246083 -0.335610 0.155461 0.444846 0.743633 -0.308945 -0.060424 0.229781 -0.343037 0.237131 0.977331 0.349487 0.104035 0.546189 0.346689 -0.022231 -0.059195 0.227112 0.429156 -0.320773 
三 -0.083113 -0.162095 0.447046 0.016761 0.264182 -0.189173 0.493450 0.292466 -0.429448 -0.067711 -0.064499 0.231765 -0.590596 0.121459 0.066291 0.384324 0.306133 -0.108630 0.085601 0.101005 -0.225873 -0.255070 -0.179668 -0.367065 0.646132 -0.167221 -0.272112 0.111498 -0.095590 -0.258815 0.235198 -0.465142 0.041020 -0.109815 0.387173 0.149539 0.195097 -0.182235 0.543234 0.079026 0.625558 0.005564 0.376942 0.526154 0.414969 0.301003 0.165394 0.150419 0.293934 -0.367423 
记 -0.218265 -0.169341 0.511183 -0.031901 0.396697 -0.595530 -0.485122 -0.601830 -0.373048 -0.397654 -0.235662 0.146157 0.598659 0.817984 -0.459320 -0.079487 0.167715 -0.729001 0.502109 0.365938 0.406838 0.439463 -0.529449 -0.194666 -0.988811 -0.477817 -0.459228 1.053735 0.527527 0.192500 -0.158001 -0.409778 -0.663155 -0.091249 -0.077663 0.469514 0.669701 0.164140 0.043656 0.188443 0.231319 -0.483645 -0.330133 1.041874 0.214562 -0.267271 -0.037238 0.495101 0.611831 -0.448738 
由 0.228132 -0.544660 0.412118 -0.081836 0.109040 -0.027280 0.157153 0.156710 -0.082334 0.246289 0.056868 0.546584 0.225728 -0.232871 -0.325138 0.338066 0.227675 -0.155728 0.319099 0.409408 -0.148189 0.322524 -0.056719 0.015258 -0.221827 0.119334 -0.113401 -0.131077 0.188376 -0.655211 -0.090276 -0.627085 -0.287408 0.010253 -0.012446 -0.050511 -0.051861 0.143510 0.148515 -0.154502 0.583193 0.063472 -0.322185 0.177272 -0.286853 0.247972 0.173590 0.208928 0.316673 -0.106131 
并 -0.035726 -0.627000 -0.341863 0.091701 0.266134 0.324423 0.041033 -0.634083 -0.081188 -0.185013 0.390500 -0.051639 -0.386202 0.161477 -0.361371 0.194816 0.195113 -0.215866 0.062758 0.245122 0.198596 0.290508 0.157494 -0.061254 -0.033020 -0.140098 0.306654 0.017007 0.388214 0.091209 -0.154368 -0.071024 -0.244667 -0.050224 -0.030702 0.278028 -0.035843 -0.283769 0.444126 -0.020329 -0.153361 0.317902 -0.447860 0.446079 -0.121420 0.678668 0.142257 -0.098140 0.547662 0.277931 
此 0.294439 -0.460208 -0.137540 -0.576534 -0.420340 -0.172676 0.272898 0.002879 -0.029793 -0.294754 0.068007 0.482650 -0.502660 0.220115 -0.234770 0.238049 0.401159 0.099109 -0.284391 -0.399129 -0.154664 0.450930 0.106818 0.377487 -0.182751 -0.618196 -0.431957 0.339395 0.458520 0.093239 -0.777829 -0.319306 -0.531034 0.450144 -0.054975 -0.008659 0.077676 -0.061548 0.235757 -0.174868 -0.102462 0.190333 -0.493577 0.096864 0.084817 0.369641 0.071700 0.058328 0.282607 0.188076 
道 -0.178056 -0.398372 0.662744 0.377483 -0.341309 -0.469735 -0.233126 0.180454 0.055174 0.348755 0.099535 -0.070564 -0.550394 -0.108402 0.590750 0.193779 0.136239 0.221100 -0.291868 0.003461 -0.044189 0.395501 0.345490 -0.127808 -0.851260 -0.689236 0.006480 -0.047754 -0.045734 -0.222628 0.046803 -0.212835 -0.298362 -0.103015 0.040168 0.461894 0.308799 -0.282041 -0.579547 -0.311745 0.316589 0.043384 -0.209704 0.464207 0.393624 0.199393 0.246401 0.673370 -0.329573 0.267390 
活 0.221769 -0.078544 0.096457 -0.057914 0.057433 0.045023 -0.078649 -0.474188 -0.136291 0.095394 0.276491 -0.183921 -0.451015 -0.498406 0.097276 0.259571 0.287204 0.108480 -0.439809 0.366482 -0.007320 1.050393 -0.012967 -0.482313 -0.375237 0.378678 -0.461088 0.420940 -0.194676 0.247194 0.305461 0.264224 -0.325518 -0.272766 -0.353711 0.257772 -0.325206 -0.342340 0.583152 -0.039578 -0.123425 0.089271 -0.236838 0.255511 0.228954 0.247567 -0.386636 0.733182 0.053769 0.369209 
技 0.350050 -0.314334 0.840942 0.223942 -0.000273 -0.000165 0.691670 -0.673193 -0.446828 -0.042872 0.456428 -0.387294 -0.443434 -0.047498 0.347075 0.387640 -0.075588 -0.546808 0.042356 -0.332101 0.428202 0.506736 -0.495773 -0.036335 0.094491 0.501193 -0.098071 0.119483 -0.247946 0.115625 -0.198257 0.439476 -0.110157 0.219075 0.212685 0.161193 0.209851 -0.168780 0.064671 -0.269630 0.401667 0.315010 0.042068 -0.646045 0.053036 0.435798 0.156794 0.060637 -0.564722 -0.217098 
决 -0.168864 -0.020258 -0.503694 0.042528 0.421853 -0.545139 0.112350 -0.297942 0.169766 0.394957 0.171131 -0.043312 -0.151276 0.002684 -0.235984 0.462653 -0.075958 0.013643 0.171172 0.562486 -0.008914 0.251299 0.466919 -0.743488 -0.072087 -0.235078 -0.387282 -0.207157 -0.194555 -0.886270 -0.226896 -0.042588 -0.652158 0.105844 -0.164573 0.684996 0.384921 0.074416 -0.115899 0.128464 -0.030115 0.371268 -0.030199 0.447022 0.043617 0.185018 0.489211 0.304313 0.302612 -0.583386 
论 -0.867865 -0.670853 0.399070 -0.393495 0.122206 -0.110918 0.340560 -0.318860 0.192537 -0.095462 0.313620 -0.414207 -0.158657 0.278438 -0.132734 0.339282 0.532607 0.689254 0.503436 -0.049527 0.484932 0.415655 0.513026 -0.450458 0.016859 -0.139866 0.113956 0.416880 -0.231029 -0.384235 -0.222233 0.377072 -0.720268 -0.000239 0.230854 0.494950 0.614072 0.467852 -0.259952 -0.337582 0.503831 -0.019313 -0.273059 0.281979 0.468657 0.703988 -0.384944 -0.070295 -0.142777 -0.853135 
海 0.434881 -0.211870 0.056579 0.088950 -0.245184 -0.154469 0.208829 0.006686 -0.150811 -0.281047 -0.126854 0.253330 -0.627698 -0.129679 0.161234 -0.085986 0.295022 0.116399 0.669976 0.154777 -0.178781 0.164508 -0.622873 0.224260 -0.736792 -0.796252 0.168484 -0.103278 -0.204715 -0.002919 -0.189641 -0.434026 -0.057008 0.263960 0.642913 -0.211159 0.399442 -0.062650 0.008878 0.181131 0.483476 0.477706 0.043414 -0.183155 -0.002068 -0.020289 0.177292 0.403077 0.145017 -0.262773 
议 -0.737000 -0.601887 -0.429837 -0.006851 0.061611 -0.256593 0.291933 0.076620 0.160784 -0.273746 0.316188 0.224432 -0.276828 0.197322 -0.278400 0.758052 0.103980 0.360447 -0.215533 -0.053516 -0.217038 0.454098 0.287744 -0.642924 -0.260891 -1.040544 0.306407 0.345130 -0.370954 0.159821 -0.738909 0.048479 -0.674315 0.369796 -0.480439 0.422934 0.447976 0.000980 0.460246 -0.149196 0.239976 0.064530 0.795479 -0.044036 0.153169 0.411324 -0.229332 -0.073430 0.555112 -0.474376 
