2844 50
</s> 0.008005 0.008839 -0.007661 -0.006556 0.002733 0.006042 0.001882 0.000423 -0.007207 0.004437 -0.008713 0.002499 -0.001503 -0.001914 -0.006631 -0.003764 0.005159 0.006051 0.005938 0.003195 0.003090 -0.007605 -0.008192 0.009939 0.007603 0.006180 -0.001208 0.008031 -0.000990 0.001469 -0.000298 -0.005966 0.002625 -0.002675 -0.007651 0.009508 0.008759 -0.002190 -0.000452 0.001018 -0.007275 -0.008014 0.009109 0.000126 -0.005165 -0.006084 -0.006153 0.003394 0.000403 0.002662 
， -0.067324 -0.819310 -0.147287 0.205051 0.282770 0.332374 0.128344 -0.236299 0.465201 0.314303 0.355181 0.585037 0.074334 -0.142541 -0.087916 0.743550 0.556581 -0.104019 0.691223 0.516873 0.164298 -0.260122 0.039805 -0.775752 -0.513758 -0.353692 -0.101320 -0.060502 -0.581297 -0.432382 0.034272 -0.111811 0.046706 -0.218969 -0.538617 0.328002 -0.006762 0.157378 0.579783 -0.298481 -0.179836 0.085217 0.380198 -0.370972 0.090181 0.675711 -0.425708 -0.392986 0.132756 -0.744546 
的 0.455204 -0.242305 -0.105462 0.169894 -0.073965 -0.320454 0.671151 0.036317 -0.145306 -0.194317 0.790806 -0.061688 -0.475209 -0.624247 0.000668 1.120735 0.160844 -0.584234 0.003214 0.303638 -0.157636 -0.469632 0.086045 -0.645743 -0.334157 -0.732233 -0.173312 -0.018567 -0.097598 -0.552319 -0.123248 0.128146 -0.066126 -0.519843 0.005368 0.792121 -0.419157 0.292545 -0.119299 -0.110878 -0.194421 0.030305 0.404606 0.290586 -0.063560 0.622571 -0.195469 -0.054963 -0.643325 -0.424020 
。 0.211873 -0.047535 -0.019885 0.072080 -0.042375 0.359602 0.266660 -0.141265 -0.582660 0.116161 0.169264 0.452842 0.220913 -0.651273 0.155771 0.417657 0.202150 -0.252875 0.801647 0.168995 -0.249008 -0.058435 -0.038245 -0.400958 -0.371574 -0.502445 -0.261408 -0.178813 -0.375740 -0.224323 -0.156072 -0.104579 0.112825 -0.572868 -0.816277 0.074510 0.346369 -0.090166 0.398137 -0.234531 -0.660559 0.113650 0.278844 0.533168 -0.270891 0.505669 0.260807 0.283462 -0.481372 -0.645066 
、 -0.033161 -0.456424 0.173461 0.074550 0.150642 0.217583 0.622847 -0.056191 -0.609656 -0.424529 -0.358730 -0.255987 0.055901 -0.137964 0.779020 0.230407 0.117544 -0.003715 1.266212 -0.014232 -0.025680 -0.402062 0.705774 -0.776935 -0.088013 -0.023576 -0.228953 0.109275 -0.484712 -0.226038 0.293846 -0.367242 -0.615283 0.387607 -0.723520 0.149197 0.414116 -0.864146 -0.145441 -0.261617 -0.083748 -0.521568 -1.389390 0.231044 0.538858 -0.068839 -0.748395 -0.155964 -0.243739 0.010138 
和 -0.614315 -0.575562 0.865049 0.327889 0.218298 -0.316546 0.747432 -0.396272 -1.191489 -0.205226 -0.666701 0.126351 1.045249 0.362828 0.559266 0.016664 0.419288 -0.077349 1.655356 -0.090112 -0.295451 -0.259524 0.019159 -0.910161 -0.044903 0.531799 -0.007222 0.465320 -0.285766 -1.242029 -0.311104 -0.098981 -0.405325 0.183389 0.092148 -0.282038 -0.161932 -0.520577 0.691178 -0.089542 -0.038299 -0.221907 -0.436313 -0.251954 0.137800 0.302624 0.442390 -0.728335 -0.382721 -0.060205 
了 -0.527526 -0.278846 -0.395789 -0.887837 -0.459980 -0.170476 0.547510 -0.604586 -0.641667 -0.404879 0.082252 -0.456651 0.224448 0.063851 -0.418819 0.045943 0.242391 -0.058217 0.650988 0.338014 -0.802474 0.157424 -0.316085 -0.662730 0.249077 -0.097359 -0.293117 -0.327307 0.148122 0.260585 0.083186 -0.738269 -0.432111 0.709570 0.327096 0.535155 -0.276702 -0.030735 1.272568 0.028838 0.075022 -0.311704 -0.402718 0.570035 0.708288 0.578044 -0.235628 -0.479762 -0.044185 -0.409077 
在 -0.561744 -0.454403 0.365738 0.047314 0.453044 0.347901 1.035521 0.263833 -0.084777 -0.059937 0.788537 0.258446 0.091328 -0.235846 0.489951 0.483054 -0.691153 -0.140504 0.444897 -0.176279 -0.042970 0.504319 0.452332 -0.280784 0.472038 -0.421798 0.378426 0.411243 -0.059640 -0.195179 0.297715 0.495371 -0.109278 0.189918 0.150518 0.440357 -0.799477 0.397943 0.400472 0.165260 -0.300138 -0.360718 0.062330 0.014349 -0.495092 -0.031049 -0.424486 -0.043366 -0.300601 -0.038394 
” 0.163224 -0.210454 0.397804 0.432534 -0.104374 0.055369 -0.206691 0.208266 -0.662231 0.429928 0.882412 0.590465 -0.429871 -0.715226 -0.343411 0.687728 0.083996 0.039100 0.719761 0.156601 -0.126598 -0.231789 0.485640 -0.840948 -0.672172 -0.445065 -0.272780 -0.410943 -0.240688 -0.027401 -0.488741 0.203223 0.113281 0.008271 0.022059 0.834580 -0.375580 0.362496 0.332326 -0.238274 -0.483629 -0.763053 -0.482700 0.361839 0.479364 -0.500120 0.311548 -0.251776 -0.103943 0.214364 
“ 0.596772 -0.126466 -0.056003 0.493440 0.405110 0.118123 0.625891 0.278860 0.080830 0.543702 0.625516 1.291009 0.344859 0.055620 -0.005331 0.793921 -0.018199 -0.550994 0.597268 0.516651 -0.072112 0.163255 0.148990 -0.217368 -0.560068 -0.758571 0.087416 -0.151926 0.008215 0.067105 -0.011453 0.338607 -0.634512 0.013066 0.134443 1.003079 0.322542 0.109663 0.262478 -0.421008 -0.164091 -0.424677 -0.023836 0.469144 0.362521 -0.128218 -0.223693 -0.587298 -0.563794 -0.470532 
是 -0.615982 -0.090325 -0.625456 -0.906614 0.915954 -0.020591 0.659552 0.062676 -0.257662 -0.591182 -0.063928 -0.171960 0.322465 -0.793903 -0.133510 0.309437 0.095279 0.171083 0.288495 -0.283280 -0.474350 -0.638349 0.760605 -0.257971 0.373598 0.084113 0.373909 0.069288 -0.483391 -0.421587 -0.471847 0.126745 0.172063 -0.246766 -0.493922 0.974890 0.209924 -0.060705 0.544977 -0.299561 -0.577680 0.102428 0.115792 -0.280270 0.468008 0.106497 -0.255835 -0.242973 -0.851203 -0.452356 
发展 -0.393332 -0.845044 0.191227 0.913198 0.451757 -0.679768 0.927019 -0.482615 -0.886775 -0.015738 -0.304601 0.375353 -0.171530 0.132689 0.202109 -0.252780 0.252621 0.412903 0.773680 0.203366 -0.583704 0.088326 0.624656 0.161286 0.544207 -0.044189 -0.235102 1.042085 -0.551323 -0.426359 -0.285736 -0.150352 -0.661898 -0.301337 -0.053537 0.207261 -0.124073 0.510736 0.376347 0.119381 0.239292 0.010611 0.173397 -0.302521 0.804983 0.368270 -0.475913 -0.927644 -0.506936 -0.010796 
要 -0.472845 0.190364 0.963060 0.557730 0.145699 -0.229068 0.974867 -0.245477 -0.481116 -0.088492 0.385043 -0.658411 -1.327393 0.228405 0.758835 -0.058280 0.793203 -0.087087 -0.603833 0.359390 0.182014 -0.076701 0.518349 -0.299744 -0.213555 -0.108777 0.332677 -0.206566 -0.342524 0.350868 -0.326573 0.071704 -0.360390 0.191273 0.810984 0.407780 0.529958 0.728515 0.711592 -0.129952 0.274757 -0.074487 -0.686154 -0.023889 -0.190002 0.258959 -0.857050 0.147723 -0.266706 -0.027412 
企业 0.510066 0.594241 0.871550 -0.023638 0.553719 0.468411 1.368307 -0.789088 -1.082179 -0.766688 -0.469882 0.047874 0.057974 -0.070732 0.136362 0.386471 -0.026771 -0.342629 0.078515 0.172134 -0.050012 -0.253760 0.140701 -0.213008 0.133119 0.541081 -0.184410 0.506572 0.266175 0.603139 0.542678 -0.440669 0.562315 0.994090 -0.509513 0.824196 0.848276 0.245422 0.245608 0.094621 -0.660028 0.528689 0.357383 -0.525845 -0.693311 -0.519540 0.100592 -0.452340 -0.649605 -0.645452 
为 0.169071 -0.147527 0.706084 -0.117396 0.464032 0.249955 -0.131137 -0.960156 -0.229751 -0.465949 0.541259 -1.007273 0.286145 0.158945 -0.045355 0.979625 0.500081 -1.099970 1.435781 0.222417 0.167871 0.465740 0.570843 0.028661 -0.222935 -0.196988 0.101306 0.428743 0.268680 0.140975 -0.313827 1.007754 0.496989 0.786949 -0.138265 0.298818 -0.589232 0.096350 0.436791 -0.476797 -0.072931 0.476988 -0.326985 0.126078 0.304234 -0.217229 -0.503015 1.089321 0.003852 -0.319649 
对 -0.848947 0.054469 0.051031 0.136373 -0.719598 0.311355 1.160471 -0.825837 0.374478 0.043594 -0.576674 0.428610 -0.035321 0.633248 0.563110 0.377273 0.369098 -0.012428 0.763677 0.513973 -0.147482 0.057080 0.313683 -1.089562 0.151621 0.587646 0.478366 -0.246952 -0.174416 -0.552929 -0.501146 0.394389 0.533848 0.346612 0.554823 0.293080 -0.440270 0.573039 0.633718 -0.206034 -0.804801 -0.171062 -0.202698 -0.018186 -0.281414 -0.748675 -0.161261 -0.364802 0.645284 -0.982282 
一 -0.336087 -0.971885 0.834214 0.129673 0.897571 0.145170 0.603284 0.025592 0.339106 1.346823 -0.053989 1.435846 -0.094519 -0.831810 -0.203695 0.600819 0.276967 -0.562512 0.266094 0.614872 -0.386103 -0.038877 0.263261 -0.691695 0.188381 -0.675819 -0.261615 -0.058203 0.091318 0.391241 -0.103343 -0.218827 0.289582 -0.676721 0.661714 0.676321 0.266831 0.568172 0.498638 -0.079541 -0.515742 0.558704 -1.272781 -0.414095 0.415811 -0.175373 0.240459 -0.830555 0.382197 -0.234811 
中 0.459181 -0.755538 0.718918 0.584222 -0.143012 -0.258335 0.771736 -0.238921 -0.222441 0.245782 -0.237992 0.784743 -0.040794 -0.672187 -0.105446 -0.115414 0.071333 -0.329804 0.547397 -0.244899 0.332558 -0.456459 0.141275 -0.644384 -0.313539 -0.510585 -0.667426 0.317169 0.148311 -0.062980 0.005493 -0.114022 0.620683 0.375460 -0.486858 0.255419 -0.374225 0.918426 0.117435 -1.325850 0.054151 -0.352157 -0.002511 0.290093 0.151261 0.131004 0.400204 0.495050 0.242274 -0.004015 
上 0.171357 -0.472246 -0.255831 0.145105 0.443372 -0.522421 0.875343 -0.197877 -0.031441 0.171584 -0.451788 0.340048 0.721070 -0.581275 -0.351444 0.419868 -0.081362 0.426446 0.168930 -0.377106 -0.231496 0.097399 -0.253735 -0.253529 0.446568 -0.752951 0.327170 1.609273 -0.764494 -0.255639 -0.185920 -0.735165 -0.371187 -0.022866 0.167561 -0.101814 0.209138 0.739630 0.136225 -0.435159 0.187575 -0.083238 -0.175771 0.388819 -0.409689 0.088870 -0.230188 -0.446777 -0.310882 -0.301419 
有 0.128821 -1.319357 0.014647 0.232456 0.143129 0.401097 0.360548 0.317458 -0.078405 0.141514 -0.495952 -0.769189 -0.353082 -0.945176 0.422288 0.838059 0.191145 -0.066588 0.568653 0.193256 -0.320086 -0.315359 -0.562349 -0.802400 0.560712 -0.092312 1.030844 -0.137400 -0.241358 0.391536 -0.547685 0.237503 0.720130 0.720173 0.682673 0.417395 -0.524588 -0.041519 -0.139292 0.536696 -0.513070 0.698175 1.439720 0.680414 0.084749 0.179940 -0.526782 -0.362037 -0.276639 0.158774 
工作 -0.433412 -0.142650 0.900771 -0.133053 1.167191 -0.484886 0.877209 -0.689285 -0.377073 0.090058 -0.212028 -0.466147 0.097836 -0.113684 -0.496928 -0.244129 0.730804 0.945091 -0.200810 0.780318 -0.198255 0.702301 -0.332702 -1.018188 -0.858886 -0.054458 -0.440060 0.055948 0.039533 1.271051 -0.239081 0.176704 -0.250726 1.464377 -0.228194 -0.443790 0.093816 0.351211 -0.111711 0.382921 -1.377038 0.136800 -0.482560 -0.167920 -0.373671 0.268624 -0.172757 0.099287 -1.167195 -0.014710 
到 0.597500 0.171737 0.750839 -0.258338 -0.495145 0.276440 0.211808 1.171059 -0.758357 -0.338418 -0.020743 1.153019 0.849649 -0.084704 -0.018500 -0.184265 0.866505 -0.813496 0.058893 -0.758183 -0.065271 0.874231 0.834095 -1.088541 -0.735686 0.423653 -0.103058 -0.295931 -0.683759 -0.004337 -0.354716 -0.314411 -0.376601 0.685048 0.497549 0.793924 -0.247991 0.126385 0.642470 -0.340530 -0.057103 1.478230 0.139785 0.609778 0.399102 -0.101981 -0.275754 -0.347918 -0.261296 -0.054574 
经济 -0.429023 -1.028495 0.036640 -0.110333 -0.008732 0.420303 1.280783 -0.219612 -1.578593 0.552335 -0.873327 0.126147 0.666058 -0.515704 -0.520809 0.292794 -0.294505 -0.539813 0.050468 -0.031800 0.228997 -0.220571 0.045885 -0.772061 0.083556 -0.156096 -0.066394 0.563972 0.585779 0.035185 0.162273 0.002627 -0.820097 -0.160384 -0.055640 -0.124664 0.724126 -0.528988 0.781129 -0.966013 0.190821 -0.603463 -0.446392 0.564140 -0.457762 -0.341123 -0.401887 -1.445185 0.302438 -0.180842 
不 0.102141 -0.132475 -0.505950 0.909228 -0.146783 0.323760 0.352997 0.550393 -0.236776 0.650629 -0.743120 -0.816622 -0.239039 -0.623804 -0.620593 1.916358 0.173225 0.457834 0.990192 -0.538361 -0.930195 -0.433914 -0.247979 -0.582519 -0.808135 -0.142450 -0.334844 -0.060823 -0.257659 0.335662 0.036806 0.936315 -0.682077 -0.664354 -0.267597 0.442635 0.542972 -0.201919 0.796586 -0.125680 0.331344 -0.013506 -0.095075 0.668935 0.703492 0.303791 -0.919711 0.505222 0.314770 0.035907 
与 -0.419048 0.441666 -0.169272 0.620984 -0.161412 0.082960 0.716791 -0.380320 0.154824 -0.027271 -0.471158 0.087601 0.414448 0.199592 -0.222997 0.136245 0.198319 0.271896 0.916563 -0.788508 -0.170957 -0.776670 0.231369 -1.708421 0.235960 -0.255072 0.856423 0.044104 -0.468248 -0.387759 -0.196481 -0.057279 -0.103257 0.464960 0.759607 0.582765 0.810385 0.195414 0.487682 0.379905 -0.254845 0.153046 -0.408471 0.213972 0.073024 -0.053604 -0.583288 -0.480504 -0.978372 0.256291 
大 0.067993 -1.028216 0.259918 0.598974 0.425901 0.144599 0.747410 -0.579867 -0.060284 0.072746 0.729303 -0.317288 0.239815 -0.708248 0.419129 0.837388 0.012817 -1.157166 0.661015 0.398677 0.800187 0.109937 0.574077 -1.421632 1.195347 -1.228518 -0.041541 -0.047181 0.770467 0.097112 0.586875 -0.613498 -0.483869 -0.573301 0.064557 -0.510028 -0.058649 0.182561 0.707580 0.491174 -0.334641 0.847640 0.983669 0.555517 0.196810 0.429934 0.203483 0.785691 -0.292705 0.042415 
： -0.099855 -0.894716 0.109723 0.473294 0.306834 1.072280 0.460593 -0.639811 -0.238991 -0.220923 0.009506 -0.059847 -0.225321 -1.081770 0.257932 0.246259 -0.720714 -1.189340 -0.378119 0.659491 -0.670369 0.561568 1.082134 -1.067187 -0.166271 -0.054368 -0.195648 -0.715537 0.155318 -0.806789 -0.265060 0.551425 -1.034357 0.595865 0.200534 1.165136 0.545275 -0.676938 0.696829 -0.791260 0.067445 0.272975 -0.384410 -0.492579 0.216727 -1.246642 -1.071667 0.103958 -1.087346 -1.087813 
这 -0.212895 -0.886260 1.248317 -0.647379 0.376734 0.600770 0.012532 -0.042398 0.771784 0.481575 1.286896 0.364888 0.485986 -0.405450 -0.493398 0.224165 0.327445 -0.479457 0.119758 1.057908 0.443356 0.199900 0.197225 -0.446653 -0.251218 0.369060 0.510412 0.271332 -1.287367 0.534579 -0.710326 -0.019539 -0.207604 -0.206723 -0.014932 0.191010 0.531461 0.066482 0.558666 -0.197252 -1.320960 0.185434 -0.335837 -0.376551 0.552572 0.489761 0.389473 -0.458467 -0.067179 -1.052763 
等 -0.618799 -1.299518 1.123156 -0.246997 -0.242871 0.232672 -0.783767 0.472449 -0.724784 -0.106028 0.011802 -0.104410 0.259048 0.809101 -0.041537 0.563236 1.102032 0.366623 1.162621 -0.541928 -0.166408 0.455804 -0.385510 -0.125479 0.318793 -0.451779 -0.142918 0.575330 0.232498 0.456396 0.024365 -0.538867 -0.127670 -0.299899 -0.384888 -0.098642 0.038516 -0.876848 0.210045 -0.656383 -0.459055 0.002119 -0.814011 0.986412 -0.274519 0.500090 -0.918216 -0.138170 -0.154547 0.178751 
； -0.635227 -0.198077 -0.630647 -0.309225 0.911391 0.010602 0.475426 0.654707 -0.224962 -0.331272 1.434788 0.348741 0.398770 -0.227738 -0.258642 0.456620 0.031421 -0.120620 1.376558 0.144667 -1.387051 -0.568489 0.642648 -0.811356 -0.747783 0.377339 -1.020193 -0.754625 -0.876586 -0.265273 0.475881 -0.610649 0.016260 0.662675 -0.309595 -0.486215 0.851289 0.791491 0.072613 0.156742 0.287709 0.197494 -0.115500 1.455119 0.341410 0.648631 -0.589746 0.332750 -0.018730 -0.207246 
建设 0.011001 -0.656893 0.223882 0.033322 0.866669 0.233258 0.750105 0.198584 -0.840717 -0.133742 -0.440981 -0.969595 0.144865 0.078131 0.620037 0.082484 -0.727458 0.288661 1.271832 1.561333 -0.386421 -0.248167 -0.398404 -0.694622 0.334811 0.053965 0.337859 0.865085 0.216537 0.284697 0.321342 -0.083945 -0.489931 0.412143 -0.416288 -0.575182 -0.708601 0.544004 0.144244 -0.942714 0.833756 0.122544 -0.003243 -0.202235 0.354378 0.206861 0.080569 -0.152538 -1.270798 -0.036878 
就 -0.497904 -0.569421 0.625938 -0.224284 -0.125303 -0.117341 0.184334 0.637055 0.368251 -0.073647 1.038410 0.430289 -0.390121 -1.184633 0.260817 0.235529 1.084022 -0.943421 0.282505 0.201832 0.328376 -0.052923 0.563848 -0.611242 -0.747716 0.307440 -0.336176 0.803365 0.269548 -0.523499 0.203072 0.324372 0.799822 -0.404813 -0.231314 0.058411 -0.515940 0.163584 0.997234 -0.052085 -0.256561 0.141824 -1.032746 0.288614 -0.123252 0.684742 -0.772599 -0.480642 -0.012716 0.573472 
地 -0.789345 0.499445 -0.262084 0.048061 -0.601565 -0.694912 1.040222 -0.188595 0.604402 1.409007 -0.016706 -0.843674 0.369676 -1.599816 0.194552 0.209363 0.279785 0.302795 0.562091 -0.425395 -0.249484 0.064594 -0.176317 -0.132690 0.128589 -0.985407 -0.259003 0.180048 0.706770 0.699536 -0.323649 -1.329822 -0.253564 -0.105384 -0.194904 0.143470 -0.364682 -0.586897 0.921847 -0.592766 0.311722 1.224070 -0.653507 -1.155136 0.591235 1.033028 -0.452229 0.222261 -0.340091 -1.044479 
技术 -0.546302 -0.915477 -0.647102 0.226336 -0.201555 0.133224 0.812149 0.050625 -0.514234 1.037776 0.242422 -0.709346 0.065312 -0.131937 0.913542 0.978977 0.495396 -0.351157 0.413887 0.172402 -0.604033 0.728531 0.410292 -0.045543 -0.072601 0.059165 -0.309917 1.257173 -0.932470 0.294414 0.395832 0.249342 -0.246363 0.689115 0.017089 -0.881420 0.228982 -0.617719 -0.075248 -0.246915 -0.504791 0.397387 -0.284427 -0.316633 0.548185 -0.455756 -0.596128 0.123914 -0.160270 -0.586756 
也 -0.833069 -0.547449 0.222793 0.700239 0.058151 -0.711394 -0.067085 0.471366 -0.583425 1.191636 0.437445 -1.294751 -0.405173 -0.085308 -0.135220 0.197870 0.629357 -1.226675 -0.713816 0.841160 -0.460888 -0.535722 0.933884 -1.184939 -0.987045 -0.026239 0.162748 0.622713 0.494355 0.911218 -1.159664 0.473924 -0.340332 -0.035946 -0.553885 0.100948 0.118556 0.857026 -0.150435 -0.426394 0.186213 0.484903 -0.682706 1.223543 -0.218343 0.739184 -0.556007 0.012709 -0.582555 -1.296072 
（ 0.049080 -0.981143 0.435827 1.375508 0.743950 0.397378 1.002221 0.679770 -0.052286 -0.497405 0.025655 0.032707 0.600360 -0.049082 -0.383834 1.401813 -0.554065 -0.693924 1.724003 -1.005428 -0.175338 -1.276902 -0.778163 -0.422643 0.478386 0.209387 0.347378 -0.544621 -0.577099 1.386311 0.579114 0.446473 1.193420 0.319560 -0.900876 0.022675 0.267834 0.548589 0.548666 -0.047161 -0.496069 1.369842 -1.774753 1.147143 0.272366 0.018177 -0.498231 -0.405883 -0.571580 -0.985283 
） -0.778882 -0.723111 0.246249 0.141631 0.261412 1.527519 0.372224 0.117652 -0.315198 1.030262 -0.504241 1.025195 0.280373 -1.047656 1.092725 0.954467 0.255203 1.684518 0.139223 -0.678745 -0.478501 1.002622 0.712076 -0.746199 0.007295 0.953867 0.372109 0.583143 0.378194 -0.963837 0.486596 1.084282 0.353779 1.392887 -1.031296 0.909537 0.283022 -0.039502 0.043695 -0.015047 -0.003091 1.279080 -0.705778 0.700608 -0.024313 0.149685 -0.371855 -0.795862 -0.789141 -0.243929 
信息 -0.541296 -0.078073 0.309551 0.673515 -0.267853 0.065716 0.360436 -0.409582 0.476758 0.907849 0.213848 0.860808 -0.485086 0.591823 0.053645 0.471620 0.465672 -0.573174 -0.552888 -0.401518 -0.510659 0.290468 0.487673 -1.180639 0.092053 0.048686 -0.846297 0.647148 -0.535006 0.208457 1.308236 -0.111497 -0.265913 0.323367 -0.046951 0.023862 0.496153 0.215923 0.755762 -0.240022 -0.456238 -0.548699 0.382260 0.426540 -0.460646 0.445774 -0.203097 -0.503916 -0.887473 -0.500315 
从 0.089600 -1.005476 -0.628662 -0.495208 0.927990 -0.922329 1.597151 0.758464 -0.653758 -0.426499 -0.450041 0.414148 -0.828771 -0.096372 0.346631 0.044169 0.674680 -0.653677 1.080389 0.282187 0.423293 0.056679 0.117169 -0.042637 -0.099186 0.677992 -0.936840 0.713536 0.773118 -0.728886 -1.060104 0.587486 -0.286341 -0.205281 1.310989 0.277335 -0.807531 -0.116325 0.904300 0.202402 -0.172422 0.840287 -0.867020 -0.188863 0.254444 0.167545 -0.784886 0.271756 -0.307264 -0.281271 
人 0.127569 -0.257354 0.201324 0.824829 -0.957941 -0.772242 0.270711 0.230234 -0.933299 0.532542 0.420647 0.009979 0.568329 -0.560301 0.425254 0.064495 -0.296628 0.264251 0.042777 0.914760 -0.482776 0.138773 -0.971930 -0.878353 -0.239973 -0.599490 0.569854 -0.227293 1.408082 0.132577 -0.588805 -0.230397 0.158781 0.246871 -0.494760 0.354376 -0.001682 0.412731 0.932470 1.044479 0.201589 0.479371 -0.619524 -0.150857 -0.338317 -0.143789 -0.811681 0.005060 -0.551503 -0.060079 
我国 -1.096762 -0.311719 0.226057 -0.265309 0.341190 -0.227166 1.590086 0.046438 -0.839878 -0.455053 0.194349 0.030172 -0.095642 0.118551 -0.863615 -0.249039 -0.155588 -0.080230 0.253929 -0.238738 -0.676228 0.713080 0.086874 -0.934519 0.892619 0.092138 0.539813 -0.303842 0.765908 -0.198946 0.589545 0.222594 0.335528 0.419632 -0.024163 0.294143 -0.806963 -0.698504 1.020248 -1.070761 -0.405470 0.586538 -0.563538 -0.351315 0.415050 1.324995 -0.204893 0.052999 0.396160 -0.849266 
工程 -0.436544 -0.170575 1.467905 0.270031 -0.854862 0.579162 1.711520 0.797442 -0.752187 -0.402640 0.346912 -0.437455 -0.655556 -0.031078 0.989793 0.410623 0.118203 -0.725386 0.563346 0.795259 -0.023034 0.513223 -0.086781 -0.401612 0.065463 0.058268 -0.015948 -0.843465 -1.439697 -0.361808 0.095572 0.107771 0.235582 -0.633858 0.006454 -0.505061 -0.000408 0.901454 1.334557 0.460988 0.510379 0.647295 0.030375 0.347247 0.771390 0.517955 0.016739 0.095571 -1.000508 -0.895720 
- 0.566383 -1.544812 -0.516756 0.158428 0.989877 -0.051820 0.067925 0.108118 -0.481571 1.139895 0.359704 0.425742 -0.425278 -0.448359 0.865310 0.599429 0.395389 0.825858 0.768355 1.061511 -0.142288 -0.040043 -0.292091 -1.044250 0.524322 0.182741 0.627376 -0.759186 0.030704 -0.042917 -0.235933 -0.579302 0.147142 -0.230626 0.148704 1.538073 0.233040 -0.263163 1.083328 1.116891 0.115685 0.520125 -1.591163 -0.023003 -0.978809 1.407240 0.461673 1.642348 -1.113614 -0.172057 
已 -0.156252 -1.048070 1.110570 -0.849210 -0.488659 0.303816 0.113244 1.573942 -0.139415 -0.262705 -0.052555 0.151123 -0.443491 -0.811950 0.498096 1.117843 0.313481 -0.621605 0.718863 0.140278 -0.735563 0.375403 0.467786 0.256486 0.035822 -0.408025 0.853816 0.356465 0.119995 0.579253 0.533897 -0.135399 -0.357865 0.828095 -0.546835 0.465270 -0.556969 0.717023 0.300946 -0.777091 -0.359951 0.587983 0.601089 -0.269395 -0.982719 1.066552 -0.770311 0.143632 0.074052 -0.557128 
以 -1.016437 -0.245252 -0.137431 0.780727 -0.441653 0.368753 1.368768 0.142937 -0.957263 -0.951681 1.111724 0.243210 -0.261678 0.182303 -0.569332 1.110784 0.097832 0.199997 0.900353 0.605031 -0.564683 -0.991169 -0.411929 0.155898 -0.327243 0.529326 0.701971 0.663690 0.084511 0.084711 0.846970 0.626393 -0.090775 0.440640 0.715870 0.590710 -0.585737 -0.696873 0.175863 0.294320 -0.574636 0.819166 -0.804203 -0.383684 -0.021622 -0.668282 0.239208 0.123473 -0.135052 0.564514 
他 -0.546723 -0.259311 0.055677 0.283545 0.000956 -0.871444 0.015382 0.131692 -0.574572 0.039959 0.678569 0.638156 0.281230 -0.823874 -0.211347 1.192064 0.394585 -0.034303 0.170874 0.102518 -0.563673 -0.349768 -0.371150 -0.603709 0.324441 -0.185452 0.207289 0.141436 -0.946070 0.618402 -1.506763 0.164838 -0.667427 0.158688 -0.186724 -0.468736 -0.231093 -0.231377 0.470210 0.036412 -0.229269 0.539705 0.666802 -0.785554 -0.229486 0.007055 -0.749390 -0.127382 -0.144715 -0.098897 
将 0.420023 -0.560819 -0.242990 -0.182237 -0.220878 -0.446364 0.536459 0.121193 -0.866038 0.357766 0.323230 0.920385 -0.662629 -0.753459 0.187808 0.213364 0.847332 -0.414054 0.012325 1.123365 1.060431 -0.175562 1.291500 -0.026651 0.216639 -0.830896 -0.129844 0.299726 -0.063495 0.070612 -0.069450 0.102851 0.392486 0.538522 0.187525 0.452442 -0.166286 0.549821 0.418232 0.105413 0.371800 -0.853990 -0.741718 -0.129323 0.717794 0.098116 -1.167128 -0.598493 -0.492371 -0.974987 
一个 -0.220707 -1.159176 0.347541 -0.023211 0.113789 0.463170 0.683072 -0.514387 0.086143 0.187434 0.132621 -0.697778 -0.179450 -0.111942 -0.948311 0.651688 0.091515 -0.818494 0.867144 0.589826 -0.757162 0.299558 0.583170 -0.245237 -0.058844 -0.358064 0.255127 -0.223337 -0.219311 0.072121 0.514844 0.117929 -0.188436 1.013366 0.662939 1.567183 0.521934 0.034839 -0.670790 -0.018102 0.062076 1.255890 -0.027246 -0.131043 -0.381520 0.845116 -0.198047 -1.206195 0.225949 0.320248 
我们 -0.791345 -0.795691 0.792446 -0.441413 0.984299 -1.068845 1.574807 -0.193326 -0.499437 0.157574 0.597780 0.335754 0.088220 -0.496917 -0.622509 0.620200 0.221702 0.052596 -0.270514 0.207080 -0.088049 -0.238584 0.109148 0.089176 -0.356240 -0.461555 -0.365390 -0.105275 0.849761 -0.362768 -0.629270 -0.091634 0.532725 -0.738290 -0.467362 0.097165 0.431406 -0.433800 0.069404 -0.333824 -0.664243 0.092464 1.156925 -0.317087 -0.171628 0.312014 -0.169437 -0.168345 -0.521443 -0.924092 
使 -0.322666 -0.226376 0.122825 -0.476868 0.581284 -0.179653 0.431826 -0.111100 -0.640321 -0.344864 -0.077639 -0.623578 -0.480227 0.824518 -0.345170 1.425627 -0.451048 -0.440918 1.175248 -0.093616 0.069499 -0.767217 0.685878 -0.732001 0.231076 0.099582 0.023359 0.804152 0.766893 -0.229122 0.056515 -0.425054 -0.102517 0.560688 -0.013681 0.609236 -1.010964 -0.214239 0.951881 0.476610 -0.546191 0.865565 -0.355090 -0.097462 -0.243566 -0.639119 -0.073839 0.488639 -0.093321 -0.754323 
农业 -0.451062 -0.708176 0.236819 -0.144236 0.600495 0.072599 0.869540 -0.822474 -0.129061 -0.595129 -0.036365 -0.941250 0.475853 0.555344 -0.423715 0.474244 -0.508559 0.075468 -0.414673 0.636415 -0.739626 1.428077 0.662964 -0.406835 -0.270943 0.487492 0.062123 0.459617 -0.234238 -0.141401 -0.440798 -1.215298 -0.258331 -0.215168 -1.173079 -0.127352 -0.489660 0.182010 1.153539 -0.564725 -0.436143 0.258334 -1.260560 -0.084961 0.579339 1.001414 0.088658 -0.812070 0.149732 -0.117544 
市场 -1.357811 -0.203276 -0.114729 -0.262326 -1.052985 -0.471380 0.307709 -0.012078 -0.882809 0.159576 -0.250069 0.816052 -0.001440 -1.087253 0.227140 1.071852 0.340343 -0.155041 -0.180066 -0.006777 -0.274527 -0.058286 0.039792 -0.716544 0.357729 -0.735303 -0.911259 0.998894 -0.210485 0.682896 -0.171390 0.241788 -0.194317 0.216409 0.384115 -0.142041 0.011739 -1.038617 0.665354 0.140752 -0.646997 0.135538 -0.105798 -0.747943 0.409565 0.345864 0.431816 0.075908 -0.360794 0.714219 
新 0.717975 -0.104276 1.016467 0.139256 -1.134120 0.691181 1.420037 -0.873698 0.137817 0.442552 -0.313094 -0.314112 -0.449237 1.217647 -0.172308 0.220113 0.137977 -0.197832 0.816823 0.361814 -0.706292 0.450058 -0.109537 -1.169539 0.368172 -0.138852 -0.450278 0.764380 -0.288184 0.029096 -1.285094 -0.331238 -0.976391 0.805486 0.043526 0.441615 0.576656 -0.037069 -0.208246 -0.561550 -0.047398 0.575973 -0.263611 -0.228677 -0.075414 0.065278 -0.354256 0.591503 0.924737 0.016051 
管理 0.686986 0.784284 0.384424 -0.213791 0.554298 0.093128 0.510878 0.460166 -0.694848 -0.135270 -1.262864 0.068856 -0.095530 -0.417034 0.452554 0.653895 0.517936 0.249378 0.849818 0.150955 -0.439727 -0.204655 0.145857 -0.955615 0.143154 -0.021819 -0.090863 0.297330 -0.603417 0.301943 0.351865 0.045278 -1.556278 1.508712 0.170448 -0.523548 0.229134 -0.351604 -0.155141 0.909153 -0.849534 -0.759230 -1.122573 0.494787 0.145359 0.000571 -0.525991 0.957973 0.349754 -0.926319 
国家 -0.255978 -0.254722 -0.023957 0.444698 0.525422 0.410320 1.131657 0.065596 0.091341 -0.919309 0.009053 0.020038 -0.471622 0.002009 0.055415 0.577464 0.655535 0.604767 0.525942 0.312718 -0.880307 0.143883 0.845366 -0.417379 0.268352 0.956298 0.859160 -0.371999 0.920796 -0.313233 0.736646 -0.348749 0.024446 0.543493 0.103889 -0.574838 1.316897 0.447188 1.051566 -1.019637 -0.095724 -0.189144 0.390098 -0.340893 0.030379 0.799129 -0.137812 -0.395411 -0.340089 -0.492209 
社会 -0.365299 -0.549268 0.540325 0.706583 -1.007222 -0.314948 0.621885 -0.397886 -0.270433 -0.951375 -1.063809 -0.558064 -0.284821 0.428764 -0.428663 0.544614 -0.269132 -0.329894 0.956957 1.289324 0.245578 0.587057 0.900344 0.395578 -0.545670 -0.466512 0.582980 0.001070 -0.152618 -0.680898 0.652333 -0.216405 -0.209461 0.212238 -1.405971 0.045079 -0.437341 -0.043265 0.467717 0.075268 -0.290763 -0.318652 -0.561942 -0.119971 -0.016481 0.507969 -0.428886 -0.305372 0.005742 -1.024397 
部门 -0.105654 -0.710829 0.073278 0.791244 0.851786 -0.364956 0.695170 -0.511211 -0.924298 0.221557 0.312141 -0.171883 0.426672 -0.090605 0.910066 0.943839 0.175032 0.258201 -0.027893 -0.695378 -0.631140 0.276721 0.058373 -0.162979 -1.682181 0.439847 0.080559 0.264457 -0.800769 0.983440 0.593550 -0.257629 -1.269410 -0.289385 -0.673371 -0.196491 0.275913 0.556936 0.242726 -0.155650 0.030948 -0.411548 -0.694980 -0.054634 -0.167551 -0.385246 -0.149436 0.678589 -0.225357 -1.311348 
问题 0.210769 -0.747391 -0.749474 0.325800 0.535988 0.383090 1.240682 -1.272594 -0.366932 0.327635 0.114455 0.259741 -0.207977 0.568175 0.203825 -0.413359 0.831188 0.057111 0.966788 0.318466 0.341981 0.581548 -0.956949 -1.644591 -0.079891 0.228501 -0.097677 0.182603 0.409201 0.973353 0.195357 -0.263899 0.201288 -0.399482 -0.729001 -0.026938 -0.583636 1.058288 0.478057 -0.699537 -0.424588 0.074009 0.217505 0.041357 -0.061847 0.181870 -0.883016 -0.058275 0.618472 -0.211794 
中国 -0.552558 -0.290708 -0.145266 0.637344 0.282800 1.032638 0.931164 0.260564 -0.874279 -0.238696 0.633134 0.497887 -0.579366 -0.074829 -0.603946 0.053974 0.360126 0.080269 0.249653 -0.024181 0.316767 0.631341 0.374627 -0.825863 0.574799 -0.377158 0.488455 0.505715 0.631965 -0.439079 -0.057233 -0.142441 0.435257 -0.448443 -0.277987 1.049326 -0.086190 -0.527313 -0.161264 -0.683732 0.052633 -0.888342 0.009466 0.115714 -0.241650 0.551918 0.229664 -0.182615 0.141744 -0.850550 
记者 -0.073432 -1.384061 0.199901 0.719289 0.366546 0.612406 0.196332 -1.023646 1.192065 0.488844 -0.251491 -0.559911 -0.238001 -0.830513 -0.299125 0.995300 0.895733 -0.486192 -1.058937 -0.413855 0.759049 -0.857843 -0.260750 -0.555037 0.315748 0.290544 -1.454529 0.162910 0.693225 0.130409 -1.050259 0.260600 -0.397485 0.449198 -1.386451 0.282208 0.114628 -0.346782 0.446797 0.404588 0.428718 1.039409 -1.110861 -0.059386 -0.423369 -0.826360 -0.245290 -0.590949 -0.778781 -0.865934 
把 -0.216174 -1.050102 -0.435521 -0.342318 0.368069 0.509537 0.704789 0.106206 -0.102535 -0.525749 -0.459908 -0.758202 0.179154 0.499029 0.444379 0.694396 0.832379 -0.390017 0.379211 1.187520 0.284480 -0.893762 0.373268 -0.409806 -0.552743 -0.779156 0.381539 -0.217247 0.454495 0.358275 -0.721344 -0.453283 -0.247991 0.537526 0.561045 0.814051 -0.328858 -0.079929 1.119085 -0.657461 0.279878 -0.324762 -1.182904 -0.810811 0.143603 -0.699080 -1.567084 -0.139166 -0.551476 -1.238975 
并 -1.429513 -0.120307 -0.423414 -0.552893 -0.202579 0.614187 -0.205603 -0.700040 -1.335536 0.031919 0.368600 0.688401 -0.657772 -0.595032 0.792574 1.063150 -0.128893 -0.293464 0.786519 0.602750 -0.232353 -0.852122 -0.476094 -1.113730 0.133642 0.515987 0.962492 -0.205916 -0.412212 0.833445 -0.354179 -0.185115 -0.098896 -0.223560 -0.744365 -0.625899 -0.199835 0.200498 0.437152 -1.079541 0.858315 0.814705 -1.316132 0.271865 -0.239944 -0.139418 0.224752 0.504383 0.264844 -1.092521 
说 -0.921537 -0.366300 -0.470127 0.385857 0.399921 0.218845 0.100521 -0.929709 0.000556 0.046534 0.402950 0.682759 0.934650 -1.325552 -0.318450 -0.001168 0.556062 -0.383393 -0.276895 -0.751845 -0.180923 -0.209923 -0.165419 -0.592672 0.300049 -0.172284 -0.792452 -0.620543 -1.124931 0.163258 -0.487931 0.009038 -0.024077 1.195633 0.102097 0.545317 -1.042512 -0.892726 0.777615 -0.956733 -0.313393 0.047950 -0.059063 -0.542432 0.379972 -0.781845 -1.843058 -0.681036 -1.001148 -0.476102 
都 -0.818843 -0.414789 1.189439 0.425031 0.168483 -0.442397 0.375183 -0.735454 -0.159728 0.459413 0.851183 -0.691623 -0.214596 -0.805573 0.306540 1.336272 1.355377 -0.530944 -0.380667 -0.056957 1.055214 0.397926 0.532106 -0.634090 -0.136840 0.628257 0.002753 0.421848 0.262876 0.753857 -0.173030 -0.343477 -0.862457 -0.306340 0.064014 0.603095 -0.104291 1.259464 -0.396231 -0.310500 0.260104 -0.441047 -0.119044 0.448372 -1.024049 0.059960 -0.139003 -0.625799 0.080944 0.668231 
好 0.241962 0.161342 0.641452 -0.715591 -0.880380 -0.679228 0.251941 -0.637710 -0.416403 -0.027563 0.096832 -0.987138 -0.134792 0.512363 0.660935 0.772417 -0.107716 0.535758 -0.885573 0.235148 -1.715874 -0.746957 0.669294 -1.546279 0.027771 -0.325318 -0.213190 0.063813 0.559014 0.289084 -0.801184 0.144931 -0.285970 0.221842 0.005949 0.386197 -0.137076 -0.183312 0.794170 0.741022 -0.757893 1.048388 0.106068 0.719635 0.973442 -0.123732 -1.106702 0.003447 -0.862096 -0.196999 
世界 -0.038267 -1.190278 -0.097146 -0.032809 -0.320838 1.637390 1.845232 -0.459938 -0.448268 -0.706967 -0.101082 -0.256163 0.620984 -0.151403 -0.875022 0.952582 0.926830 -0.013661 -0.018377 -1.048452 -1.007906 0.656961 0.635465 -0.934185 -0.233384 -0.424222 0.647321 0.499641 -0.097111 0.020374 -0.396902 0.562839 0.587814 -0.221428 0.183576 -0.056954 -0.210794 -0.233812 0.594026 0.940680 -0.025188 -0.587029 -0.664816 0.254581 -0.850131 0.004968 -0.021691 -0.169482 0.196474 -0.640035 
产业 0.977490 -0.607943 0.526384 0.130343 -0.530947 -0.291876 1.433522 -0.422768 -1.205344 0.572026 0.162854 0.414405 0.812896 0.122114 0.232221 0.388896 0.824767 -0.710798 -0.053853 0.818684 -0.007559 -0.253693 -0.776101 -0.040272 0.878339 0.707768 0.387242 0.680889 -0.065870 -0.565253 0.079042 -0.103728 -0.370623 0.477503 -0.727174 -0.173898 0.437467 0.981472 0.536306 -0.569344 -1.273681 -0.577087 -1.001614 -0.241947 0.499705 0.409567 -0.641430 -1.007832 -0.128228 -0.025119 
重要 -0.492455 -0.887888 1.172445 -1.061378 -0.221953 -0.266563 1.458785 -0.696681 -0.425820 -0.311789 -0.166199 0.187356 0.083101 0.276381 0.143059 0.618568 0.061732 0.145107 -0.477984 0.618985 -0.289506 -0.748115 -0.487137 -0.568125 0.916328 -0.210777 -0.281376 0.768933 0.434951 -0.671450 -0.350483 0.075566 -0.911858 0.104776 -0.412938 0.450771 0.179854 -0.068861 -0.707792 -0.608009 -0.782548 0.138298 -0.439231 0.553110 1.205773 1.541009 -1.116620 0.181473 0.252254 -0.294581 
科技 0.440493 -0.934971 -0.309681 0.288728 -0.175835 -0.164973 0.087627 0.569230 -0.938299 0.531421 0.462412 0.459251 -0.119493 -0.227524 -0.569959 0.638302 -0.305592 -0.481910 0.291788 -0.018467 -0.436171 0.224455 0.781042 -0.477789 0.740267 -0.585081 0.337923 0.891866 -0.330974 0.134149 -0.355093 -0.781281 -0.812744 0.597040 0.635358 -0.330091 -0.205335 0.062042 1.073829 -0.305920 -0.547012 -0.392542 -0.129042 -0.769292 -0.035407 0.075425 -0.145915 -0.366114 0.282829 -0.414324 
生产 -0.557052 -0.264066 0.023895 0.332526 0.506566 0.234200 0.955670 -0.016828 -0.342179 0.636723 -0.553220 -0.579053 1.128739 -0.726949 0.005189 0.823112 -0.193021 -0.997218 -0.058183 0.277004 0.529006 0.787780 -0.058358 -0.909409 0.155644 0.239640 -0.059449 0.373880 -0.203512 0.164989 -0.475371 -0.922127 -0.240818 0.608659 0.544189 -0.216652 0.832446 -0.110832 0.333582 0.477374 -0.746925 0.545721 -0.144750 -0.698858 0.286758 0.534468 0.478054 0.238437 -0.508724 -0.246119 
出 0.264261 -0.469930 0.539113 1.430086 1.630578 -0.026261 -0.260457 -0.820593 -1.028505 -0.245703 0.571996 -0.042758 0.333033 -0.200494 -0.352679 0.626401 1.243166 -1.421841 -0.543791 0.218689 0.352430 0.464347 -0.752911 -1.037145 -0.141645 -0.017516 1.004621 -0.132947 0.668563 -0.193576 -0.952119 -0.314089 -0.166335 1.462729 -0.026809 -0.079002 -0.005328 -0.343325 0.965474 0.410257 0.573763 0.374630 -0.597745 0.345114 0.990487 1.166981 -0.840023 -0.396428 0.881198 -0.226991 
粮食 -0.216304 -1.381215 0.294745 0.190681 -0.274327 -0.284647 0.873474 -0.750186 -0.634543 -1.204835 -0.637229 0.423136 0.111865 -0.620093 -0.064951 0.793397 -0.096512 -0.462456 0.328735 -0.027587 -0.716982 0.053707 0.724691 -0.212903 -0.119776 0.718457 0.222933 0.099552 0.373467 0.153122 -0.494859 -0.052162 0.475538 -1.166931 0.046103 0.321916 -0.517319 0.589735 1.297626 -0.127109 -1.357121 -0.233310 -0.449585 0.567323 -0.226288 1.188984 0.445851 -0.466389 -0.053721 -0.048240 
农民 0.132771 -0.211280 -0.056436 1.742915 -0.945341 -0.550206 0.427489 -0.007478 0.217440 -0.538888 -0.260055 -0.815636 0.345757 -0.352287 0.191164 -0.312511 -0.605723 -0.826016 0.631121 0.316272 -0.512667 -0.022398 0.005855 -0.780300 -0.448659 0.421251 -0.245490 1.001146 0.433993 -0.264484 -0.966492 -0.434252 -0.233225 0.148772 0.079449 0.062662 -0.466788 0.335671 0.789256 0.626278 -0.918751 0.506960 -0.966337 -0.146854 0.122006 0.188164 -0.413147 1.389584 0.233199 -1.297931 
向 0.691627 -0.795718 -0.494391 -0.293000 -0.377291 -0.891402 0.770194 -0.006631 -0.048224 0.006590 0.198191 1.074787 1.508574 -0.512705 0.419557 2.063217 0.617095 -0.224087 0.836483 0.106208 -0.416993 0.375627 -0.144946 0.320626 -1.271399 -0.362932 0.426999 -0.297365 0.129928 -0.821744 -0.012064 0.708139 -0.510529 0.764309 0.746933 -0.315917 -0.131328 0.206691 -0.095495 -0.817809 0.977817 0.218616 0.219558 0.054537 -0.039264 0.082560 -0.253858 -0.029586 -0.103736 -0.856862 
进行 -0.288121 0.249433 0.323680 -0.044379 0.116554 -0.404994 0.736162 -0.656376 0.515278 -0.685870 -0.452749 0.014673 -0.759561 -0.282822 0.325511 1.116365 0.764591 -0.464101 0.351736 0.457180 0.323130 -0.200513 -0.807481 -0.867717 -0.383608 0.534262 0.217694 -0.712797 -1.030284 -0.218543 0.679537 -1.267007 -0.335327 0.570691 0.232559 -0.028387 -0.006965 0.502716 -0.853338 -0.118950 -0.722087 0.444971 -0.342272 -0.405036 -0.297208 0.670058 -1.081694 -0.001456 -1.069310 0.418309 
提高 -0.335716 -0.111835 -0.088930 0.134134 -0.279021 0.652466 0.816647 -0.589569 -0.757001 0.834514 -0.822750 0.016018 0.311887 0.591304 -0.272768 0.504936 0.262360 0.711433 0.989452 0.327065 0.182405 -0.152096 0.463949 -0.484772 0.152761 0.794892 -0.553589 -0.030944 -0.047051 0.111991 0.470058 -0.767037 0.416368 -0.702140 -0.219462 0.851660 -0.217267 0.325607 0.726385 0.655251 -0.707923 0.167640 -0.258744 0.690786 -0.183294 0.072982 -0.832944 0.160525 -0.614128 -0.786711 
更 -0.473382 0.335587 1.161556 0.686799 0.683677 0.660162 0.845473 -0.866443 0.634949 -0.753891 -0.618703 0.047755 -1.194067 -0.299841 -0.599591 1.018004 0.478220 -0.353007 0.131484 0.896559 -0.789916 -0.560283 -0.452962 0.473595 -0.345089 -0.293160 0.715745 0.737472 -0.420319 -0.089269 0.238017 -0.803844 -0.643217 0.011025 -0.667258 1.084938 0.118187 -0.513332 0.875781 0.239801 0.051741 0.027684 -0.198351 0.687536 -0.497244 0.119044 -0.232553 0.161520 0.120942 -0.240071 
他们 -0.784119 -0.070384 0.090474 -0.137633 -0.006021 0.671695 0.075636 -0.421527 -0.486623 0.248480 0.952637 0.352887 -0.798771 -0.499533 -0.750861 0.786393 -0.191463 -0.424732 -0.593189 0.251050 0.253685 -0.220472 0.387542 -0.528091 -0.090969 -0.110737 -0.132462 0.212502 -0.425514 0.496260 -0.507991 -0.135565 -0.579473 0.851835 -0.188250 0.363829 -0.152019 0.079111 0.858613 0.083068 -0.742554 0.349423 0.507754 -1.602046 -0.470595 -0.119558 -0.459425 -0.698007 -0.644572 -0.507163 
多 0.121496 -0.377532 0.681893 0.453122 0.081270 0.300703 0.582958 -0.164787 0.153917 0.672631 0.358892 -0.720715 -0.704846 0.902986 0.212195 1.256364 -0.096492 -0.381472 -0.386341 -0.473942 -0.635848 -0.485984 0.492426 -0.551978 0.483227 -0.693046 -0.134521 0.364819 0.608553 -0.278303 -1.598642 -0.698760 0.477849 0.648216 0.142037 -0.111911 0.266120 0.805030 0.581139 -0.186788 -0.326345 0.114957 0.000045 0.367438 0.932439 0.252713 0.045686 0.458472 -0.417307 -0.223991 
全国 -0.994216 -0.143509 0.064554 0.476732 -0.076525 1.096795 0.882486 -0.063220 -0.378406 -1.359290 -0.266036 0.812082 -0.008225 -0.142638 -0.222267 0.453642 0.435267 -0.414005 0.608755 -0.526631 -0.547406 0.651350 0.282155 -0.228973 0.134177 0.240306 0.015741 -0.123054 1.440623 -0.170035 -0.451790 -0.776821 -0.561075 0.397097 -0.629894 -0.310012 -0.029290 0.697743 -0.229401 -0.261445 -0.740277 -1.275879 -0.199958 0.403121 -0.779576 -0.338159 0.197268 0.505667 -0.878428 -0.665127 
经营 -0.560287 0.168853 -0.036346 0.337176 0.006164 -0.309701 0.361590 -0.198811 -1.384020 -0.259540 -0.651094 -0.066778 -0.142714 -0.548483 -0.186990 1.085147 -0.423583 0.068195 -0.501526 0.873021 -0.562010 -0.131159 0.324270 -1.435986 0.698711 -0.068452 -0.173213 0.560004 0.567087 0.519972 -0.112838 0.231227 0.551662 0.045949 0.051754 0.267239 0.772984 -1.000117 -0.672961 -0.074961 -0.273524 0.054938 -1.471359 0.367675 -0.012752 0.935712 -0.043652 -0.462191 -0.614355 0.091214 
产品 -0.084213 -0.410181 -0.748565 0.924111 -0.055649 1.386047 0.024064 0.254456 -0.389579 0.711117 0.290952 -0.109499 -0.419948 0.163600 0.202510 1.349411 0.506944 -0.945219 0.114366 0.375665 0.229446 0.733870 0.267987 -0.313821 0.441305 0.183250 -0.626665 -0.179995 -0.220087 -0.169074 -0.022273 -0.833548 0.848694 0.811765 -0.569857 -0.350818 0.285900 -0.095184 -0.207965 -0.684461 -0.513697 0.378736 -0.344309 -0.051744 -0.162628 0.901559 -0.841308 -0.856324 -1.008657 0.498795 
有关 0.750746 -1.400657 0.385024 -0.097008 -0.005722 -0.152886 0.390660 -0.244090 0.134523 0.059253 -0.109449 1.423823 -0.094914 -0.621923 0.380682 1.638337 -0.185976 0.802848 0.060888 -0.724723 -1.370080 0.405658 -0.503286 -0.026749 -0.698110 0.847668 0.263855 0.277411 0.175431 0.462732 0.090571 -0.178449 -0.806782 0.475868 -0.184277 -0.410908 0.073442 -0.555338 0.142254 -0.813006 -0.561468 -0.123395 -0.939258 -0.602300 0.573619 0.238268 -1.556828 -0.621146 -0.993800 -0.290605 
《 0.542246 -0.000744 0.665659 0.599882 -0.094728 -0.463336 1.713614 0.896202 0.004470 0.317816 0.439476 0.968598 1.113346 -0.015601 0.881624 -0.058503 0.926042 0.615909 -0.247631 0.395597 -0.617595 -0.041813 -0.580118 -2.081189 0.339101 0.487163 0.813523 1.070566 0.435202 0.111531 1.131940 -0.121775 -0.731710 0.766306 0.401043 0.409635 -0.671430 -0.656575 0.768794 -0.775260 0.429141 0.289251 0.045417 0.477028 1.272216 -0.316381 -0.703956 -0.186283 0.453117 -1.802905 
》 0.479256 0.290966 -0.098765 0.349257 0.375875 0.114219 0.307501 0.251211 -0.263856 -0.183781 -0.316385 0.629400 -0.668173 -0.992140 0.688565 0.580261 1.050351 1.021681 1.335896 0.189581 -0.581400 -1.086578 0.921614 -1.300490 1.141925 0.326614 -0.177302 0.284405 -0.265372 -0.187002 -0.055945 -1.058277 -1.624238 0.817873 -1.512449 1.173844 -0.068286 -0.554350 0.569669 0.691332 0.389088 -0.110957 -0.385346 0.256227 0.599619 0.570571 -0.130232 -0.268643 0.176130 -1.059787 
加强 -0.935697 -0.216411 0.567544 -0.185175 -0.364321 -0.129835 0.525094 -0.048820 -0.192771 0.531047 -0.437739 -0.073329 -0.108252 0.009064 0.211128 0.615161 -0.404922 0.038951 0.748397 0.980059 0.643224 0.281630 0.451442 -0.836091 0.388707 0.275854 -0.599256 -1.108841 -0.114642 0.522846 -0.762026 -0.754363 -0.143350 -0.139071 0.211076 0.207377 -0.392666 0.361201 0.181240 0.554575 -0.503323 -0.234596 -0.638223 0.345563 0.953279 -0.474324 -1.720505 0.180538 -0.531623 -0.715324 
资金 0.245800 -0.527316 -0.054180 0.613553 0.160727 -0.520892 1.028237 0.528856 -0.598885 -0.505764 -0.378344 0.067537 -0.766230 -0.383199 0.352093 -0.283862 0.179977 0.276509 0.254014 0.778941 1.044904 0.120301 -0.086667 -0.842851 -0.094663 -0.534334 0.122940 0.189554 -0.842232 0.408597 0.088018 -0.356492 -1.419105 -0.001599 -0.106685 0.368667 -0.113787 -0.102598 1.128264 -0.651593 -0.333800 1.555370 0.118963 1.298208 0.051968 0.648858 1.097525 0.327239 -0.281361 0.127354 
实现 -0.177635 -0.897303 0.510906 0.033938 -0.130030 0.188655 0.430954 -0.585540 -0.879048 0.136753 -0.514163 -0.120842 0.484523 -0.071468 -0.881715 0.741053 0.153999 -0.186325 0.776952 0.355181 0.227878 -0.773165 0.083228 0.238966 -1.861285 0.489154 -0.079707 0.059969 0.288160 -0.690228 0.756645 -0.529551 -0.176391 0.350386 0.246646 0.139259 -1.009803 0.372989 0.212678 -0.424792 -0.204786 0.570356 -0.823672 0.046597 0.374936 0.885787 0.386339 -0.228911 -0.573979 -0.658836 
而 -0.423993 -0.318948 -0.091427 0.078812 0.013621 0.453642 0.173483 -0.533793 -0.377777 0.488293 0.004880 -0.254746 -0.069126 -0.998234 -0.777702 1.606538 -0.280805 -0.139797 1.531431 -0.081835 0.373022 0.673146 0.152196 0.653083 -0.416207 -1.079329 -0.160390 -0.022082 -0.274329 -0.750689 0.293839 -0.001123 -0.216838 0.205529 -0.357305 -0.184738 -0.154378 0.304624 -0.026032 -0.733365 -0.669869 0.063523 0.163793 -0.180895 -0.531132 -0.033452 -0.199322 0.043194 0.527598 -0.703072 
后 -0.655413 -0.143275 0.415262 0.031195 0.004480 -0.844294 -0.333260 -0.117009 -0.231750 -0.266553 0.682346 0.584490 0.221539 -1.272520 -0.465020 1.349764 0.818072 0.451229 0.914759 0.289500 0.370270 0.484828 -0.001764 -1.542737 -0.412724 -0.197597 -0.632276 0.148670 -0.055797 -0.553381 -0.503683 -0.526116 0.925128 0.297547 0.075206 0.234937 -0.424510 -0.403379 -0.213562 -0.419810 -0.205139 0.932003 0.776028 -0.208820 -0.346118 0.289429 0.765660 -0.056281 -0.028776 -0.224075 
下 -1.449229 -0.245274 -0.507894 0.710911 0.461422 -0.147087 0.392230 -1.116144 -0.711158 -0.462417 -0.353112 0.318530 0.869955 -0.226873 -0.508519 1.034098 0.258664 -0.065271 -0.197859 0.055642 -0.152466 -0.277474 -0.045590 -1.010202 0.077641 -1.088814 -0.137927 -0.158605 -0.403301 0.267653 -0.216491 -0.393696 0.833775 0.576419 0.431440 0.004918 -0.328791 1.281939 0.523629 -0.395096 -0.353668 0.609067 0.000100 0.591788 0.144561 -0.785862 0.045386 0.216552 0.914673 -0.319157 
各 -0.504952 -1.573911 0.597036 0.571188 1.060184 -0.126361 1.290986 -0.413306 0.396648 -0.513859 0.194131 0.315666 0.527682 -0.234224 -0.013069 0.004847 -0.314301 0.323183 0.099868 -1.278021 -0.724774 0.267621 0.418866 0.058429 0.431942 -0.336993 0.850624 0.803328 -0.421766 1.265392 -0.791756 -0.627636 -0.222609 1.034762 0.175159 -0.680299 0.391120 -0.509003 0.791566 0.338876 -0.467080 -0.057291 -0.050723 0.276670 0.005841 0.262369 -0.087203 0.292628 -0.716081 -0.162501 
环境 -0.653969 -1.018583 0.202187 -0.578275 -0.827727 0.029549 0.426025 -0.510932 -0.805348 -0.644866 -0.204657 -0.646438 0.223529 -0.043317 -0.095450 -0.525009 0.140439 -0.257343 1.142345 -0.142019 -0.112223 -0.238518 0.657592 -1.709083 -0.540697 -0.227122 -0.325102 -0.605232 0.065997 0.623361 0.443931 -0.443008 -0.614592 0.620160 -1.092602 -0.970378 -0.710462 0.457565 1.013375 0.540453 -0.451728 -0.240407 -0.200791 -0.361525 0.652789 1.033054 -0.452970 -0.393698 0.569937 0.130275 
还 -0.789837 0.381656 -0.024201 0.430596 0.289400 -0.473123 0.866425 0.431303 0.326016 0.404071 0.232880 -0.340214 -0.637485 -0.895082 0.233248 1.322509 0.104649 -1.350209 0.355678 0.560286 -0.800811 -0.865465 -0.241484 -0.018490 -0.585795 0.312339 0.439420 0.664473 -0.247369 0.373907 -0.448570 -1.238651 -0.585627 0.129518 -0.202839 0.024125 -0.078777 0.725214 0.872103 -0.639966 0.791725 -0.464388 0.385007 0.298720 -0.627806 0.178254 -0.659267 -0.409510 0.439190 -0.190396 
可以 1.001558 0.096039 -0.858339 -0.191706 -0.043847 -0.280179 0.208549 -0.409162 -0.675632 0.548761 0.568282 -1.042470 -1.262316 -1.275801 0.344943 1.655045 -0.431185 -0.163031 0.551660 -0.385242 -1.440757 -0.292815 0.672315 -0.578247 0.569710 0.993119 1.115869 0.427484 -0.218423 -0.430808 0.973036 -0.036696 -0.796499 0.168902 -0.853126 0.547797 0.601540 1.214075 1.462717 0.045955 -0.549585 -0.180740 -1.010511 0.527443 -1.214791 0.053137 -1.165646 0.426078 -0.465413 -1.237383 
服务 0.426496 -0.089393 0.551198 0.603692 0.560087 -0.235154 0.532501 -0.338460 -1.392587 0.290395 -0.437050 0.544940 0.113553 0.087196 0.273200 1.876491 0.584756 0.040240 0.924644 0.211604 0.460820 -0.422047 0.060055 -0.865604 -0.012219 0.671405 -0.269178 -0.159354 -0.642692 1.190308 0.389640 0.375442 -0.232206 0.697133 -0.649204 -0.543785 0.487052 0.050351 0.160841 0.512674 0.002745 0.707532 0.033264 0.842025 0.070616 0.049161 0.316469 -0.120501 -0.893219 -0.998990 
资源 -0.456574 -0.580960 -0.024733 -0.406952 0.163294 0.770087 0.643375 0.078064 -1.324342 -0.345535 -0.464488 -0.404835 0.205383 0.216199 -0.410526 -0.812118 0.370040 -0.599445 1.383651 0.187830 -0.078224 0.116286 -0.081497 -1.213071 -0.128203 -0.530851 0.287284 0.329094 -0.266943 0.420704 -0.197165 -0.509066 -0.381955 0.232846 0.481728 -0.489651 1.750051 0.833119 0.716827 0.094574 -0.488953 -0.551571 -0.712240 0.363689 0.727293 0.744972 -1.035213 0.310578 -1.075294 -0.217783 
又 -0.551455 0.045414 0.584340 0.507313 0.385863 0.511727 -0.033624 0.902978 -0.551311 0.219001 0.138098 -0.938884 0.000880 -0.697159 -0.518799 1.582683 0.639394 0.062474 0.454186 -0.380130 0.676345 -0.811684 -0.451118 -0.685157 -0.141425 0.027760 0.440972 0.434954 -0.894965 -0.443703 0.273176 -0.125294 -0.006083 -0.740163 -0.411367 0.771975 0.042831 0.433025 0.104626 -0.234762 -0.488797 0.932870 -0.550659 -0.011145 0.393434 -0.048779 -0.973384 0.071589 0.486698 0.047795 
来 0.606204 0.105331 0.312436 0.558551 0.622040 -0.931471 0.591055 0.368336 -0.618347 0.301763 0.569365 0.041518 0.508502 0.286247 0.280232 0.470100 0.669816 -0.477641 0.150395 -0.276543 0.703863 -0.176683 1.292494 -0.735394 -0.747703 -0.108075 -1.398720 -0.537538 0.140710 -1.059496 -0.249405 -0.224503 -0.175552 0.720386 0.252617 1.247716 -0.206014 -0.523584 0.773625 0.305836 0.370362 0.457105 0.294011 0.539750 -0.278898 -0.116927 -0.665385 0.330148 -0.572865 -0.748754 
成为 -0.481589 -0.667900 -0.114016 -0.003150 0.615258 0.008039 0.003311 0.492534 -0.412134 1.357744 -0.288099 -0.267790 0.397399 -1.227533 -0.645753 0.618180 0.146620 -1.046422 0.546469 -0.153217 -0.365003 0.331253 0.350535 -1.005122 -0.502647 0.328186 0.551459 1.388421 0.163642 -0.718090 0.345318 -0.551220 0.394250 -0.136576 -0.037383 0.753309 -0.372885 -0.399144 0.186402 0.164982 0.119653 -0.192216 -0.015851 -0.680498 0.801996 0.108896 -0.594678 0.634747 -1.125352 -0.716335 
时 -0.306909 -1.182691 0.329186 0.681596 -0.597669 -0.910840 0.276635 -0.566237 -0.049725 -0.341648 0.551873 0.505501 0.253620 -1.367947 -0.103623 0.579802 -0.177453 0.045824 0.544301 1.093649 -0.109622 -0.535941 -0.926938 -1.211586 0.167628 -0.479477 -0.804273 0.145529 -0.566366 0.249661 -0.526277 0.049222 0.583081 1.126130 0.379155 0.819557 -0.426664 0.469504 -0.162990 -1.057037 0.488485 -0.166349 -0.225631 0.823956 -0.444160 -0.353978 0.058130 -0.189845 -0.759046 0.324452 
由 0.696028 -0.584417 -0.468714 0.009509 0.375130 -0.621462 0.684460 0.477207 0.738979 0.321096 0.447054 0.011029 -0.313242 -1.545254 0.041327 0.223036 0.977334 -0.676003 0.539377 -0.399553 -0.942518 0.435821 0.222995 0.048005 -0.746745 0.728468 0.146920 -0.036382 0.334338 -0.371550 0.427984 -0.137853 -0.382547 0.789317 0.002117 0.318460 0.077819 -0.176723 -0.765753 -0.926874 -0.525203 -0.316784 -0.670188 1.024266 0.301274 -0.190979 0.215874 0.893563 -0.478528 -1.321173 
国务院 0.300714 -1.904742 0.594164 0.312758 0.268693 0.301003 0.370409 -0.330294 -0.131933 0.438606 -0.335385 0.911046 0.376573 -0.581958 0.035227 0.581677 1.408602 1.559681 0.091982 0.282368 -0.614589 -0.000779 0.080951 -0.620294 0.701361 0.834656 0.348037 -0.445962 0.037624 0.163227 -0.430259 0.133613 -1.750632 -0.492842 -0.091407 0.258309 0.107309 0.409962 1.020209 -1.253753 -0.202155 -0.283361 -0.675174 0.439406 0.108922 -0.195670 0.164459 0.374714 -0.302889 -1.449555 
着 -0.284336 -0.504877 -0.466044 -0.511931 -0.027021 -0.519887 0.209967 -1.188897 0.244780 -0.301472 -0.358021 -0.201766 0.378727 -0.540000 -0.145396 1.088575 0.965128 -0.369474 0.728167 -0.706523 -0.574348 0.507366 -0.016098 -0.711504 0.910606 -0.289626 0.584414 0.176208 0.139454 -0.366996 -0.945559 -0.209137 0.220515 0.158282 0.584561 1.382422 0.034243 0.078052 0.377332 0.595138 0.210411 1.039027 -0.287844 1.040997 0.000174 0.310973 -0.007508 -1.215653 0.814497 -0.065442 
开发 -0.230816 -0.025319 -0.097909 0.038457 0.857318 0.252059 1.077912 -0.384535 -0.371542 0.416163 0.711476 -0.767143 0.439161 -0.356116 -0.496170 -0.171343 0.051996 -0.017449 1.047706 0.611403 0.125982 0.125389 0.714568 -0.264771 0.325178 0.210925 -0.175048 0.181378 -0.427570 0.533124 -1.063563 -0.588690 -0.204667 0.800660 0.607077 -0.447141 -0.332904 -0.315024 0.604569 0.339105 -0.145551 -0.169362 -1.345446 -0.638517 0.018828 0.535283 0.107430 -0.364991 -1.079680 0.913745 
之 -0.390463 -0.431050 0.524144 0.718154 0.416720 -0.371105 0.195115 -0.108529 -0.537024 -0.085361 0.857216 0.088743 0.272695 -0.186826 0.531103 0.700062 -0.384650 0.433493 0.109344 -0.697598 0.298142 -0.610163 -0.239602 -0.660344 -0.571231 -0.795547 1.393142 0.317107 1.181096 -0.411173 -0.344566 -0.914302 0.364227 0.153322 -0.103159 0.405651 1.635424 -0.140575 0.656303 -0.560940 -0.265639 0.336468 -0.463094 0.194871 0.129718 0.963727 0.073210 -0.222682 -1.288226 -0.311508 
能 0.413635 -0.068801 0.681214 0.219067 -0.145222 0.127606 0.514479 -1.071384 -1.144380 0.546703 0.842856 -1.560063 -0.976596 -0.415783 0.202961 -0.099858 -0.293066 -0.145950 1.190856 -0.387305 0.578229 0.265225 0.206690 -0.340532 1.127599 0.253783 -1.011201 0.246323 -0.148717 0.656827 -0.374697 0.328278 0.390990 0.068844 0.056297 1.387129 0.480258 -0.081811 1.141584 0.316419 -0.238924 -0.103071 -0.574713 0.385333 -0.080555 0.496054 -1.172255 0.149626 -0.837734 -0.030278 
三峡 -0.159247 -0.881794 1.155518 0.815978 -0.530504 0.181663 0.666573 0.319875 0.535192 -0.604855 0.436956 -0.742005 -0.915106 0.048083 0.368477 1.327893 0.170327 -0.593503 0.119828 0.959915 0.215684 0.541204 0.663825 -0.635915 0.605604 0.704897 -0.878803 0.467054 -0.431210 -0.253601 0.914646 -0.213623 0.986613 -0.631743 -0.019032 0.144249 -0.215805 -0.548609 1.079741 -0.355594 0.686716 -0.086005 0.135336 0.163339 0.112842 0.517124 -0.329286 -0.040913 -0.722163 -2.242613 
国有 -0.142577 -0.195741 0.853742 -0.740845 1.040219 0.175757 1.588868 -0.766488 -0.241279 -0.984998 -0.297791 0.108379 0.569679 -0.358200 -0.025020 0.805531 -0.381852 0.253744 -0.025845 0.706283 -0.046157 0.610325 -0.513397 -0.812590 0.796173 -0.095278 -0.673443 0.021937 0.478024 1.265352 0.868672 -1.101611 0.992461 0.384078 0.221245 0.329391 0.616285 0.328317 1.074918 -0.051070 -0.617853 -0.104286 0.151829 0.016714 -0.411018 0.001386 -0.472252 -0.304493 0.030649 -1.654244 
于 0.188661 -0.790909 0.204205 -0.573183 0.189555 0.227769 0.589166 0.492692 -0.445250 0.208106 0.588971 0.576382 1.062961 -0.059243 -0.161931 0.420934 0.017752 -0.074041 0.230551 -0.377932 0.268966 -0.946938 0.151890 -0.581912 0.397610 0.289135 1.180308 -0.211717 -0.122303 -0.663315 0.446548 0.819671 -0.384193 1.125868 -0.136189 0.499214 0.508127 0.575952 1.069726 -0.315711 -0.287244 0.342761 0.117819 0.129492 -0.453293 0.677478 -0.962511 0.608693 0.220448 -0.604473 
改革 -0.274376 0.679544 0.510816 0.314918 0.633780 0.083984 1.809632 -0.319128 -1.499038 0.080769 -0.059768 -0.206909 0.773673 -0.727938 0.060781 -0.103122 -0.986916 -0.515738 0.238688 1.318309 -0.030875 0.210897 0.549403 -0.758023 0.427482 0.059113 -0.319487 0.988429 -0.276135 -0.388133 -0.152099 -0.315513 0.054236 -0.134031 -0.886670 0.257840 -0.064082 -0.168654 0.046017 0.365149 0.336684 0.678716 -1.282334 -0.256141 -0.075099 -0.015677 -0.595779 -0.094495 0.247990 -0.302670 
但 -0.394149 -0.756785 -0.059523 0.731586 -0.068347 0.060473 0.147653 -1.105051 0.304939 0.525484 0.125948 0.961612 -0.817040 -0.478418 0.193426 1.148191 -0.436818 -0.616347 0.305533 0.066188 -0.255552 -0.029745 0.559830 -0.245015 -0.758109 0.163688 0.629376 -0.334985 -1.024168 0.100900 0.001083 -0.783489 0.003913 -0.446436 0.019891 0.240475 -0.665962 -0.790956 0.529943 -0.021079 -0.371402 0.903256 0.692358 -0.071456 -0.526095 -0.090249 -0.262389 0.237692 -0.198548 -0.796080 
政策 -0.430754 -0.756123 0.117185 -0.218774 0.229537 0.182001 0.508171 -0.265676 -0.420908 -0.536921 -0.227312 0.324301 -0.113611 -0.033692 0.755111 -0.220723 1.330228 -0.002054 0.821217 0.518030 -0.582101 0.144811 0.456160 -0.025160 0.169353 -0.937238 -0.105299 1.501481 -0.309280 0.227888 0.984472 0.379581 -0.923593 0.204526 -0.143365 0.520392 -0.132703 0.392875 0.303456 -0.226401 -0.567966 0.793742 -0.794037 -0.346688 0.513723 0.677577 -0.889357 -0.950129 -0.125747 -0.875639 
运输 -0.023680 0.110596 -0.147740 0.197729 0.003411 -0.356523 0.924947 -0.745186 -0.812086 -0.315247 0.013494 0.896152 -0.199864 0.190784 0.582560 1.907708 -0.173959 -0.167182 1.536982 -0.382720 -0.704807 -1.209545 0.122742 -0.709829 0.167187 -0.266234 0.443147 -0.625916 0.036309 0.693685 0.266306 -0.144221 0.047521 0.581002 -0.644146 -0.257825 0.887490 -0.266430 -0.875421 -0.205376 -0.250503 0.909620 -0.360308 0.293435 -0.338556 0.441461 0.397536 -1.027741 -1.494956 -1.366117 
国际 -0.156915 -0.665278 0.235981 0.164461 -1.036147 0.622925 0.921889 0.259568 -0.328570 0.679455 0.114459 0.580623 0.706960 -0.564824 -0.623726 1.438326 0.110468 -0.924267 0.159824 0.227307 -0.528923 0.695140 -0.509561 -1.083956 0.265883 0.231038 0.298516 0.600459 -0.219126 -0.560450 0.276662 -0.418721 0.006100 -0.669296 1.008609 -0.714655 0.206497 -0.805772 -0.509790 0.079833 -0.335705 -0.370223 0.283485 0.361795 -0.805981 -0.230581 -0.742775 -0.178610 -0.516429 -0.982616 
被 -0.551090 -1.100676 0.417660 -0.361743 -0.565960 -0.029274 -0.223041 0.097170 -0.098574 1.191433 1.158360 0.380973 -0.555278 -0.932664 -0.089293 1.049486 0.335189 -0.267924 1.291097 -0.013503 -0.195200 -0.454937 -0.596269 -0.739243 -0.206376 -0.536636 0.357972 0.464849 0.817566 -0.038234 -0.451490 -0.151559 -0.471332 0.698346 0.151188 -0.091052 -0.338899 0.074792 0.724581 0.351045 -0.645854 -0.398209 0.862656 -0.809531 0.734413 0.261255 -0.369934 0.943446 -0.737491 0.287787 
单位 1.119423 -0.406069 -0.504727 0.200888 0.974251 0.362809 0.618693 -0.317402 -1.632728 -0.091863 0.602316 0.566780 -0.285768 -0.538964 1.152384 1.107827 0.330147 0.183831 1.774720 0.138130 -0.419569 1.233900 0.170638 -0.886515 0.076760 0.790066 0.574949 0.482570 -0.339019 0.602786 0.084506 -0.418594 0.331269 0.504388 -0.836407 -0.721871 0.888135 0.131743 -0.102924 -0.707298 0.184341 -0.455904 0.187334 1.183783 -0.363721 -0.307460 -0.473561 -0.785748 -1.474607 -1.467604 
所 0.340828 -0.528322 -0.263696 1.489404 -0.227496 0.071214 0.660832 -0.232643 -0.009753 0.371240 0.568017 -0.969053 0.167019 -1.196828 -0.049052 0.752208 -0.265790 -0.140233 0.560236 -0.313407 0.660511 0.862245 -0.198436 -0.013324 -0.274819 0.168597 -0.346760 0.472983 -1.519116 0.441635 0.193132 0.144357 0.291910 0.104909 -0.404131 1.021825 -0.099996 -0.448560 0.261671 -0.715783 -0.212123 0.224287 0.500419 0.158110 0.234181 1.649126 0.043328 -0.148200 -0.802735 -0.128882 
公司 0.872552 -0.225109 -0.298233 0.263822 0.066796 0.351916 0.591896 0.437353 0.027458 -0.752177 0.210393 0.767497 -0.226380 -0.205462 0.404268 0.562427 0.991451 -0.294131 0.368180 -0.017752 -0.155985 0.569064 0.058273 -0.731341 -1.235003 0.046385 0.327942 1.186178 0.050617 0.754168 -0.347362 -0.211900 0.229390 0.507774 -0.251337 0.619234 1.011877 -0.524902 0.517095 -0.476049 -0.494343 0.159429 0.013348 -0.570206 -0.045273 -0.137404 0.486851 0.081034 -1.731034 0.448279 
情况 -0.323820 -0.352294 -0.204414 0.625021 0.279039 -0.818537 0.705418 -0.521692 -0.514344 -0.103601 -0.848912 1.173109 -0.236970 -0.001443 0.325499 -0.234615 -0.256024 0.359889 0.673483 0.594177 -0.680970 0.909091 0.099187 -0.168104 0.278933 -0.169483 0.066456 -0.190724 -0.651068 0.744977 0.330532 0.409206 -0.772723 0.393049 -0.880499 -0.011576 -0.221221 -0.213265 0.700884 -1.000725 0.350973 1.158917 -0.222014 0.573240 -1.161864 0.152828 -0.342948 0.662086 -0.357836 0.227060 
用 -0.233309 0.526044 0.638335 0.653696 0.114292 0.677693 0.973779 0.830387 -0.449233 0.623673 -0.187477 -0.630453 -0.760996 -0.541173 0.695955 0.347151 1.117872 0.487424 0.584786 -1.046152 -0.306354 -0.116308 -0.148179 -0.598566 -1.032119 -0.343640 -0.361923 -0.763143 0.290635 -0.213351 -0.100978 -0.233753 0.594478 0.550246 1.365790 0.168897 0.033572 -0.714139 0.788064 -0.417959 -0.061256 0.508740 0.015140 -0.236051 0.751512 0.369293 -0.903066 -0.644977 -0.932855 -0.574977 
通过 -0.063022 0.389467 0.765679 0.147118 -0.114297 0.311941 1.722713 -0.011237 -0.000976 0.532912 0.182595 0.009114 -0.938721 -0.772949 0.015818 0.722017 -0.095881 -0.720944 0.479514 -0.429737 -0.528595 -0.326161 0.128608 0.481907 -0.191690 0.493020 -0.555555 -0.040248 -0.237024 -0.358545 0.329136 -0.884074 0.100242 1.085295 0.297800 -0.555102 -0.768717 0.241695 0.130517 0.459378 -0.643145 0.346508 -0.637119 -0.494922 0.419444 -1.334709 -0.656522 0.052132 -0.345294 0.172814 
要求 -0.689793 -0.601504 -0.152503 0.740382 0.909930 -0.421747 0.340264 -0.851086 -0.690472 -0.337418 0.138046 0.624169 0.252102 -0.458296 0.850419 0.100421 0.439400 0.627818 -0.030629 0.280120 -1.233478 -0.329346 0.280637 -0.217622 0.111203 0.146359 -0.712699 0.603315 -0.883190 -0.251172 -0.473971 0.587900 0.030755 0.343861 -0.174021 0.491357 -0.423450 -0.120906 0.699364 -0.077429 0.154226 -0.496789 0.051961 0.146009 0.298170 0.054705 -0.334154 0.838562 -0.740166 -0.614824 
研究 -0.106294 -0.313040 -0.150991 -0.538280 0.141775 -0.167119 1.065513 -0.630825 0.591432 0.182743 0.197603 0.057236 -0.534490 0.187103 -0.430576 0.390806 0.326677 0.038386 1.138801 0.816992 0.151558 -0.033861 0.343365 -0.118679 0.093747 -0.010494 -0.072162 -0.108947 -1.146657 0.738298 -0.105521 -0.456323 -1.192766 0.700963 -0.020074 -0.341217 -0.022623 0.341180 0.368278 -0.026175 -0.550297 -0.016691 0.119229 0.243635 -0.605000 0.395620 -0.996196 -0.534988 -0.604373 0.013964 
系统 -0.540188 0.563166 0.201639 -0.172969 -0.023760 -0.160629 1.085805 0.388753 0.074994 0.434068 1.132188 -0.082822 -0.875332 0.250823 -0.020203 0.594109 -0.001461 -0.013266 0.453218 -0.592052 0.162488 1.040440 0.528552 -1.003512 -0.281348 -0.196568 -1.112906 -0.068086 0.206371 0.387377 0.408009 0.010842 -1.428630 1.106108 0.221618 -0.500182 0.125575 0.310094 1.058465 0.303136 0.409859 0.374792 -0.596326 0.312843 -0.223988 0.525126 -0.312723 -0.475840 -0.420876 0.858674 
截流 -0.041254 -0.859412 1.640728 -0.739361 0.656533 -0.234566 0.117195 -0.461070 -0.268591 -0.801403 0.258788 0.515592 -0.997988 -0.934828 -0.142208 0.110587 0.220004 -0.619855 0.914630 0.762036 -0.455231 0.082674 -0.071250 0.158500 0.872770 -0.636011 -0.492963 -0.157160 -0.141206 -0.833580 0.124074 0.303957 -0.653382 0.180211 0.307923 -0.386523 -1.046875 0.227303 0.971195 -0.064015 -0.162481 0.297546 -0.435677 0.579654 -0.437998 0.352585 0.432716 -0.125018 -2.649494 -0.777586 
高 -0.221873 -1.141964 0.495230 0.454165 0.114946 0.400032 0.657420 -0.760513 -0.332199 1.453274 0.354224 0.607870 -0.020600 -0.680366 0.088579 0.766831 0.524728 -0.229103 -0.131487 0.224625 -0.884242 -0.082992 1.605885 -0.691612 0.439779 0.220960 -0.229118 0.773597 0.110582 -0.852475 0.444863 0.466148 -0.049169 -0.109521 0.772280 0.120126 0.184926 -0.297853 0.172008 -0.039264 -1.124596 0.585332 0.415786 1.107826 0.345493 -0.296681 -0.334352 0.513850 -0.663043 0.870560 
同时 -1.553346 -0.979808 0.401348 0.327889 0.554969 -0.600606 0.187955 0.171195 0.247679 0.320399 -0.184651 1.183996 0.465666 0.283408 0.014299 0.705396 0.232159 0.116578 -0.029517 0.136861 0.447162 -0.009277 0.629287 -0.022856 -0.559219 -0.581360 0.106896 0.704280 -1.072517 -0.113450 -0.274758 0.067918 0.185416 0.228619 -0.844419 -0.454162 -0.517815 0.108168 0.773587 -0.695086 0.018875 0.346427 0.269651 -0.117218 0.142878 -0.095835 -0.303082 0.346772 -0.431401 -0.156674 
领导 -0.636823 -0.562322 0.934763 0.488268 0.777971 -0.565472 0.082531 -0.979955 -0.214073 -0.539776 -0.760862 -0.471733 0.009816 0.115261 0.723820 0.487997 0.644881 0.239044 -0.319332 -0.392226 -0.138614 0.382760 -0.012501 -1.241090 -0.743281 -0.662904 -1.162984 -0.192198 -0.043935 1.025781 -0.292160 -0.252905 -1.168340 0.921479 -0.272282 0.772622 -0.637286 0.302514 0.673523 -0.772314 -0.531742 -0.328254 -0.510745 -0.125684 -0.049050 -0.586144 -0.676438 0.311490 -0.855128 -0.197415 
政府 0.271919 -1.318141 0.994969 0.108495 0.632025 -0.168474 0.738954 -0.777511 -0.917700 0.221395 0.782304 -0.537328 0.475552 -0.797615 -0.610994 -0.306143 -0.005984 0.907221 0.309867 0.027462 -0.775996 0.143746 0.455513 -0.352517 -0.257317 0.580712 0.349977 -0.191716 -0.245681 0.332363 -0.404181 -0.484130 -0.856776 0.371115 0.273513 -0.347804 0.583437 0.563030 0.284195 -0.857103 -0.295044 -1.117380 0.088482 0.541221 -0.760501 -0.744778 -0.072741 -0.872622 -0.683416 -0.882582 
收购 -0.190927 0.594054 0.179287 0.464194 0.791068 0.285224 1.037147 -0.864316 -0.323302 0.252024 0.180452 -0.108873 0.301772 -0.636969 0.974059 1.094208 -1.206949 0.834032 0.008438 0.072070 0.662390 -0.001693 -0.376034 -0.330680 0.320583 0.676030 -0.281725 0.346741 -0.091786 0.777192 -0.906395 -0.244643 -0.357162 0.141343 0.556369 -0.776817 0.329527 -0.735742 0.777499 -1.386762 -0.986099 0.709528 -0.998242 1.735788 -0.088370 1.252650 0.241555 -1.653380 -0.943311 -0.622899 
自己 0.298921 0.459457 0.591465 0.294610 0.080639 -0.193826 -0.232330 -0.206912 -0.000048 0.421227 0.345202 -0.025953 -0.574901 -0.350064 -1.007625 0.341270 -0.127763 -0.781486 -0.109117 0.059030 -0.359142 0.566764 0.216244 -0.993550 -0.833760 0.066342 0.390827 -0.088430 0.962973 -0.344723 -0.514931 0.558529 -0.038261 0.314832 -0.030680 0.184484 0.480899 -0.881450 0.869319 -0.973629 -0.666504 0.203343 0.351308 -0.254273 -0.587412 0.402718 -1.159737 -0.382509 -0.466789 -0.312039 
工业 0.089040 -1.656396 0.100051 0.599789 -0.739193 0.114585 0.633462 -0.310168 -1.326535 0.151614 0.798449 -0.633014 0.310061 -0.571119 -0.501106 0.481295 0.239304 -1.089911 -0.511192 -0.627520 -0.226333 -0.144689 -0.019291 -0.529921 -0.058394 0.943026 -0.599268 0.122343 0.632590 0.997781 0.738449 0.088725 0.512339 0.583024 0.579281 0.258542 0.396808 -0.367570 0.055204 -0.102998 -0.425704 0.388017 -0.657417 -0.326551 0.199887 -0.067696 0.542836 -0.011044 -1.135402 0.160401 
目前 -0.874652 -0.461469 -0.184995 -0.394458 0.688770 0.754080 0.772309 1.137081 -0.466016 0.361597 0.093072 1.245366 -0.212796 0.508353 -0.038984 -0.094369 -0.332108 -0.181036 -0.019252 0.514961 -0.604952 0.065233 0.939716 -0.872641 -0.234464 0.298156 -0.115793 0.730229 0.049217 -0.156433 -0.345680 0.682312 -0.253565 1.095797 0.389809 0.885062 -0.841611 0.052146 0.568474 -0.901170 -0.658293 0.338523 0.939877 0.296511 0.052727 0.312451 0.806401 0.347079 -0.508177 -0.295086 
地区 0.074752 -0.885690 -0.250541 0.445993 -0.156315 -0.548788 0.790519 1.090118 -0.523126 -0.239446 0.215849 -0.207906 0.392690 -0.265531 0.980385 1.461972 0.074272 0.317099 -0.714365 -0.383922 -0.743091 0.544631 0.879590 -0.711753 -0.836705 -0.528545 0.704392 -0.461912 0.118528 -0.266164 -1.108149 -0.876385 0.138761 0.479756 -0.418260 -0.093469 -0.416611 -0.035224 0.425624 -0.641231 -0.208100 -0.907046 -0.870162 0.241415 -0.421132 0.677616 -0.042635 -0.254140 0.032187 -0.276954 
机构 -0.016340 -0.386835 0.670464 1.260346 -0.954095 -0.472804 0.754491 -0.738758 -0.781421 -0.592830 -0.138395 0.350682 -0.140530 -1.466355 0.728239 1.264012 0.176070 -0.183155 -0.242535 0.304227 -0.719791 0.155327 0.090577 -0.945034 -0.403857 0.474590 -0.238461 -0.098174 -1.240719 1.104058 0.139658 0.004628 -0.404543 1.404526 -0.309669 -0.351887 0.453625 0.361674 -0.501846 1.026474 0.559142 0.053798 -0.566666 0.248437 0.619542 -0.654620 -0.569632 0.486618 -0.156144 -0.657748 
其 0.522884 -0.736148 -1.590227 0.363983 -0.335643 0.370557 -0.175271 0.192105 0.167362 -0.851636 0.425934 0.320615 -0.466002 -1.006569 -0.580023 1.011535 -0.130895 -0.493832 0.881738 0.607828 0.268222 0.233535 -0.401702 -0.731818 0.596287 -0.380200 1.031994 -0.166597 -0.011294 0.058372 0.257587 0.493163 0.037990 -0.201039 -0.071678 0.224234 0.098965 -0.143810 0.014157 0.650316 -0.874699 0.149798 -0.811055 0.368704 -0.013599 1.169239 -0.810112 -0.420430 0.124610 -0.776341 
会 -0.327648 -0.392419 -0.697759 0.500395 -1.291871 -0.808517 -0.134335 -0.380274 -0.455099 0.353982 -0.174804 -0.732682 -0.984659 -0.610612 -0.726358 0.695020 0.185166 -0.342530 1.050935 -0.391213 -0.061276 0.501668 -1.042211 -0.724774 0.148713 -0.975710 -0.225233 1.020257 -0.122477 -0.637052 0.421882 1.254171 -0.158058 0.886361 -0.589768 0.292494 0.404258 1.513890 -0.170219 -1.005701 -0.068053 -0.474266 -0.218565 0.700690 1.478993 0.412802 -0.972862 1.056581 -0.708517 -1.044653 
石油 -0.125684 -0.474276 1.196592 -0.649740 0.356709 -0.202509 1.602607 -0.546604 -0.890321 -0.650163 0.628306 -0.399329 0.737504 -0.788600 -0.412572 0.332273 -0.142689 -0.374004 -0.458036 -0.390221 0.059521 0.345219 0.208731 -0.301328 -0.563053 -0.267545 0.016151 0.120974 -0.167689 1.254006 1.059221 -0.191659 0.537016 -0.318438 0.131616 -0.240417 0.129953 -0.536274 0.809650 -0.002079 -0.740864 0.297419 -0.580964 -0.051731 -1.153500 -0.261260 -0.339971 -0.246000 -0.085791 -0.233243 
水平 -0.665455 0.061384 -0.337875 0.769196 -1.006147 0.239149 0.273219 -0.351328 -1.064728 -0.072099 -0.527606 -0.547954 0.040976 -0.079588 0.695022 0.587504 0.882633 -0.184003 0.941636 -0.380113 -0.398897 0.208097 0.902613 -0.237211 -0.287849 -0.433722 -1.140909 0.237720 -0.643398 0.078232 -0.021022 0.362797 0.256750 0.838575 -0.247413 0.346417 0.577061 1.075629 -1.021017 -0.086165 -0.157569 0.096794 -0.240840 1.160584 -0.294821 0.240092 -0.632994 -0.942071 -0.897318 -0.264438 
组织 0.097734 -0.047489 0.419173 0.084554 0.107718 0.144852 0.222777 -0.107286 0.300827 -0.467415 -0.654222 0.093799 0.572186 -0.338081 0.554972 1.509083 1.070187 -0.535134 0.068980 -0.482396 -0.181612 0.361210 0.280519 -0.591280 0.054324 -0.487638 0.307704 -0.202860 -0.078354 0.972856 -0.040874 -0.856751 -0.745277 0.392718 0.176812 -1.064595 0.590868 0.284911 -0.184908 -0.906533 0.619146 0.276692 -1.255683 -0.140341 -0.835125 -0.560411 -0.497077 0.831943 -1.062763 -0.485025 
精神 -0.889537 0.032789 1.217800 0.859703 1.109089 0.637854 0.160716 -0.739785 -0.346217 -0.834272 0.547917 0.298688 0.479571 -0.677347 0.490951 0.218430 0.418680 0.485798 -0.077748 0.331767 -0.957186 -0.323516 0.928006 -0.283505 0.465506 -1.226728 -0.276583 -0.067513 0.339477 1.078760 -0.062318 0.275564 -0.522958 1.177216 -0.525722 0.160796 -0.421709 -0.371497 0.326154 -0.264662 -0.928862 0.100943 -0.552138 -0.298513 -0.216706 -0.500960 -1.009889 0.003988 0.172392 -0.587233 
作 0.700246 -1.117405 1.274731 0.508854 0.556156 -0.213437 0.663193 -1.407691 0.740863 1.036942 -0.349317 -0.825511 0.350180 -0.021314 -0.530075 0.808501 0.855088 -0.324014 0.227797 0.153466 -0.581618 0.210160 -0.137191 -0.188053 -0.255297 0.565340 -0.708757 -0.518430 -0.591823 -0.281994 0.160555 -0.106263 -0.065789 1.031012 -0.146552 0.272817 -0.574974 -0.174847 0.313780 -0.777912 0.013851 -0.632563 0.001325 -0.096273 0.468607 1.088796 -0.558407 0.311838 0.049466 0.186738 
增长 -1.039475 -0.662082 0.601320 1.149105 -0.091848 1.148718 1.381882 -1.582884 -1.443225 0.579081 -0.516098 0.295264 0.001571 -0.233828 -0.531285 0.344696 1.076899 -0.263554 0.478184 0.369937 -0.224246 0.096192 -0.232880 0.510149 -1.288931 -0.473942 0.128425 0.123202 0.612818 -0.438023 0.533690 0.018122 -0.222143 -0.018546 0.236788 0.003920 -0.629465 0.462768 -0.957680 0.299468 -0.333214 0.847495 -0.387188 0.436174 0.394858 -0.030299 0.436771 -0.639620 -0.095736 -1.045477 
本报 -0.181882 -1.274607 1.495495 1.527717 -0.440314 -0.188933 0.974204 -0.291782 1.210224 -0.059937 0.617959 0.740164 0.042694 -0.380657 0.137242 1.235354 0.595153 -0.446848 0.585801 -0.765706 -0.230311 -0.371575 -1.164451 -0.147685 -0.314319 0.864588 -2.027059 0.251798 1.196164 -1.155618 0.112188 -0.061160 -1.365286 1.215953 -0.102970 0.099387 0.815836 0.192901 1.198058 -0.076666 0.297104 1.155861 -1.257595 -0.306719 0.080737 -1.146352 -0.596156 -0.789946 -0.484306 -0.885787 
规定 0.740432 -0.040013 -0.266573 0.553277 0.531575 0.410135 -0.286272 -0.106724 -1.085954 -0.028286 0.855963 1.344616 -0.277506 0.213256 0.969009 1.252220 0.039143 0.025295 0.479393 0.443341 -0.798930 0.883434 -0.488040 -0.586011 0.218049 0.343814 0.437181 -0.086368 -0.296888 -0.645796 1.041657 -0.093953 0.146558 0.388689 -0.187734 -0.024934 0.602829 -0.431707 0.357702 -0.263603 -0.350904 1.074212 -0.320711 0.587840 0.642717 0.496342 -1.137802 0.604491 -0.451343 -0.938878 
起 0.373375 -0.714412 0.201608 0.076437 -0.338872 0.040884 0.597464 -0.451866 -0.755664 0.581740 -0.677024 0.559058 0.515764 0.009939 -0.884675 0.212946 1.623190 -0.039278 0.470432 0.075505 1.079490 -0.233756 -0.016806 -0.271837 -0.499164 1.158452 -0.503921 0.156306 -0.074413 -0.461473 -0.306896 0.002312 -0.582878 1.238920 0.415788 1.055157 -0.089853 -0.478432 1.162128 0.120216 0.000305 0.638486 0.135586 0.713127 -0.212870 0.689814 0.044182 -0.612909 -0.249144 0.382319 
它 -0.753693 -0.700913 -0.009144 0.017405 0.270803 -0.331660 0.852055 0.110300 -0.012039 0.208433 0.602964 1.239873 -1.106879 -0.356562 -0.653281 -0.079300 0.132647 -0.374067 0.506566 0.884865 -0.058918 -0.334795 -0.079765 -0.696473 -0.143802 -0.498957 1.273600 -0.121327 -0.203311 -0.546592 -0.493720 0.381476 0.868863 0.428558 -0.538697 -0.456111 0.233738 0.045675 0.660027 0.093467 -0.159992 0.156798 -0.208929 -0.267408 0.145922 0.334205 -0.424712 -0.171284 0.139800 -0.436281 
没有 0.423816 -0.506226 0.749779 0.547977 0.221132 0.473021 0.081154 -0.529647 -0.723910 0.549631 0.705379 -0.036142 -0.716350 -0.337098 -0.068680 1.594834 -0.800883 -0.462249 -0.043287 -0.637933 0.443034 1.102440 0.526698 -0.550063 -0.473231 -0.609293 0.705414 -0.427605 -0.111437 -0.835967 -1.081511 -0.082998 -0.274237 0.235943 -0.386470 -0.110482 -0.745317 0.793751 0.283669 -0.659028 -0.466525 0.544686 0.967050 0.895952 0.280338 -0.660648 -0.665464 0.041795 -0.254333 -0.370216 
基础 -0.410543 -0.202321 0.189938 0.047744 0.038462 -0.117806 1.047906 0.062611 -1.233974 -0.439749 -0.633184 -0.219164 1.247020 0.535041 -0.468369 0.892937 0.930445 -0.547501 0.774463 0.036770 -0.406010 -0.327724 0.096240 -1.185231 0.501892 -0.339132 -0.333957 1.029814 -0.727597 -0.168590 -0.626459 -0.550438 -0.356460 -0.596599 -0.676052 -0.416588 0.846285 0.409650 0.315548 -1.014917 -0.451867 -0.252794 -0.425512 -0.899091 1.092674 0.146895 -0.301949 1.263168 -0.114167 0.257401 
战略 0.041497 -0.940718 -0.071214 0.560147 0.507370 -0.713191 1.387935 -0.587569 -0.800401 0.020846 0.370941 0.676269 1.036395 0.921806 0.669392 0.596331 0.688942 0.035777 0.388695 0.979424 -0.337365 -0.117103 0.408030 -0.562770 0.427981 -0.109552 -0.626204 0.182808 0.267077 -0.988613 -0.116470 -0.150120 -0.836964 -0.331832 0.048384 0.589327 0.462237 0.143620 -0.097883 -0.497298 -0.543431 -0.242303 -0.661064 -0.297819 -0.300961 0.836182 -0.827459 -0.928233 0.122222 -0.127607 
方面 0.244108 -0.099372 0.561759 -0.255898 0.069583 0.260349 0.839309 -0.785848 -0.492959 0.514378 -0.247200 0.372093 0.219197 -0.031313 0.718224 0.514706 0.880192 0.498160 1.367769 -0.419950 0.165420 0.918485 -0.275801 -0.464460 0.067543 0.304504 -0.406631 0.662843 0.252686 1.079407 -0.180403 -0.534326 0.175557 0.349048 -1.059982 -0.110257 -0.627223 0.354757 0.410627 -0.129338 0.165288 0.797265 -0.527660 0.031259 -0.599290 0.976447 -0.530769 -0.077712 0.016047 0.567918 
我 -0.044603 -0.036143 -0.478901 0.246690 1.117523 0.319049 0.733513 0.203662 -0.281196 -0.018837 0.743235 1.073794 0.128691 -0.116036 -0.649178 0.798169 0.538876 -0.395680 -0.145931 0.607805 -0.609439 0.385106 0.276714 -0.909402 -0.816956 -0.677457 0.744872 -0.540231 0.784230 0.801930 -1.778682 0.475018 -0.181521 -0.095426 0.155746 -0.193468 0.612441 0.020877 1.669642 -0.228069 -0.690740 -0.027901 0.820020 -0.429661 -0.085771 -0.882505 -0.608836 0.158354 -0.423589 -0.279447 
这个 -0.578882 -0.638346 0.909121 -0.283284 0.613840 0.262729 0.311273 0.304409 0.086505 0.362795 0.910007 0.118823 0.465053 -0.314375 0.048486 0.815830 -0.357614 -1.259294 0.247379 -0.150180 -0.588685 -0.143870 0.255367 -1.012880 -0.101438 0.124402 -0.218074 0.095161 0.832641 0.840240 -0.188254 0.015554 -0.785209 -0.363134 0.790794 1.101366 -0.684184 0.028078 0.743586 -0.376760 -0.468759 0.175746 0.459640 0.088815 1.028368 1.381650 -0.599381 -0.050631 0.459633 0.074015 
建立 -0.290887 -0.459570 0.450970 0.647245 0.548731 0.317567 1.445339 -0.354421 -0.881992 0.155534 0.134038 -0.441451 1.253780 -0.363130 -0.257036 0.344629 -0.471112 -0.335090 0.330479 0.692656 0.067758 -0.096532 0.588532 -0.136052 -0.071010 0.162563 0.548654 0.103081 -0.253906 1.150923 -0.649638 -0.363544 -0.742100 0.657011 0.203908 0.298204 -0.890710 0.197920 -0.163556 -0.095491 0.599277 0.059121 -0.306434 0.181774 0.478178 0.195659 -0.875756 -0.405490 -0.220317 0.274026 
进一步 -1.003346 -0.201034 0.752257 -0.216620 0.219342 0.645253 1.627145 -0.770985 -0.402692 0.586804 -0.367256 -0.020875 -0.049155 -0.581120 0.646313 0.359339 0.087729 0.912273 -0.243076 1.231065 0.031036 -0.455939 -0.287112 -0.639469 0.204056 0.944403 -0.160356 0.885504 0.334163 0.058370 -0.270836 -0.330001 -0.185205 0.268187 0.469039 0.681573 0.485729 0.001891 0.108849 -0.226780 -0.188263 -0.494447 -0.585157 -0.017257 0.629407 -0.297448 -1.538448 0.722391 0.120938 -0.250259 
条件 0.229096 0.083165 -0.208297 0.651821 0.502266 0.015252 0.265455 -0.771853 -1.229547 -0.622712 -0.299465 0.746839 -0.077397 0.543831 0.464628 -0.168933 0.922394 0.060139 0.527009 -0.547129 -0.594447 0.299871 0.111258 -1.340788 0.160672 -0.394802 1.042582 0.545733 -1.043507 0.372556 -0.724217 0.156841 -0.184661 -0.146688 -1.412864 -0.011673 0.159748 -0.385521 0.639181 -0.900225 -0.017610 0.668477 0.191114 0.351960 0.306237 0.549155 -0.699022 0.201744 -0.252418 -0.136914 
新华社 -0.471762 -2.040577 1.815001 0.981920 0.119621 0.301821 1.290793 0.089965 0.804273 -0.433879 0.653779 0.103289 -0.679867 -0.293783 0.634807 1.012179 0.587431 -0.187838 0.062669 -0.782424 0.557191 0.139481 -1.288745 -0.249804 0.328992 0.832493 -1.014919 -0.665958 0.545971 -0.663812 0.368530 -0.224454 -0.783736 1.660424 -0.050624 -0.443698 1.575855 -0.272702 0.782271 0.165005 0.125374 0.591734 -1.273509 0.193949 -0.349503 -1.528423 -1.278044 -1.078756 -0.667946 -1.383349 
项目 0.201957 -0.108894 0.313897 0.591503 0.292289 -0.314984 0.346810 -0.330629 -0.820206 0.639054 -0.362932 -0.084683 0.048593 0.709471 0.895637 -0.366541 0.800690 -0.273342 0.344678 1.463902 -0.255903 -0.124690 0.432524 -1.019261 0.038389 -0.143890 0.100464 -0.148259 -0.268371 0.507705 0.182310 -0.326299 -0.675625 0.749746 -0.266174 -0.830146 -0.214628 0.535240 0.884382 -0.774337 -0.324876 0.201695 -0.134051 0.771414 -0.658772 0.638179 0.178024 -0.055373 -0.793824 0.622904 
软件 0.274008 -0.714577 -0.420650 0.345594 -0.097474 0.016767 0.452486 -0.913344 0.438358 0.504091 0.775829 0.364893 -0.139404 0.286010 -1.151841 1.207736 -0.294301 -0.583854 -0.021433 1.127914 0.314560 -0.139326 0.142105 -0.991012 -0.143390 -0.737289 -0.367097 0.039160 -0.336257 1.114224 0.706631 -0.302959 -0.381973 0.239079 0.067785 0.836234 0.522889 -0.065716 0.223610 -0.169396 -0.338681 -0.854593 -0.896287 -0.639181 -0.103126 0.527919 0.098737 -0.242768 -1.244665 0.811917 
作用 0.479679 -1.504784 0.045400 0.139598 -0.499122 0.606966 0.627920 -0.659688 -1.181682 -0.464101 1.200119 0.095834 -0.037199 -0.017788 -0.178519 0.046161 1.448955 0.209981 0.334477 -0.862239 0.137060 -0.576326 -0.017410 -0.559794 0.075543 -0.920122 -0.396646 1.157437 -0.299807 0.115255 0.147065 -0.634099 0.157636 -0.832841 -0.677884 -0.105664 -0.913369 -0.452412 -0.895869 -0.707396 -0.928720 0.843999 -0.385299 1.324795 -0.082406 -0.362045 -1.070324 -0.719004 -0.619811 -0.052250 
一些 0.361853 -0.640415 -0.651337 -0.068114 -0.360961 -1.099353 0.599691 -0.609691 0.177443 0.145966 -0.048870 0.438284 -0.526788 1.207639 -0.180072 0.882072 -0.424382 -0.293363 0.141454 0.272610 -0.067894 -0.199464 0.452031 -0.172121 0.061950 -0.104567 1.336213 1.039521 0.164184 0.496282 -0.414087 0.091284 -0.187384 0.222661 -0.381592 0.813232 0.287904 -0.265632 0.839441 -0.839814 0.025634 1.186662 -0.381722 0.577579 0.622137 0.636371 -0.611835 -0.558245 -0.004370 -0.727648 
提供 0.101902 -0.070202 0.989956 0.661630 0.053060 0.001755 0.474159 -1.319716 0.902450 0.869148 -0.132951 0.035073 0.165650 0.443953 0.601860 1.562408 0.169267 -0.507978 0.552540 0.086535 0.585753 0.464210 0.226392 -0.050993 -0.716189 0.960468 0.403419 0.134056 0.373555 -0.212400 0.180331 0.059818 -0.483461 0.410689 0.036890 -0.536390 -0.774811 -0.823878 0.082344 0.186507 0.810070 0.738609 -0.974618 0.030130 0.359082 1.281859 -0.247688 0.318867 -1.052043 -0.033355 
可 -0.176745 -0.509706 0.137453 -0.062703 -0.911398 -0.432760 1.138053 0.301836 -0.189588 0.801026 0.684177 0.270759 -1.531705 -1.197544 0.273480 0.679711 -0.136727 0.287786 0.060360 0.556553 0.720708 -0.601600 0.309653 0.652518 -0.577880 0.760919 0.075804 -0.147020 0.079574 -0.212330 -0.538157 0.158924 -0.148931 0.857969 0.135068 0.178724 1.022075 0.542367 0.522934 0.705375 -0.398562 0.564719 -0.051916 0.863185 0.388417 0.820432 -0.759497 0.771860 0.228270 -0.207621 
电 0.438490 -0.697602 0.664987 0.730910 0.117785 -0.498850 0.910958 0.104063 0.731339 0.166530 0.341083 -0.709211 0.491384 0.045505 -1.224006 1.067161 0.136943 -0.543182 -0.599620 -0.370121 0.097428 -0.940800 -0.483185 -0.355065 -0.114671 1.013497 -1.247923 0.721493 0.618969 -1.148119 -0.230129 -0.151213 -1.415007 1.823000 -1.403733 -0.850374 0.520883 0.753707 0.900358 0.720298 -0.920591 0.145971 -0.732857 0.045229 0.726263 -0.197413 0.050490 -0.311673 -0.998474 -0.738163 
达 -0.405687 -1.426904 -0.553010 1.093743 -0.266911 0.758231 -0.206061 0.039144 -0.190915 0.150702 -0.079283 -0.330453 -0.610485 0.489101 0.536086 1.043731 -0.046707 -0.600282 0.950543 -0.156319 -0.682988 -0.030028 -0.410379 -0.516044 -0.649005 -0.220020 -0.244483 0.794514 -0.176720 -1.016540 -0.259986 -0.396191 -0.544351 0.607512 -0.218239 -0.445730 -1.064550 0.748258 0.560973 0.917907 0.347429 0.668329 -0.085184 0.079412 0.279586 0.635182 -0.154658 1.082971 -0.091465 0.072369 
按 0.562772 0.166883 0.001408 0.546852 0.019352 0.666707 0.876539 -0.089145 0.057752 0.490646 1.167524 0.691239 0.010668 -0.364247 0.560196 1.001926 0.188915 0.477099 0.998929 -0.151846 0.132542 -0.345337 0.577821 -0.543307 -1.141909 1.716049 0.680962 0.558318 -0.018250 0.120333 0.197596 1.245506 -0.896043 0.710191 1.693563 0.008878 0.056544 0.063464 0.610426 -0.533746 0.169495 -0.026577 -0.907541 0.333542 0.086440 0.664352 0.034726 0.102681 0.021255 -0.388396 
必须 0.131680 -0.658082 0.157454 -0.090726 0.530894 1.048965 0.815472 -0.012543 -0.523137 0.025692 -0.270287 0.010255 -0.688339 -1.152450 1.131782 1.680650 0.992423 -0.167407 0.555014 0.309796 0.745352 -0.065295 0.119529 0.376739 0.128862 1.194673 0.621498 0.306664 0.178001 0.226868 0.417882 -0.001699 -0.417929 0.827805 -1.108431 0.829604 0.870717 0.445346 0.379995 -1.106475 -0.536268 -0.306170 -0.424194 -0.238849 -0.191195 -0.293839 -0.413952 0.961571 0.382877 -0.615264 
很 -0.717474 0.146518 0.073097 -0.136417 0.488259 0.403638 0.750179 -0.392083 0.057174 -0.539577 -1.800354 0.386294 -0.787393 -1.033944 -0.105414 0.741377 0.341716 0.177889 0.103866 -0.050680 -1.271314 0.408724 0.436147 -0.938041 0.837093 -1.262020 0.455655 0.046401 -0.558699 0.036630 -0.019014 -0.619780 0.005684 -0.477642 -0.254582 0.778938 0.622217 -0.054107 -0.434093 -0.175874 0.080486 0.574749 0.489761 1.331323 0.179279 0.190694 -0.501403 0.275250 -0.306726 0.168484 
党 0.485605 0.367248 1.366349 0.173547 0.191856 0.504683 1.907141 -0.533136 -0.864726 -0.687181 0.775919 -1.035345 0.262616 -0.437032 -0.292074 -0.005596 -0.034894 0.442780 0.353187 0.164087 -1.220989 0.384953 0.038084 -0.885407 0.517647 1.219969 -0.175400 0.119344 1.036502 0.425891 -0.751596 0.027397 -0.194314 0.326774 -0.180769 -0.114887 -0.554826 0.220872 0.527160 -0.229826 -0.242551 0.053390 0.136995 0.030691 0.173915 -0.587464 -0.683250 -0.426355 -0.199169 -1.043318 
三 -0.277976 0.009951 0.046627 -0.286174 1.017751 0.250185 0.959172 0.508999 0.295703 0.310071 -0.708750 0.752910 -0.055212 -0.494254 0.106213 0.311469 -0.025755 0.115204 0.570668 0.020812 -0.016674 1.201124 0.471692 -0.385737 0.652691 -0.297923 0.438564 0.214457 0.124201 -0.025563 0.068580 -0.310963 0.346901 0.136146 -0.165687 -0.598933 1.301686 0.626498 1.122746 -0.242626 -0.324848 -0.146620 -0.850987 0.246004 0.553835 -0.922444 -0.391229 0.410190 -0.828704 0.026039 
提出 -0.123898 -0.029998 -0.030144 -0.844780 0.046199 -0.332842 0.267922 -0.624816 -0.920079 -0.308107 0.024597 0.288928 -0.054338 -0.567675 -0.464481 0.540418 0.874020 0.256792 0.812498 0.375291 -0.654795 -0.157916 -0.601723 -0.560108 -0.505689 0.643297 -0.341496 -0.937303 -0.052096 -0.284559 0.137870 -0.680247 -0.432540 0.520488 -0.256380 0.391273 -0.880626 0.315209 1.116160 -0.602721 0.477872 0.383646 -0.711831 -1.213438 0.316281 -0.215473 -0.954601 0.255618 -0.406734 0.772910 
里 -0.615072 -0.861470 0.215752 0.456734 0.220349 -0.494652 1.203914 0.802356 0.682530 -0.298499 -0.114515 0.132345 0.353460 -1.063856 -1.190632 -0.450132 0.246273 0.570289 0.348340 0.039749 0.077265 0.565138 0.187653 -0.612169 -0.560463 -0.681237 -1.714057 0.529178 -0.456970 -0.085727 -0.356897 -0.756241 -0.191090 0.163354 -0.265874 1.038691 0.741976 0.248851 0.038669 -0.046468 -0.593123 0.023409 -0.027326 0.125526 -0.099877 0.510523 -0.538008 0.464079 -0.783310 0.001784 
及 -0.763876 -0.988205 0.259118 0.589791 -0.258059 0.638174 0.150836 0.135158 -0.043132 -0.492926 -0.867243 -0.381391 -0.475258 0.140341 0.816386 1.015728 -0.194150 0.615030 1.716110 -0.592702 -0.207093 0.334639 0.035989 -1.572561 0.398249 0.313793 0.784230 -0.618282 -0.195259 0.046040 0.786938 -0.449488 -0.471838 0.636443 0.313460 -0.088321 -0.737162 -0.619080 0.319771 -0.841726 -0.222079 0.671706 -0.570422 0.176504 -0.311749 -0.515361 0.224611 -0.665390 -0.559205 0.666120 
计算机 -0.441316 -0.849016 0.119302 -0.382201 0.598326 -0.122277 1.489828 0.485499 0.111086 0.603714 -0.334930 0.465871 -1.178532 0.590277 -0.637866 0.479612 -0.010860 -1.169596 0.701997 -0.019979 0.388695 -0.142449 -0.243399 -1.922332 0.025313 -0.559028 0.382356 -0.659607 -0.319054 0.813171 0.171723 0.428822 -0.474629 0.553312 0.160350 0.045139 0.670247 -0.417027 -0.111021 0.563885 -0.682996 0.041825 -0.320775 -0.160784 -0.604319 0.439958 -0.685270 -0.378236 -0.679945 0.476228 
人员 0.080264 -0.059909 0.272884 0.187825 0.151754 -0.621432 0.739351 0.441952 -0.807353 0.305022 -0.448078 -0.042610 -0.348326 -1.084633 0.648813 1.373104 -0.446847 0.055003 -0.056337 0.878800 -0.092062 0.670789 -0.057138 -0.359603 -0.218107 0.572706 0.513653 0.379241 -0.655233 0.619407 -0.395148 -0.582866 -0.743910 0.774908 -0.216392 -0.484764 0.074941 -0.015346 -0.662777 0.235388 -0.414713 0.243794 -0.147390 0.644084 -0.771267 0.318803 -0.189120 0.138225 -0.421218 -0.262379 
历史 -0.379602 -0.770415 0.646944 0.641457 -0.471677 0.965085 1.163102 -0.995654 -0.107743 -1.080412 0.624832 -0.155541 0.389345 -0.440022 0.667231 0.376272 -0.108483 -0.502562 -0.324361 -0.080076 0.172303 -0.294378 -0.013267 -0.288489 -0.912281 -0.120172 0.023677 -0.142230 -0.076947 -1.032701 -0.404424 0.591951 -0.669034 -0.174311 0.041027 0.488924 0.352354 0.849854 -0.011752 -0.042621 -0.392998 -0.117616 -0.067983 -0.625316 -0.168009 1.781152 -0.028864 -1.379824 -0.010652 -0.624844 
发挥 -0.178805 0.123048 -0.185286 -0.713135 -0.440365 -0.684781 1.807905 -0.495560 -0.591268 0.573196 -0.823994 -0.245776 -0.241167 -0.945839 0.978581 -0.165152 0.628791 -0.385123 0.975522 -0.064659 -0.120603 -0.253825 -0.200438 0.780821 0.252557 0.257723 0.829799 -0.282349 0.240670 0.411269 -0.724953 -0.603667 -0.154541 1.095776 -0.283658 0.974570 -0.722788 -1.368596 1.142416 0.416770 -0.450733 0.363120 -0.221615 1.940222 0.323317 0.959074 -0.660119 0.442928 -1.206046 -0.267336 
省 0.396143 -1.424749 0.349474 0.069449 -0.616392 -0.564704 1.262723 0.466774 0.496057 -0.410830 -0.084590 0.738346 -0.021314 -0.526680 0.393881 1.291342 0.314539 -0.416460 0.322387 -0.295960 -0.763590 1.080959 0.220812 -0.251941 0.002961 1.153315 0.736948 0.141671 0.322183 0.923487 -0.261577 -0.180030 -1.008259 0.313325 -0.714003 -0.513403 0.524291 0.828042 0.487198 -0.142469 -0.075059 0.252241 -1.010237 0.044481 0.566282 -0.528920 -0.045257 0.413453 -0.246240 1.244978 
代表 -0.348306 -0.892813 0.306575 -0.926576 0.012879 0.827549 0.666113 0.716070 -0.453913 -0.230071 0.927340 0.168398 -0.546918 -1.400346 -0.158161 0.549299 1.324057 0.901693 -0.050929 0.209311 -0.711485 0.849143 -0.122542 -1.125468 -1.078472 0.171698 0.837947 -0.027723 0.670006 -0.089700 -1.233502 0.543356 -0.521277 0.246909 -0.448650 -0.176220 0.708320 -0.957462 -0.684543 -0.253086 0.838345 -0.735572 -0.517002 0.371483 0.117902 -0.400704 -0.637942 -0.124147 -0.527940 0.268910 
保护 -0.631367 -0.135477 -0.813255 -0.706478 -0.101932 -0.027274 0.209589 -0.136197 -0.576444 -0.372025 -0.440954 -0.498682 -0.200036 -0.563919 -0.218383 -0.091641 -0.245271 0.104541 1.113504 -0.785912 -0.777494 0.936478 0.141003 -1.048832 0.085609 0.663160 -0.234801 0.339129 0.582118 -0.100040 -0.234097 -0.691938 -0.872402 -0.782494 -0.367680 -0.009126 -0.625430 0.245398 0.716991 -0.185862 -1.185487 -0.402725 -1.448408 0.230211 0.256956 0.878540 -1.411517 0.115990 -0.642859 0.033732 
北京 0.450710 -1.106516 0.733353 0.679820 -0.088134 0.181311 1.745890 0.412577 1.118521 -0.291622 1.333321 -0.317875 -0.616574 -0.971392 -0.861610 1.646899 1.191986 -0.287640 0.724654 -0.400361 0.451482 -0.416592 -0.137078 -0.545871 0.835299 -0.500897 -0.982408 -0.362056 0.424389 -0.198211 -0.350079 0.287860 -0.643246 1.956988 0.091188 -0.704695 0.482350 0.621818 -0.008243 0.048890 -0.215674 0.408769 -0.785113 -0.461598 0.320944 -0.108014 0.106281 0.092411 -0.056398 -1.040369 
以及 -0.275732 -0.852056 0.197695 -0.317643 0.059704 -0.210953 1.469636 -0.158571 0.061477 0.012400 -0.103068 -0.240028 -0.171627 -0.787823 0.804974 0.603986 0.142234 0.393162 1.117336 0.267624 0.319659 -0.226674 0.313026 -0.461652 -0.045927 0.919575 0.772294 -0.052724 0.131856 -0.083056 0.344069 -0.609402 -0.023413 0.028569 -1.023469 -0.326265 0.288997 -1.013062 0.305108 -1.202348 -0.021785 0.300098 -0.456377 1.597726 -0.618487 -0.469708 -0.057690 0.188233 0.261527 0.323009 
人们 -1.094296 -0.528829 0.439257 0.302000 -0.265914 0.925653 1.099073 0.169532 -0.172749 0.117916 0.362203 -0.456308 -0.339480 -0.737690 -1.226996 0.592975 -0.546388 -0.225480 0.190526 0.148282 0.423241 0.823072 -0.220533 -0.419186 -0.367521 -0.229069 -0.538065 0.865620 -0.415947 -0.441966 -0.656377 0.151515 0.065030 -0.140949 -0.088197 0.827346 -0.148942 0.031041 -0.116883 0.445142 0.075729 0.132660 0.227656 -0.099036 -0.592271 0.148141 -0.352787 0.232578 0.860965 -0.695006 
增加 -0.254212 -1.128687 0.640213 0.492792 -0.331446 1.236908 0.620894 -0.026318 -0.482689 0.232111 -0.979973 -0.755651 -0.189105 -0.573244 -0.081970 0.053723 0.424243 0.130279 0.242771 0.092359 -0.113868 0.028828 0.540987 -0.469408 -0.830487 1.171366 0.281932 0.431216 -0.064949 -0.206378 -0.424317 -0.787612 -0.561420 -0.844888 0.776833 0.082036 -1.003799 0.567724 0.231254 0.694807 0.164651 0.573977 0.050531 -0.023081 1.074987 0.538786 -0.464750 0.102332 -0.870532 -0.570575 
贷款 0.180537 0.001124 0.992335 -0.505145 -0.143680 -0.403733 0.090022 -0.922773 -0.816560 0.673644 -0.913184 0.737389 -0.781876 -0.220545 -0.538865 0.136373 -1.174627 -0.874376 0.224684 0.441743 0.445965 0.884872 0.052081 -0.789625 -1.282518 -0.339434 0.592878 -0.154072 -0.066091 1.026908 0.247228 -0.295734 0.467237 1.264711 0.055564 -1.005492 0.358544 0.826366 0.229500 -0.270528 -0.443544 0.886000 -0.637648 0.355164 0.246706 0.525654 0.101264 0.186215 -0.435393 -0.662780 
需要 -0.542479 0.507455 0.176274 1.242628 0.652667 -0.445620 1.043390 -0.596635 -0.213196 0.452145 0.608067 -0.149066 -0.141464 0.064920 0.369413 0.278919 -0.005967 0.531546 0.013984 -0.155623 -0.340024 -0.540305 0.250590 -1.308075 0.192432 0.542893 0.038782 0.893198 -0.245698 0.295021 0.464547 0.015295 -0.090635 -0.023042 -0.037991 -0.397085 -0.969979 0.495417 -0.559436 -0.313127 -0.764460 0.186973 -1.192204 -0.040058 -0.180591 0.651365 -0.465416 0.842470 0.523962 0.091695 
你 -0.249544 -0.172248 -0.223594 0.088937 0.392340 -0.331921 0.219759 -0.349243 0.165253 0.816286 0.435771 0.711234 -0.973701 -1.249195 -1.538776 1.000928 -0.511550 -0.188959 0.184791 0.562122 -0.764401 0.919149 0.513424 -1.950859 -0.215830 -0.194229 0.159894 0.501150 -0.561617 0.052325 -0.560751 1.122204 0.694668 -0.324228 -0.757871 -0.278369 1.010338 0.521205 0.162569 -0.240323 -0.344995 0.246153 -0.028722 -0.524832 0.481140 -0.259647 -0.893309 0.126591 -0.754554 0.097141 
实施 0.210702 -0.123670 0.190094 -0.185356 0.461473 -0.072214 1.012942 -0.073810 -1.341347 -0.294697 -0.384173 0.774432 0.164209 0.287552 0.276158 0.074720 0.952390 -0.883100 0.558560 0.268388 -0.186153 -1.024104 0.473112 -0.674224 0.497780 0.378264 0.385566 -0.430757 -0.030605 0.792692 -0.001543 -0.556582 -0.627174 0.601480 0.003962 -0.073407 -0.786511 0.280610 0.289246 -0.489816 0.163934 0.510991 -0.835692 -0.569769 0.256437 -0.148571 -0.607829 -0.359759 -1.066401 0.061252 
形成 -0.135873 -0.505004 0.080753 0.303931 0.404310 -0.330815 0.825989 -0.086231 -0.321411 -0.153106 -0.133541 0.035682 0.314404 -0.347337 -0.135446 1.355324 0.514897 -1.094538 0.721760 0.545185 -0.504351 -0.457788 0.381474 -0.008132 -0.127665 0.602008 -0.200996 0.363109 0.259818 0.122791 -0.528136 -0.908032 0.523027 0.539052 0.114080 0.438851 -0.155418 -0.017685 -0.068415 0.434319 0.565905 -0.161763 0.200345 -0.002956 0.444692 0.191618 -0.250273 0.461717 -0.890704 0.190494 
解决 0.654709 -0.618835 -0.354647 -0.897811 -0.298876 0.194986 1.224333 -0.776928 0.317320 0.264960 -0.191746 0.225182 -0.321967 0.009436 -0.323113 -0.007584 -0.518153 -0.850711 0.546659 0.880283 -1.098218 -0.443342 -0.147696 -0.845964 -0.141168 -0.234333 -0.256883 0.821107 0.200491 -0.180031 0.212581 -0.971277 -0.126687 -0.142529 -0.010091 0.495577 -0.411747 0.477882 0.063709 0.088993 -0.201266 0.350452 0.115944 1.082763 0.378536 -0.860924 -1.002149 -0.288388 -0.866647 0.091766 
前 -0.602363 0.183998 0.606462 1.220447 0.141721 0.424507 0.597135 0.222066 -0.094880 -0.827201 -0.532371 0.193090 0.375288 -0.799168 0.388709 1.328879 0.176589 0.252707 0.677479 0.330542 0.155256 -0.370334 1.048296 -0.994665 -0.226131 -0.360565 -0.109232 -0.276184 -0.342674 -0.472379 -0.564458 0.297037 0.093742 0.197198 0.002054 0.195610 0.475145 0.406954 0.176908 0.654343 0.952834 0.425800 0.866966 0.689932 -0.368567 0.566255 0.505183 -1.157118 -1.306344 -0.849577 
以上 -0.191673 -0.561137 -0.569499 0.451872 -0.199940 1.315589 -0.292412 0.060638 -0.297483 -0.455085 0.971031 -0.221072 0.113291 -0.064261 0.122746 1.571129 -0.600891 -0.113562 0.657875 0.057347 -0.759977 0.430066 -0.157961 -0.609843 0.214864 0.227865 0.434600 0.089655 -0.268401 -0.195721 -0.612489 -0.927062 0.312002 0.889140 -0.414953 -0.462393 -0.086573 1.096379 -0.382344 -0.018992 -0.953642 1.409019 1.255041 0.755350 0.451018 0.398132 0.150433 0.540996 -1.124825 -1.167994 
区 -0.238366 -1.453515 -0.110773 0.066000 0.027948 0.243200 1.455815 0.415532 -0.067698 -0.452807 0.934520 0.326070 -0.196207 -0.197085 -0.187691 -0.562317 -0.231455 0.113694 0.018698 -0.001341 0.376562 0.656785 0.023004 -0.186958 -0.304658 0.219333 -0.193838 -0.607825 0.350130 -0.073865 -0.648996 -0.734273 -0.443204 0.308798 -0.314138 0.033970 -0.166954 0.474512 1.352697 -0.168213 -1.325447 0.864289 -0.387133 -0.264555 0.572894 0.113546 0.717528 1.217119 -0.216945 0.199127 
措施 -0.091693 -0.499399 -0.144275 -0.345395 0.416909 0.607400 0.341646 -1.152379 -0.886999 0.934661 -0.632237 -0.497216 -0.155880 1.281351 0.203965 0.553924 0.979598 1.158584 0.383429 0.532244 -0.263772 -0.176324 0.783232 -0.959224 0.151822 -0.502146 -0.851236 0.312493 -0.739862 0.717322 -0.113274 -0.906567 0.265376 0.498017 -0.057218 0.006269 -0.339823 -0.106730 0.599030 -1.092949 -0.139259 1.081150 -0.868774 0.350864 0.617471 0.093634 -0.634091 -0.330638 -0.524128 -0.065875 
投资 0.461946 -1.274081 -0.126018 0.950029 -0.475773 0.918489 0.384663 -0.565814 -0.197686 -0.549873 0.372015 -0.829633 -1.169664 -0.165223 0.015011 0.480121 0.317248 -0.199700 0.576366 0.406933 0.005290 0.120777 -0.116856 -0.266204 -0.083276 0.000259 -0.373377 0.905844 -0.947292 -0.114283 -0.221945 0.135498 -0.076156 -0.332816 0.323081 0.334151 -0.586458 0.764805 0.690789 -0.313578 0.070055 0.848282 -0.027277 0.575054 -0.100202 1.237514 0.698736 0.523757 -1.266980 -0.214841 
积极 -0.679670 0.248058 0.236586 -0.021058 0.264778 0.068877 -0.038445 -0.473456 -0.784968 0.420020 -0.116561 0.045123 -0.423176 0.151320 -0.410071 0.677197 1.010037 0.168055 -0.345621 0.598335 0.067711 -1.167286 0.881899 -0.158183 0.400624 -0.158875 0.526778 1.399927 0.101311 0.273415 -0.714690 -0.992640 0.001199 1.262489 -0.195722 -0.336931 0.061217 -0.052585 0.158015 -0.651010 -0.896291 0.276504 -1.092106 -0.343823 0.495422 0.003798 -0.942945 0.527293 -0.585598 -0.632997 
？ 0.509359 -0.587945 0.078779 0.240615 0.560020 0.431423 0.956657 -0.578733 -0.860451 0.963697 -0.090545 -0.135392 -0.575609 -0.566681 0.278886 0.243739 -0.003923 -0.121964 0.477730 -0.222347 -1.033223 -0.302616 0.111320 0.557437 -0.411064 -0.974891 -0.294239 -0.279620 0.677509 -0.064593 -0.030833 -0.102923 0.730861 -0.525600 -0.508646 0.900195 0.482760 -0.000984 1.189284 -0.508403 -1.058702 0.941518 -0.115660 0.178002 -1.024166 -0.368788 -0.590332 0.341471 -0.830878 0.029101 
这些 -0.141957 0.176076 0.481555 0.313070 0.185245 -0.268860 0.596063 -0.277515 -0.116016 0.888576 0.114715 0.259093 -0.359375 1.443066 -0.792832 0.652125 -0.197141 -0.645782 0.693760 0.238624 -0.610592 -0.155632 -0.049069 -0.130330 -0.602022 -0.901345 1.092420 0.813456 0.426527 0.526127 -0.898389 -0.260606 0.157597 0.627282 0.199417 0.069574 -0.551675 -0.266131 0.978697 -0.491081 -0.764714 0.645070 0.136641 0.114060 -0.121943 0.593608 -0.482350 -0.625944 -0.331365 -0.570790 
充分 -0.534421 0.347289 0.574294 -0.702779 0.079135 -0.519385 0.849322 -1.469262 -0.256619 0.670699 0.266706 0.277155 -0.095568 -0.774015 0.236530 -0.707881 0.446265 0.665162 0.010065 1.039863 0.360483 -0.694262 -0.166990 -0.286849 0.033505 -0.423081 0.454821 0.606659 0.170035 0.385696 0.139553 -0.823129 0.124929 0.441945 0.186652 0.275864 -0.056127 -0.156794 1.853985 0.333340 0.234813 0.817955 -0.000713 0.405104 0.284747 0.197906 -0.446766 0.639567 -0.605411 -0.968964 
作为 -0.038223 -0.360485 0.662502 -0.572731 1.348464 0.670514 0.826993 -0.008692 -0.693934 0.107787 -1.077144 0.106514 1.559619 -0.251806 0.264963 0.941089 0.244659 -0.586253 0.366386 0.737593 0.730688 -0.218608 0.664224 -0.638108 -0.121162 0.376639 0.828230 0.449034 0.209651 0.108973 -0.292444 0.244592 -0.045792 0.421279 0.080990 0.681712 -0.162346 -0.111634 -0.237594 0.350994 -0.775681 -0.257818 -1.060602 -0.448335 0.380409 -0.075103 0.248445 -0.837540 0.270233 -0.211925 
给 -0.394631 -0.116781 0.462680 -0.347624 0.895867 -1.486005 0.614204 -0.431539 0.109977 1.084154 -0.537828 0.191476 -0.214222 -0.776604 0.001447 0.439836 0.296819 -0.451178 0.706375 -0.568888 -0.106534 0.647249 0.152261 -0.605036 -0.644052 0.145466 -0.492339 0.072934 0.278913 -0.823328 0.066264 -0.165745 0.057266 0.222717 0.370241 1.158086 0.045742 -0.134975 0.195820 -0.286559 -0.110070 0.120224 -0.008109 0.573441 -0.582395 0.195203 0.095310 0.108362 0.133621 -0.817412 
达到 -0.999044 -0.953068 -0.507906 -0.007905 -1.027915 1.610780 0.045607 -0.748770 -1.412289 0.933456 0.760535 -0.588047 0.060225 -1.077179 -0.085673 0.377031 0.961769 -0.023846 -0.095039 -0.296737 -0.584838 -0.015038 -0.309488 -0.749634 -0.380871 1.107770 0.064257 0.990974 0.105673 -0.678334 -0.164958 0.150803 -0.261929 1.168249 0.178995 -0.148435 -1.016699 0.686121 0.338270 0.282063 -0.346247 0.612028 -0.478369 0.422408 0.459655 1.090203 0.673362 0.540401 -0.574247 -0.065843 
教育 0.209889 0.254288 0.758457 0.348496 0.237773 -0.511906 1.101524 0.302564 0.127004 0.835246 0.464754 0.182848 0.871683 0.592336 -0.230707 -0.382467 0.198890 -0.958199 0.763568 -0.435862 -0.150594 0.012751 1.396314 -0.404892 -0.104935 -0.279405 0.313317 0.400787 -0.330673 0.433004 -0.771580 -0.305677 -1.499915 0.809916 -0.192942 -0.366119 -0.257508 -0.282905 -0.233753 -0.146690 -1.021766 0.217203 -0.536968 0.497868 -0.014597 0.356773 -0.333958 -1.245264 -0.662626 -0.196313 
县 0.120009 -0.114292 0.205488 0.358572 -0.369829 1.433317 0.686451 0.903420 0.863929 0.076217 0.019432 -0.468131 0.413691 -0.865896 0.133058 0.737041 0.301582 -0.021686 0.189560 -0.012883 -1.292051 1.528527 -0.273306 -0.526978 -0.200203 0.961119 -0.220520 0.544266 0.381484 1.063517 0.120997 -0.381458 -0.752672 -0.024401 -0.921244 0.938180 -0.315466 0.818256 0.519941 0.261209 -0.954937 0.355355 -0.006322 -0.683052 0.357286 -0.604981 -0.243518 0.556287 -0.597132 0.260744 
得 0.224911 -0.322084 1.127552 1.483038 -0.260444 -0.865555 0.839641 -0.792605 -0.285617 -0.399782 0.272177 -0.706859 0.229466 -0.239938 -0.964965 0.906211 0.436616 -0.336955 0.686451 0.325664 -0.456248 -0.219616 0.386064 -0.253928 0.098196 -0.558563 -0.518701 -0.523475 0.735976 -0.230420 -0.292629 0.471752 -0.343376 -0.278734 0.281867 -0.053627 0.672961 0.153938 1.208527 -0.276571 -0.405172 1.062077 0.913176 1.406500 -0.084052 0.121360 -0.938986 -0.177106 0.113805 0.253364 
不仅 -0.847339 -0.178369 0.405286 -0.317987 -0.092246 -0.559180 0.465763 0.098966 -0.804320 -0.009958 0.167014 -0.532097 -0.340968 -0.928704 -0.039897 0.685142 -0.074332 -1.157580 0.237009 0.293065 -0.937514 -0.154083 0.124001 -0.274116 -0.598410 0.597285 -0.528971 0.114671 -1.053781 -0.212132 0.295573 -0.785992 0.456408 -0.430818 -0.421485 0.646781 -0.071920 0.215441 0.712665 -0.310083 -0.596076 -0.114921 -0.301686 0.152185 -0.136599 -0.330301 -1.075253 -0.283893 -0.157456 -0.373866 
抓 0.138057 0.968744 0.605836 0.035694 0.270415 0.040181 1.939428 0.889219 0.333467 0.295171 -0.685036 -0.602490 0.499965 -0.160527 -0.264260 0.233548 -0.049611 0.305425 0.062672 0.779241 -0.542995 0.068484 0.823774 -0.065105 1.008922 0.119053 -0.177198 -0.060834 -0.491463 0.100835 -0.476210 -1.252874 0.587388 0.171206 -0.626836 0.290171 -0.751463 1.272542 1.722237 -0.462301 -0.118214 -0.113786 -1.289881 0.657970 0.706533 -0.077851 -1.165043 -0.058364 -1.032493 0.845016 
